svm_type c_svc
kernel_type linear
nr_class 9
total_sv 1719
rho -0.1003456464458646 -0.47427219905903006 -0.5984677292199133 -0.2810029510497282 0.04603164028528569 -0.30572129012408433 -0.17057580002748815 -0.0529372463296188 -0.4218670422468512 -0.444988840286328 -0.18369339771441093 0.03827084806633706 -0.34494458238902465 -0.08511893978886614 0.3803064909273542 -0.18278464497654376 0.3402863397564434 0.4171687463794318 0.26574377524537884 0.39700982121568984 0.69364075134473 0.4252267116868382 0.6348253259597293 0.5419521256371306 0.554835036302368 0.7518183943927915 0.23408776173772242 -0.056734834043188916 0.10309547291890726 0.5400879906680763 -0.31451063291952264 -0.06643778327149769 0.31892858611317365 0.14927626404496622 0.3908024822828241 0.46172427153104684
label 7 9 4 1 8 2 5 3 6
nr_sv 211 235 167 136 137 265 130 182 256
SV
0.0 0.0 0.0 0.0 0.06301395914009227 0.0 0.021899583315604328 0.0 5:1.0 15:1.0 24:1.0 42:1.0 47:1.0 73:27.0 91:1.0 99:1.0 100:1.0 102:1.0 121:1.0 175:2.0 200:2.0 234:1.0 286:1.0 312:23.0 372:1.0 410:4.0 413:3.0 537:3.0 545:3.0 594:2.0 652:4.0 690:1.0 798:5.0 878:3.0 1012:2.0 1114:1.0 1116:1.0 1143:1.0 1197:1.0 1486:1.0 1533:5.0 1572:9.0 1618:4.0 1662:1.0 1675:1.0 1886:2.0 1979:4.0 2239:2.0 2253:3.0 2432:2.0 3029:6.0 3272:1.0 4137:2.0 4296:1.0 5940:1.0 13771:2.0 14030:-1.0 
0.0 0.0 0.0 0.0 0.0 0.0 0.008204679571927784 0.0109956467951878 5:1.0 14:2.0 19:1.0 42:1.0 85:1.0 135:2.0 141:1.0 196:8.0 197:1.0 210:1.0 246:1.0 261:5.0 292:5.0 380:1.0 412:1.0 558:1.0 699:1.0 715:3.0 798:6.0 925:1.0 1047:7.0 1582:1.0 1699:4.0 2163:4.0 3712:1.0 4079:3.0 4536:1.0 13728:5.0 14030:-1.0 
0.0 0.0 0.0 0.0 0.05964150048681013 0.0 0.0 0.0 5:1.0 14:19.0 15:2.0 19:1.0 48:1.0 121:4.0 135:2.0 151:3.0 284:1.0 292:4.0 312:1.0 376:4.0 380:1.0 400:1.0 715:7.0 727:3.0 1287:9.0 10046:2.0 11498:1.0 14030:-1.0 
0.0 0.0 0.0 0.0059196304039427815 0.0 0.0 0.0 0.0 14:14.0 47:1.0 48:2.0 292:1.0 412:1.0 560:1.0 789:2.0 843:1.0 1546:6.0 2568:7.0 14030:-1.0 
0.002064045948279124 0.0 0.00933828497417261 0.0 0.0 0.0 0.0 0.0 5:6.0 14:2.0 33:1.0 47:1.0 79:8.0 84:2.0 87:5.0 91:4.0 135:2.0 151:2.0 164:5.0 292:1.0 312:2.0 334:1.0 349:1.0 412:1.0 535:5.0 566:1.0 578:2.0 699:2.0 1095:1.0 1125:2.0 1183:2.0 1211:3.0 1263:2.0 1389:1.0 1427:1.0 1454:3.0 1712:1.0 1856:3.0 2181:5.0 2226:1.0 2438:1.0 3465:2.0 4212:3.0 4448:3.0 4731:1.0 5138:3.0 5339:3.0 11845:1.0 13951:5.0 14030:-1.0 
0.019867391622519128 0.012428535260817695 0.014308380425511932 0.008017777053876308 0.0012603975356088326 0.012246563549888269 9.876261515189874E-4 0.016095534498516834 24:1.0 164:1.0 196:1.0 347:1.0 360:2.0 736:1.0 1275:2.0 1601:4.0 1639:4.0 2293:4.0 3163:2.0 14030:-1.0 
0.0 0.0 0.0032153023888369546 0.0 0.0 0.0 0.0 0.0 5:1.0 14:2.0 38:12.0 39:1.0 47:4.0 54:6.0 79:13.0 87:2.0 93:9.0 94:1.0 99:1.0 102:1.0 110:2.0 120:3.0 121:1.0 177:2.0 214:7.0 289:2.0 292:2.0 304:8.0 316:1.0 330:1.0 349:1.0 353:1.0 361:1.0 372:2.0 424:12.0 444:4.0 449:1.0 501:1.0 510:5.0 511:1.0 537:1.0 556:5.0 565:1.0 593:1.0 652:1.0 687:2.0 737:3.0 798:2.0 818:1.0 824:1.0 837:1.0 969:17.0 1116:6.0 1156:1.0 1252:1.0 1533:1.0 2052:1.0 2200:1.0 2229:1.0 2882:1.0 3029:1.0 3338:1.0 3762:1.0 4260:1.0 7537:1.0 12560:1.0 12688:1.0 13771:3.0 14030:-1.0 
0.013528555149936798 0.0 0.013110495617680152 0.0011283409499896928 0.0 0.011365930348604406 0.010208285038367997 0.0156753087891463 14:3.0 24:2.0 87:2.0 185:2.0 191:2.0 201:1.0 241:2.0 292:3.0 293:1.0 358:3.0 510:1.0 595:3.0 615:1.0 825:3.0 1150:1.0 1285:1.0 1393:2.0 2901:1.0 3396:1.0 3552:1.0 5268:1.0 14030:-1.0 
0.0 0.0019976384702886643 0.0 1.6915738402957243E-4 0.004783938003357025 9.487818254794987E-4 5.283213031571538E-4 0.005767642918623711 14:2.0 39:2.0 54:10.0 78:1.0 79:2.0 104:2.0 137:6.0 172:6.0 221:2.0 293:2.0 325:2.0 343:2.0 346:20.0 347:1.0 412:2.0 491:4.0 560:2.0 586:2.0 604:1.0 666:2.0 781:1.0 818:2.0 905:1.0 1116:4.0 1263:4.0 1387:8.0 1533:2.0 1820:1.0 2006:2.0 2019:6.0 3917:4.0 3924:2.0 3932:2.0 4332:28.0 4983:2.0 5084:2.0 11918:2.0 14030:-1.0 
0.0 0.0 0.0 0.0 0.003977525726582057 0.0 0.0 1.8454017058116377E-4 15:1.0 24:2.0 38:1.0 47:2.0 48:1.0 73:24.0 78:4.0 79:44.0 100:1.0 110:7.0 121:10.0 172:1.0 183:1.0 221:4.0 241:4.0 298:2.0 312:1.0 346:2.0 347:1.0 349:3.0 412:18.0 424:1.0 444:9.0 455:1.0 457:5.0 491:5.0 558:3.0 560:10.0 566:1.0 584:2.0 652:23.0 666:1.0 670:7.0 789:3.0 883:1.0 954:1.0 978:1.0 1008:2.0 1010:1.0 1012:1.0 1085:2.0 1105:3.0 1163:1.0 1231:4.0 1263:95.0 1385:1.0 1387:6.0 1572:3.0 1622:6.0 1651:3.0 1994:1.0 2170:1.0 2382:12.0 3810:6.0 3917:2.0 4731:1.0 5745:1.0 5899:1.0 6343:1.0 10280:3.0 10913:1.0 14030:-1.0 
0.0 0.0 0.0 0.0 0.008775288971480747 0.0 0.0 0.0 5:17.0 15:9.0 24:1.0 38:2.0 39:4.0 46:1.0 47:28.0 48:6.0 51:1.0 73:44.0 78:2.0 85:4.0 90:2.0 91:3.0 93:2.0 99:4.0 100:1.0 105:1.0 120:3.0 149:6.0 214:1.0 218:8.0 221:4.0 241:9.0 285:14.0 299:2.0 304:1.0 312:5.0 346:2.0 347:2.0 349:1.0 361:1.0 372:3.0 381:2.0 392:1.0 410:3.0 412:1.0 414:1.0 424:2.0 444:3.0 449:3.0 469:1.0 521:1.0 545:2.0 560:3.0 589:2.0 593:1.0 612:7.0 652:9.0 666:1.0 715:2.0 730:1.0 748:1.0 753:10.0 762:1.0 878:1.0 925:1.0 1120:1.0 1127:14.0 1281:1.0 1610:2.0 1674:2.0 1731:1.0 1776:2.0 1782:2.0 1817:14.0 1833:1.0 1875:2.0 1990:2.0 2262:3.0 2382:2.0 2432:1.0 2501:11.0 2605:1.0 2670:6.0 2674:1.0 2798:59.0 2919:1.0 3084:2.0 3119:1.0 3370:3.0 4069:2.0 4115:1.0 4200:1.0 4248:1.0 5630:2.0 6192:1.0 6348:1.0 8356:1.0 8426:1.0 8447:1.0 13923:2.0 14030:-1.0 
0.3171065055323399 0.1261215586285837 0.10860519904014428 0.26612373242297105 0.3680661632304927 0.3392008493383893 0.16663874832272543 0.17908428148343133 1054:2.0 1125:1.0 14030:-1.0 
0.0 0.0 0.0 0.0 0.0 0.005256307403722039 0.0 0.0 38:1.0 79:1.0 87:2.0 99:1.0 219:4.0 298:1.0 304:1.0 516:1.0 560:10.0 652:5.0 729:1.0 762:1.0 962:1.0 969:1.0 1116:10.0 1385:1.0 1387:33.0 1688:1.0 4153:1.0 6406:3.0 8076:1.0 9055:1.0 13222:3.0 13771:3.0 14030:-1.0 
0.025679045409896756 7.764860951565971E-4 0.005324207693372176 0.001438504353848383 0.019463136986561713 2.0283999330605775E-4 0.007134922591229457 0.01496054427645733 5:1.0 14:1.0 19:2.0 24:3.0 164:8.0 168:5.0 312:7.0 347:1.0 493:1.0 581:1.0 679:3.0 895:13.0 896:15.0 1010:1.0 1238:2.0 1463:1.0 1610:2.0 2341:3.0 3093:2.0 3961:3.0 4019:3.0 4772:2.0 5100:1.0 8623:2.0 14030:-1.0 
0.0 0.0 0.0 0.0 0.0 0.008564603876605388 0.0 0.0 14:6.0 15:1.0 19:1.0 24:4.0 38:2.0 42:1.0 46:2.0 47:2.0 73:1.0 79:4.0 100:1.0 104:2.0 105:3.0 112:1.0 121:1.0 149:1.0 170:1.0 183:2.0 214:1.0 221:1.0 346:1.0 424:3.0 434:1.0 510:1.0 512:1.0 560:12.0 593:1.0 596:1.0 652:4.0 730:1.0 798:1.0 978:1.0 1238:1.0 1387:46.0 1581:1.0 1688:3.0 1818:1.0 1905:1.0 2047:1.0 3029:2.0 3597:1.0 3810:4.0 4072:1.0 4153:1.0 5002:1.0 8076:1.0 9055:2.0 9277:5.0 10124:3.0 12177:7.0 12688:1.0 13771:5.0 14030:-1.0 
0.0 0.0 0.0 0.0 0.0 0.0 0.0 0.007257370820627195 5:6.0 8:1.0 14:2.0 16:7.0 22:1.0 24:2.0 39:1.0 43:1.0 47:1.0 54:5.0 70:11.0 73:1.0 78:1.0 87:2.0 91:1.0 99:10.0 164:1.0 186:1.0 241:2.0 252:1.0 253:12.0 286:1.0 293:1.0 311:7.0 347:2.0 349:1.0 390:3.0 407:1.0 410:2.0 502:2.0 512:1.0 556:2.0 559:3.0 565:1.0 636:1.0 661:3.0 722:1.0 752:4.0 789:1.0 794:8.0 836:2.0 881:4.0 889:1.0 906:1.0 925:1.0 963:1.0 1000:1.0 1012:1.0 1085:1.0 1116:10.0 1118:1.0 1125:2.0 1166:4.0 1288:1.0 1332:4.0 1359:1.0 1408:4.0 1412:1.0 1435:3.0 1485:1.0 1486:4.0 1546:1.0 1551:19.0 1579:2.0 1582:1.0 1690:1.0 1802:5.0 1886:1.0 2047:1.0 2108:1.0 2199:2.0 2245:1.0 2501:5.0 2505:10.0 2543:1.0 2620:1.0 2725:1.0 2829:1.0 3069:1.0 3197:1.0 3260:1.0 3325:1.0 3356:1.0 3376:3.0 3446:1.0 4229:4.0 4246:1.0 4296:1.0 4431:1.0 4435:1.0 4556:1.0 4713:1.0 5312:1.0 5431:1.0 6009:1.0 6075:1.0 8623:3.0 8823:1.0 9374:2.0 9398:3.0 10372:4.0 14030:-1.0 
0.0 0.0 0.0 0.0 0.07157959397068064 0.0 0.004713969866551962 0.0 14:4.0 25:1.0 71:1.0 135:1.0 137:1.0 149:2.0 214:2.0 285:1.0 292:7.0 372:1.0 396:2.0 878:1.0 996:2.0 1953:1.0 2438:2.0 2559:1.0 4922:1.0 12572:2.0 12844:2.0 14030:-1.0 
0.08109501806018511 0.03417548572199825 0.017596759306986502 0.012904303540204297 0.016540046421364717 0.04184938696946976 0.042010817993011214 0.05743345727861875 24:1.0 25:5.0 39:2.0 82:1.0 91:1.0 135:2.0 200:1.0 208:1.0 212:2.0 215:1.0 278:1.0 292:2.0 325:1.0 328:1.0 334:1.0 347:1.0 382:1.0 387:1.0 404:1.0 414:3.0 416:2.0 439:1.0 643:1.0 645:1.0 707:1.0 751:1.0 1187:1.0 1389:1.0 1535:1.0 4174:1.0 4575:1.0 8084:1.0 13508:1.0 14030:-1.0 
0.0 2.8225963878877734E-4 0.0 0.0 0.0023397164183806512 0.0 9.5617001267525E-4 0.0011605973213219053 14:2.0 38:2.0 42:2.0 47:10.0 48:1.0 73:14.0 78:2.0 79:22.0 97:1.0 104:1.0 110:30.0 121:2.0 221:8.0 253:3.0 298:26.0 304:1.0 312:2.0 346:2.0 347:1.0 372:3.0 410:3.0 424:4.0 444:35.0 491:2.0 534:1.0 537:2.0 541:3.0 545:18.0 560:9.0 566:1.0 612:2.0 652:9.0 670:1.0 729:1.0 818:6.0 837:1.0 849:1.0 878:2.0 1010:1.0 1085:3.0 1231:4.0 1263:4.0 1387:1.0 1563:2.0 1817:1.0 1990:3.0 2006:2.0 2170:1.0 2382:38.0 2501:4.0 2670:2.0 2674:1.0 3070:1.0 3810:12.0 3932:2.0 4072:1.0 4116:1.0 4549:1.0 4652:1.0 4676:1.0 4781:1.0 4789:1.0 5798:1.0 5915:1.0 6075:6.0 9590:1.0 10913:6.0 11590:2.0 14030:-1.0 
0.0 0.0 0.0 0.0 0.002512707702452074 0.0 0.0 0.0 5:2.0 14:2.0 19:1.0 79:2.0 87:11.0 121:1.0 135:1.0 164:2.0 218:2.0 312:1.0 334:1.0 349:1.0 412:3.0 548:1.0 560:2.0 699:1.0 736:1.0 753:4.0 1125:2.0 1316:1.0 1647:1.0 1690:2.0 1948:1.0 3055:2.0 3119:1.0 3827:1.0 4145:1.0 4685:1.0 10447:4.0 12572:10.0 14030:-1.0 
0.0 0.0 0.0 0.0 0.0019065791084043207 0.0 0.0 0.0 14:7.0 164:2.0 292:4.0 455:1.0 840:1.0 1125:1.0 1732:1.0 2223:1.0 2648:5.0 2720:1.0 2774:6.0 2848:10.0 5328:1.0 9389:1.0 13508:2.0 14030:-1.0 
0.017074210632021 0.007987617825754256 0.011021696567031135 0.0032294720815299956 0.06548352844031616 0.0 0.0 0.002075831236430234 14:1.0 38:1.0 84:1.0 87:2.0 135:2.0 164:1.0 365:3.0 372:1.0 514:2.0 578:2.0 950:1.0 1166:1.0 1610:3.0 2947:1.0 2952:1.0 12572:2.0 14030:-1.0 
0.01801821458839876 0.01152301462175994 0.003010831111424256 0.0 0.015992467583647904 0.0 0.04692524589635639 0.0 5:2.0 8:1.0 15:1.0 51:1.0 64:1.0 70:1.0 90:3.0 105:1.0 112:1.0 119:1.0 149:1.0 214:16.0 289:1.0 292:1.0 347:1.0 445:1.0 457:2.0 670:2.0 682:1.0 707:1.0 1614:1.0 1920:1.0 3185:1.0 6140:1.0 12844:2.0 14030:-1.0 
0.14873953807417498 0.03085150573473863 0.03132529090751497 0.0718884865118858 0.11478266231169656 0.03827185416269431 0.10338637236996191 0.0855379780429543 753:1.0 870:1.0 2228:1.0 3055:2.0 3076:1.0 3170:1.0 14030:-1.0 
4.7333017925933614E-5 0.0 0.009945402157726746 0.0 0.026865901512228712 0.0 0.0 0.0 48:1.0 90:1.0 99:2.0 112:1.0 164:1.0 241:1.0 292:2.0 347:1.0 364:2.0 690:1.0 754:2.0 869:2.0 897:5.0 949:1.0 1332:1.0 2952:4.0 3041:2.0 14030:-1.0 
0.019895396376193704 0.010459346577884866 0.006329872416681201 0.029253900484878196 0.07812608312590993 0.014261860265093402 0.009062027292142427 0.004080880694850408 87:1.0 135:1.0 748:2.0 870:5.0 1215:1.0 12572:1.0 14030:-1.0 
0.0527352868411269 0.035150133325468506 0.0 0.018500076364944627 0.16752628922358276 0.0 0.07456801487825607 0.03907837124444519 14:5.0 43:1.0 51:1.0 149:3.0 214:2.0 218:1.0 292:1.0 293:2.0 394:1.0 412:1.0 633:3.0 1215:1.0 2614:2.0 4148:2.0 6013:1.0 8623:1.0 14030:-1.0 
0.013567233431828881 0.006559570940695303 0.008193777820803383 0.010744166985295109 0.028304806470722522 0.005730314327710959 0.007912340858598085 0.011910860771979264 70:2.0 347:1.0 539:1.0 633:2.0 752:5.0 790:1.0 884:1.0 1077:1.0 1219:1.0 1452:8.0 1623:1.0 1869:2.0 2630:1.0 4200:1.0 8396:1.0 14030:-1.0 
0.0 0.0 0.0 0.0 0.0 0.0 0.03059457163709766 0.0 24:1.0 48:1.0 112:1.0 135:2.0 164:4.0 246:1.0 284:1.0 504:2.0 1035:1.0 1125:1.0 1183:2.0 1210:2.0 1284:1.0 1389:2.0 1508:1.0 1906:1.0 2952:3.0 5579:4.0 9403:4.0 14030:-1.0 
2.348528073786474E-5 0.0 0.001120305788046215 0.002154495939647687 0.02027480581922143 1.2561709972615156E-4 0.0 0.0 10:21.0 14:2.0 70:1.0 197:1.0 311:1.0 404:1.0 645:1.0 670:8.0 699:1.0 752:1.0 884:1.0 996:2.0 2125:2.0 5915:4.0 6961:4.0 14030:-1.0 
0.0 0.0 0.0 0.0 0.04449651405113227 0.0 0.0 0.0030805781722508083 10:24.0 14:2.0 60:1.0 70:3.0 197:1.0 311:10.0 404:3.0 567:1.0 645:1.0 670:10.0 707:1.0 752:1.0 884:1.0 926:2.0 963:1.0 996:2.0 1051:1.0 2125:7.0 2788:1.0 5915:4.0 6961:3.0 14030:-1.0 
0.031182615619583548 0.06949449750078389 0.017522982906340818 0.047842745279072 0.08675614872483085 0.019702263124211996 0.10093743537129975 0.06486217594036563 24:1.0 38:1.0 47:1.0 73:1.0 78:12.0 85:1.0 90:2.0 93:1.0 207:1.0 246:3.0 247:1.0 347:1.0 353:1.0 465:1.0 495:1.0 501:1.0 544:1.0 707:1.0 781:1.0 981:1.0 1081:1.0 1547:1.0 1621:1.0 1651:1.0 2113:1.0 2428:1.0 3151:1.0 6158:1.0 14030:-1.0 
0.019193943631307175 0.0043624944631085625 0.0 0.040586183820058505 0.0 0.0 0.041690366603046654 0.019541324185816354 15:1.0 54:1.0 70:1.0 78:2.0 104:3.0 172:1.0 246:1.0 252:1.0 311:2.0 381:1.0 488:1.0 633:1.0 790:2.0 823:4.0 4564:1.0 4952:1.0 11112:1.0 12844:4.0 14030:-1.0 
0.022829701416976256 0.03944440895506168 0.052674688308119215 0.009669497223658584 0.07907159160201914 0.0031645064556621123 0.018052410857687887 0.0 19:1.0 164:2.0 241:1.0 335:2.0 969:3.0 14030:-1.0 
0.0 0.0 0.012241722207329673 1.3793555339481427E-4 0.017729326487476597 0.0 0.0 0.0 14:1.0 54:1.0 88:1.0 135:1.0 164:1.0 521:1.0 534:1.0 578:3.0 653:2.0 754:1.0 2682:4.0 3005:1.0 3119:1.0 3592:1.0 14030:-1.0 
0.002304793248697031 0.003443166745689776 0.0 0.0 0.0 0.0 0.0 0.0 19:1.0 47:31.0 104:93.0 612:23.0 969:1.0 14030:-1.0 
0.0 0.0 0.005529516009868919 4.020448386129859E-4 0.008985725095210725 0.0 0.0 0.0 47:4.0 48:1.0 127:3.0 149:1.0 292:6.0 349:1.0 361:1.0 595:8.0 612:24.0 730:2.0 754:1.0 969:3.0 1389:1.0 1582:1.0 2234:2.0 2243:2.0 6130:1.0 14030:-1.0 
0.09217421654551092 0.07471219718448249 0.06319128557790427 0.1400869183652668 0.29953200889639675 0.07225579325087322 0.2860052381256656 0.19525504688787382 412:1.0 502:1.0 1085:1.0 1607:1.0 1869:1.0 3163:1.0 5979:1.0 13508:1.0 13728:1.0 14030:-1.0 
0.003916642822554629 0.00123062306319452 0.0 0.0 0.0 0.0 0.0 0.010697602797588938 15:1.0 87:3.0 120:1.0 135:2.0 164:4.0 214:2.0 268:1.0 347:2.0 449:1.0 563:1.0 687:1.0 859:1.0 1012:1.0 1095:18.0 1125:6.0 1197:1.0 1452:1.0 1480:3.0 1503:1.0 1801:1.0 3692:1.0 4325:9.0 5154:1.0 6185:1.0 10587:1.0 11632:9.0 13308:4.0 14030:-1.0 
0.034214168245075526 0.04105137457342515 0.026628034108726488 0.045103794828437946 0.14552803272035325 0.04698471901699733 0.0291181700707358 0.0 7:1.0 8:2.0 10:1.0 14:1.0 24:2.0 61:1.0 93:1.0 214:1.0 545:2.0 754:1.0 1211:3.0 1522:1.0 2704:1.0 3205:1.0 12844:2.0 14030:-1.0 
0.0 0.0 0.0 2.320188705695275E-4 0.010305138822982356 0.0 0.0 0.021672846960988455 5:2.0 14:7.0 24:1.0 51:1.0 78:1.0 91:2.0 104:1.0 135:8.0 151:10.0 214:1.0 309:1.0 349:1.0 512:1.0 581:1.0 1771:1.0 2901:2.0 14030:-1.0 
0.0 0.0 0.001250708238764561 0.0 0.005035691573540993 0.0 8.157370686016976E-4 0.0 19:2.0 46:1.0 71:6.0 88:2.0 149:2.0 168:1.0 203:1.0 214:1.0 292:7.0 297:2.0 349:3.0 351:2.0 414:1.0 560:5.0 566:2.0 697:4.0 895:1.0 1389:1.0 2262:2.0 14030:-1.0 
0.01456127728847046 0.04877926169444019 0.003190817957203156 0.0 0.010374778703332206 0.0 0.0012253751834599975 0.0 17:1.0 39:1.0 64:1.0 84:1.0 91:1.0 99:1.0 111:1.0 120:1.0 175:1.0 201:1.0 214:2.0 218:1.0 235:1.0 325:2.0 327:1.0 372:1.0 404:1.0 457:1.0 495:1.0 501:1.0 527:1.0 581:1.0 686:1.0 699:1.0 707:1.0 927:1.0 1012:1.0 1166:1.0 1374:1.0 4072:1.0 4394:1.0 8712:1.0 14030:-1.0 
0.003621146387813807 0.003675627801362204 0.0024046000027394374 0.005279411607090364 0.005615678529288726 0.0 3.4504418752304405E-4 0.012936146203416314 14:8.0 29:2.0 38:1.0 70:5.0 85:2.0 168:8.0 200:13.0 206:11.0 229:2.0 242:3.0 289:1.0 304:1.0 312:3.0 362:37.0 412:6.0 454:1.0 617:2.0 670:42.0 785:3.0 790:3.0 794:1.0 810:1.0 883:1.0 1008:18.0 1030:6.0 1085:13.0 1123:2.0 1140:3.0 1218:13.0 1427:6.0 1486:18.0 1630:1.0 1688:2.0 1723:1.0 1920:29.0 1933:3.0 1944:3.0 2083:12.0 2368:3.0 2614:18.0 2757:5.0 3084:4.0 3218:2.0 4386:3.0 5915:8.0 10152:3.0 14030:-1.0 
0.0 0.0021978090504314704 0.0 0.0 0.0 0.0 0.0 0.02763187700071679 46:1.0 78:2.0 172:6.0 219:2.0 349:1.0 351:3.0 372:2.0 374:2.0 449:2.0 496:6.0 560:6.0 661:9.0 697:1.0 798:3.0 926:1.0 1387:4.0 1750:1.0 1817:1.0 2047:4.0 2482:1.0 2501:13.0 2670:1.0 2999:20.0 3370:1.0 3917:1.0 4662:2.0 5170:4.0 5915:1.0 8639:25.0 13045:2.0 14030:-1.0 
0.0193935848109435 0.008257617144667138 0.01010438238139939 0.01633262155827229 0.05851125707034269 0.004402559273515241 0.03437667948426501 0.10419461462483556 5:1.0 70:1.0 73:1.0 404:2.0 1486:1.0 2108:4.0 2501:2.0 14030:-1.0 
0.0 4.7425161165709685E-4 0.0 0.0 0.008374687476383962 0.0 0.0 0.003412014661433176 38:20.0 42:3.0 46:1.0 47:9.0 48:1.0 54:1.0 73:3.0 79:1.0 85:1.0 100:6.0 118:1.0 121:4.0 127:1.0 155:1.0 214:6.0 219:54.0 266:3.0 282:1.0 292:2.0 294:1.0 335:3.0 346:2.0 349:1.0 353:9.0 372:3.0 410:6.0 412:2.0 516:1.0 537:2.0 558:15.0 560:26.0 565:1.0 590:1.0 652:3.0 729:1.0 737:3.0 829:1.0 895:2.0 969:1.0 978:58.0 1045:1.0 1116:16.0 1143:2.0 1389:1.0 1390:1.0 1860:1.0 1924:3.0 2019:5.0 2262:2.0 2482:1.0 2616:1.0 3076:5.0 3261:12.0 3566:1.0 3587:2.0 4395:2.0 4492:2.0 4706:1.0 4716:5.0 5394:1.0 5452:1.0 5630:1.0 5831:4.0 9492:10.0 9951:1.0 13222:1.0 13447:1.0 13771:3.0 14030:-1.0 
0.0 0.0 0.0 0.0 0.0 0.0 0.0 2.5672675377206466E-4 8:1.0 25:2.0 38:1.0 46:1.0 73:1.0 90:4.0 121:1.0 136:1.0 155:3.0 208:1.0 234:2.0 289:2.0 309:1.0 334:1.0 343:1.0 346:3.0 347:1.0 454:1.0 481:2.0 558:1.0 581:2.0 652:1.0 722:1.0 726:2.0 730:1.0 737:1.0 762:1.0 794:2.0 978:2.0 1012:1.0 1084:1.0 1113:1.0 1114:2.0 1116:8.0 1166:3.0 1252:3.0 1309:1.0 1714:1.0 1820:1.0 1993:1.0 2042:8.0 2129:1.0 2170:2.0 2253:1.0 2283:2.0 2487:3.0 2840:1.0 2843:1.0 3669:1.0 3850:1.0 4264:1.0 4929:1.0 5404:1.0 5795:1.0 7217:1.0 8097:3.0 8743:1.0 11434:4.0 12802:1.0 13771:1.0 14030:-1.0 
0.0 0.0 0.0 0.0 6.310667485407936E-4 0.0 0.0 0.0 7:1.0 14:10.0 19:3.0 25:6.0 38:2.0 84:1.0 99:1.0 135:5.0 137:2.0 164:2.0 197:1.0 214:4.0 241:2.0 243:1.0 293:1.0 356:13.0 372:1.0 400:1.0 412:1.0 563:2.0 581:1.0 616:1.0 652:1.0 699:1.0 707:1.0 853:1.0 1012:2.0 1125:1.0 1211:1.0 1613:2.0 1678:2.0 1704:6.0 2228:1.0 14030:-1.0 
0.0 0.0 0.0 0.0 0.005612456579735221 0.0 4.2152812162491625E-4 0.007789780121821959 14:3.0 15:11.0 38:6.0 42:1.0 46:2.0 47:1.0 73:6.0 85:1.0 112:1.0 149:1.0 175:7.0 214:1.0 221:1.0 241:3.0 246:5.0 282:1.0 284:2.0 289:1.0 312:1.0 349:1.0 444:1.0 449:4.0 491:1.0 560:1.0 612:2.0 652:1.0 682:1.0 690:1.0 715:3.0 753:1.0 837:1.0 1012:1.0 1127:1.0 1156:1.0 1260:1.0 1387:2.0 1618:1.0 1676:1.0 1720:1.0 1731:4.0 1817:12.0 1906:3.0 2798:1.0 3370:12.0 3679:1.0 3982:1.0 4781:1.0 5915:1.0 6620:1.0 11045:1.0 12844:3.0 14030:-1.0 
0.0 0.0026594162997517546 0.0 0.0 0.02477192245375571 0.0011758868844719778 0.0 0.004120812189377816 70:6.0 196:1.0 364:1.0 404:7.0 448:1.0 512:2.0 559:3.0 579:2.0 621:1.0 670:1.0 697:1.0 706:2.0 788:2.0 790:1.0 869:1.0 884:1.0 963:2.0 996:1.0 1000:1.0 1027:3.0 1117:1.0 1188:1.0 1546:2.0 1639:4.0 1654:9.0 1802:4.0 1869:1.0 1942:1.0 2031:1.0 2035:2.0 2637:1.0 4019:5.0 4525:2.0 8505:2.0 8623:3.0 9555:2.0 12844:1.0 13333:3.0 14030:-1.0 
5.290573748515873E-4 0.0 0.0 0.01932941725396736 0.08661453974469122 0.0 0.0 9.355140564760741E-4 14:6.0 24:3.0 38:3.0 48:1.0 87:1.0 135:1.0 137:1.0 164:3.0 334:1.0 395:1.0 412:1.0 452:1.0 535:5.0 558:1.0 581:1.0 883:3.0 1008:2.0 1182:1.0 1211:1.0 1486:1.0 1648:1.0 2047:1.0 6025:1.0 7814:1.0 14030:-1.0 
0.0018820380906127622 0.0 0.0 0.0 0.009407121878326206 0.0 0.0 0.0 5:1.0 38:1.0 54:4.0 70:3.0 73:1.0 78:2.0 79:1.0 85:1.0 154:3.0 164:1.0 351:1.0 358:1.0 362:2.0 364:22.0 376:1.0 389:1.0 449:1.0 581:1.0 790:1.0 881:3.0 926:2.0 1564:1.0 1795:1.0 2092:6.0 2262:2.0 2620:6.0 2670:1.0 3932:1.0 4224:2.0 5485:14.0 5915:4.0 11095:1.0 13853:13.0 14030:-1.0 
0.21189932145502882 0.08418594468680132 0.10593174515048703 0.16711819887819623 0.3481081428492712 0.14244562853760875 0.16505914984202702 0.2604586141405054 490:1.0 581:1.0 927:1.0 1965:1.0 14030:-1.0 
0.001382830116305382 0.005612664879710506 0.006269105560759557 0.0 0.013019797718143291 0.027396405107518496 0.01706493483264032 0.013817780271071861 47:1.0 73:5.0 121:5.0 235:1.0 284:1.0 357:1.0 541:5.0 589:8.0 617:1.0 798:5.0 1035:2.0 1140:3.0 1169:9.0 3643:1.0 8345:1.0 12063:2.0 14030:-1.0 
0.17282583717709843 0.06801075149283713 0.06598011991462982 0.15838319726017036 0.2538373059214937 0.05118940174434605 0.10602628874778759 0.34531562455977527 14:1.0 71:1.0 135:1.0 1284:1.0 1287:1.0 1546:1.0 2125:1.0 2688:1.0 3605:1.0 14030:-1.0 
0.0 0.0 0.0 0.0 5.068840828919197E-4 0.0 0.0 0.9938971082720861 5:1.0 8:1.0 19:6.0 22:1.0 24:1.0 47:1.0 73:4.0 78:2.0 241:1.0 312:1.0 410:1.0 581:2.0 661:4.0 715:3.0 789:2.0 790:2.0 849:1.0 1113:1.0 1116:1.0 1215:3.0 1435:13.0 1486:5.0 1618:1.0 1772:1.0 1802:9.0 1817:7.0 2135:1.0 2501:3.0 2670:1.0 3370:6.0 4208:2.0 4229:13.0 5915:8.0 8256:3.0 14030:-1.0 
0.004838034460290228 0.0 0.0 0.0 0.0 0.0 0.0 0.004824266779147423 5:14.0 14:4.0 24:1.0 38:1.0 48:2.0 51:1.0 70:1.0 71:1.0 84:1.0 85:1.0 87:3.0 93:1.0 99:4.0 106:2.0 111:1.0 120:7.0 121:2.0 164:5.0 166:1.0 167:1.0 183:1.0 214:1.0 241:1.0 284:1.0 292:4.0 299:5.0 334:1.0 347:1.0 357:2.0 372:1.0 402:8.0 412:2.0 414:1.0 457:1.0 612:1.0 669:1.0 697:1.0 730:1.0 737:1.0 753:1.0 831:1.0 999:2.0 1010:1.0 1012:3.0 1049:4.0 1116:7.0 1291:1.0 1359:2.0 1452:1.0 2688:1.0 4125:1.0 14030:-1.0 
0.05577776348308467 0.04677934844894164 0.04569866855267948 0.06612087361563973 0.34767365101839126 0.0646124238911866 0.07667219904752866 0.09658844375889615 38:1.0 73:1.0 85:1.0 304:1.0 593:3.0 1731:1.0 14030:-1.0 
0.040888606504764925 0.03646111965540723 0.018396823093097665 0.018542747384481584 0.22222942844149085 0.04660796224374806 0.029578463006192126 0.17287383485963112 24:1.0 410:3.0 1990:1.0 2501:4.0 14030:-1.0 
0.0 0.006831013853226802 0.0 0.0 0.0 0.0 0.0 0.0 14:3.0 241:1.0 292:3.0 304:1.0 380:1.0 389:1.0 612:1.0 687:1.0 715:1.0 895:2.0 3119:24.0 14030:-1.0 
0.0 0.0 0.0 0.0 0.02305574608100707 0.0 0.0 0.0 38:7.0 71:5.0 73:1.0 87:1.0 102:1.0 120:1.0 127:2.0 214:4.0 526:2.0 535:1.0 560:5.0 581:1.0 790:1.0 3635:3.0 4019:1.0 9277:2.0 11112:2.0 12844:1.0 14030:-1.0 
0.0955065607272629 0.06160710535004822 0.04880095463288769 0.0943430118752285 0.2238118561082751 0.07825993636851297 0.22418564265404112 0.9296794667999745 1699:3.0 14030:-1.0 
0.0 0.009821162680917019 0.0 0.0 0.0 0.0 0.0 0.0 7:6.0 14:8.0 38:1.0 39:1.0 51:4.0 71:1.0 80:1.0 87:4.0 91:1.0 93:1.0 97:1.0 135:3.0 162:3.0 164:1.0 175:1.0 197:2.0 199:1.0 241:1.0 253:11.0 358:1.0 359:1.0 368:1.0 395:1.0 422:1.0 440:3.0 510:11.0 581:1.0 587:1.0 616:1.0 682:1.0 718:2.0 730:1.0 810:1.0 895:1.0 991:1.0 1135:1.0 1435:1.0 1675:1.0 1732:1.0 1802:1.0 2361:1.0 2649:1.0 2730:2.0 2783:1.0 2901:1.0 3656:1.0 5527:1.0 14030:-1.0 
0.0 0.0 0.0 0.0 0.0 0.0 0.03979726516790643 0.0 5:2.0 14:9.0 15:3.0 19:1.0 25:1.0 47:1.0 71:2.0 79:4.0 84:5.0 87:4.0 90:1.0 91:3.0 97:1.0 99:1.0 110:1.0 112:1.0 120:5.0 121:1.0 135:5.0 149:6.0 151:1.0 164:3.0 214:15.0 218:2.0 240:1.0 241:2.0 246:6.0 253:1.0 292:20.0 304:1.0 312:1.0 347:2.0 349:1.0 365:2.0 370:1.0 395:3.0 396:1.0 412:1.0 510:1.0 521:1.0 534:1.0 535:1.0 548:2.0 578:3.0 581:5.0 656:6.0 681:1.0 689:5.0 693:26.0 810:1.0 895:4.0 952:1.0 1047:1.0 1125:1.0 1135:1.0 1187:1.0 1211:1.0 1260:1.0 1275:1.0 1316:6.0 1582:1.0 1647:2.0 1820:1.0 1846:1.0 2029:5.0 2228:2.0 2253:1.0 2429:5.0 2731:1.0 2734:2.0 3561:2.0 4536:1.0 5153:2.0 5915:1.0 8459:1.0 8505:2.0 9117:1.0 9389:2.0 14030:-1.0 
0.0 0.0 0.0 9.537299529250032E-5 0.0 0.0 0.0 0.0 5:1.0 14:62.0 19:5.0 25:1.0 38:3.0 51:3.0 79:1.0 91:1.0 112:1.0 135:20.0 137:1.0 201:1.0 214:1.0 289:3.0 292:10.0 312:4.0 328:2.0 349:1.0 356:3.0 412:1.0 422:50.0 534:1.0 581:1.0 689:7.0 934:5.0 1380:2.0 1508:1.0 1567:1.0 1711:17.0 2728:1.0 2819:1.0 2922:10.0 2984:1.0 3000:1.0 3523:4.0 3868:1.0 10046:1.0 13375:2.0 14030:-1.0 
0.0 0.0 0.0 0.0 0.0 0.0 0.0 0.9731379299569424 5:3.0 14:45.0 19:7.0 51:22.0 120:1.0 121:1.0 151:1.0 208:2.0 214:2.0 243:6.0 292:40.0 300:3.0 311:8.0 488:1.0 534:2.0 535:2.0 682:2.0 715:2.0 768:1.0 877:1.0 895:2.0 996:1.0 1047:1.0 1131:7.0 1316:20.0 1407:2.0 1544:1.0 1546:7.0 1547:1.0 1567:1.0 1622:1.0 2382:1.0 2384:11.0 2783:1.0 2901:2.0 2984:2.0 2991:1.0 3055:2.0 3211:1.0 3433:2.0 3737:3.0 4458:2.0 8200:1.0 11777:1.0 14030:-1.0 
0.11680908089942617 0.04046664844438001 0.02362775047874581 0.09976214559034517 0.08224726058801467 0.01869439354435418 0.06141357898933657 1.0 43:1.0 210:1.0 284:1.0 335:1.0 410:1.0 444:1.0 1012:1.0 2217:1.0 2239:1.0 4134:1.0 5630:1.0 14030:-1.0 
0.0 0.0 0.0036448148260439877 0.0 0.002205584582123874 6.330703616012952E-4 0.0 0.0 14:2.0 24:4.0 48:1.0 73:1.0 214:1.0 241:1.0 284:4.0 292:3.0 312:3.0 389:2.0 410:1.0 501:1.0 734:1.0 743:2.0 798:2.0 895:1.0 1012:3.0 1166:2.0 1572:1.0 1582:3.0 1979:3.0 8358:1.0 13886:2.0 14030:-1.0 
0.0 0.0 0.0 0.0 8.958563579871916E-4 0.0 0.0 0.0 5:8.0 14:9.0 19:1.0 24:5.0 25:1.0 38:35.0 42:1.0 48:2.0 51:4.0 70:2.0 73:32.0 78:8.0 79:1.0 82:3.0 84:1.0 85:1.0 99:3.0 100:2.0 102:6.0 105:6.0 121:22.0 127:1.0 146:1.0 151:2.0 178:1.0 183:2.0 214:1.0 219:8.0 230:1.0 241:3.0 246:1.0 266:1.0 289:1.0 292:3.0 304:2.0 309:1.0 312:19.0 334:1.0 346:4.0 372:7.0 410:13.0 414:2.0 449:6.0 490:1.0 496:5.0 541:2.0 560:28.0 566:1.0 580:1.0 617:4.0 645:3.0 652:21.0 690:1.0 697:1.0 737:2.0 754:2.0 767:1.0 789:5.0 798:11.0 837:1.0 849:4.0 926:2.0 962:1.0 1000:2.0 1011:1.0 1042:1.0 1116:1.0 1302:1.0 1387:4.0 1389:1.0 1486:9.0 1546:6.0 1622:1.0 1688:1.0 1731:1.0 1817:7.0 1965:1.0 2030:1.0 2239:1.0 2329:1.0 2432:1.0 2482:3.0 2501:6.0 2577:2.0 2674:8.0 3171:1.0 3597:1.0 4370:2.0 4652:1.0 4663:1.0 4768:1.0 5056:1.0 5170:114.0 6476:2.0 8447:3.0 8519:24.0 8623:6.0 8639:47.0 10202:1.0 12006:1.0 12508:1.0 13045:15.0 14030:-1.0 
0.0 0.0 0.0 0.0 0.005286830393667717 0.0 0.0 0.0 10:1.0 14:11.0 15:1.0 42:1.0 51:11.0 61:1.0 78:1.0 85:2.0 99:2.0 104:6.0 120:23.0 121:1.0 189:2.0 208:1.0 243:4.0 289:1.0 292:10.0 300:2.0 311:2.0 382:1.0 493:3.0 534:5.0 581:1.0 670:2.0 715:2.0 770:1.0 798:1.0 810:1.0 877:4.0 951:10.0 1675:1.0 1790:1.0 1971:1.0 2052:1.0 2382:1.0 3712:1.0 3737:2.0 4019:8.0 4517:2.0 12599:1.0 14030:-1.0 
0.0 0.0 0.0 0.0 0.0 0.0 0.037016725249867315 0.0 5:2.0 14:5.0 47:1.0 51:1.0 71:9.0 87:12.0 99:2.0 135:11.0 164:3.0 214:2.0 234:1.0 241:2.0 246:2.0 292:6.0 359:2.0 381:1.0 412:4.0 444:1.0 469:1.0 535:1.0 560:1.0 591:9.0 612:1.0 682:2.0 699:2.0 736:2.0 753:2.0 896:2.0 1077:1.0 1125:5.0 1127:1.0 1219:1.0 1485:1.0 1547:2.0 1601:2.0 1622:1.0 2149:1.0 2270:2.0 2783:1.0 4019:1.0 4054:1.0 4224:1.0 4274:1.0 4983:2.0 8200:1.0 8623:1.0 9200:1.0 10522:1.0 13728:2.0 14030:-1.0 
0.005857242421435414 0.0 0.0031176952181727413 0.0117415942277771 0.0 0.0 0.0 0.043432106489517806 5:8.0 19:2.0 24:1.0 25:1.0 38:2.0 71:2.0 87:3.0 121:1.0 252:2.0 292:2.0 454:2.0 490:1.0 581:1.0 656:1.0 693:1.0 753:1.0 798:1.0 889:2.0 895:1.0 926:3.0 1114:1.0 1211:1.0 1309:1.0 1389:1.0 1610:1.0 2029:2.0 2458:3.0 3025:1.0 4200:1.0 4379:1.0 14030:-1.0 
0.0 0.0 0.0 0.0 0.0438876312589097 0.0 0.0 0.0 14:5.0 38:1.0 48:1.0 79:1.0 151:2.0 188:1.0 191:1.0 389:2.0 581:1.0 690:1.0 892:1.0 1010:1.0 1047:1.0 2901:1.0 3008:1.0 3855:2.0 4594:1.0 14030:-1.0 
0.0 0.0 0.0 0.0 0.012033350565292198 0.0 0.0 7.271300168113883E-4 14:1.0 25:2.0 70:1.0 84:1.0 135:1.0 164:1.0 175:2.0 284:1.0 325:1.0 501:2.0 557:1.0 559:1.0 563:1.0 616:1.0 621:7.0 743:2.0 927:1.0 1012:2.0 1211:1.0 1639:1.0 1979:1.0 2614:1.0 3894:1.0 4028:1.0 12765:3.0 12788:2.0 14030:-1.0 
0.0013369962492948467 0.0 0.0 0.0 0.01675860528987003 0.006853869329120046 0.0 0.0 29:8.0 42:2.0 48:1.0 70:1.0 73:1.0 79:1.0 617:2.0 715:8.0 849:1.0 1341:6.0 1433:1.0 1817:6.0 2612:1.0 3370:9.0 14030:-1.0 
0.015559788970186129 0.02408787281901597 0.0 0.0 0.261029607764521 0.0110126982458412 0.0 0.017001027660424172 38:1.0 73:1.0 351:2.0 535:1.0 560:1.0 790:2.0 1817:8.0 2149:1.0 2670:2.0 14030:-1.0 
0.00753826472181016 0.008908213658929005 0.04485601662475137 0.0627446281966657 0.14578869627086485 0.0 0.044174094809443905 0.0681223150838494 14:7.0 85:1.0 135:1.0 172:1.0 284:6.0 312:1.0 510:1.0 1389:1.0 3218:2.0 14030:-1.0 
0.0 0.0036134223983765924 0.0 0.0 0.01190939961840757 0.0 0.047422615835806876 0.0 5:1.0 14:2.0 47:2.0 87:2.0 135:3.0 164:2.0 214:2.0 240:4.0 246:2.0 311:3.0 312:1.0 656:1.0 693:1.0 699:3.0 798:1.0 881:1.0 889:4.0 926:1.0 1035:7.0 1260:2.0 1316:2.0 1720:1.0 1733:1.0 2229:1.0 2788:1.0 3967:1.0 4212:1.0 4445:1.0 4532:2.0 4983:1.0 8505:1.0 14030:-1.0 
0.0 0.0 0.0 0.0 0.0020484055253964977 0.0 0.0 0.0 14:46.0 25:1.0 38:19.0 70:3.0 85:1.0 90:1.0 121:1.0 135:1.0 137:1.0 166:1.0 201:2.0 214:1.0 235:1.0 289:2.0 292:18.0 312:5.0 347:1.0 356:5.0 372:2.0 414:2.0 422:39.0 541:1.0 559:1.0 581:5.0 652:8.0 689:11.0 690:1.0 1143:2.0 1182:1.0 1263:3.0 1389:1.0 2922:42.0 14030:-1.0 
0.0 0.03749265724978621 0.024387210804615946 0.022790216967323317 0.0 0.012843999697884906 0.027540757731649986 0.026967727716763437 5:1.0 19:1.0 24:1.0 48:2.0 70:1.0 79:1.0 110:1.0 395:1.0 578:2.0 690:2.0 752:1.0 1309:1.0 1435:1.0 1640:1.0 1802:2.0 3057:1.0 14030:-1.0 
0.001626204603948211 0.0 0.0 0.005472823364362541 0.007989928386418873 0.0 0.0 0.0 14:12.0 19:5.0 51:1.0 91:1.0 292:1.0 312:3.0 534:8.0 670:2.0 715:12.0 752:13.0 934:2.0 1582:1.0 1690:12.0 8634:9.0 14030:-1.0 
0.004012040121118302 0.003977155275693003 0.001703201529481261 0.00201484276999351 0.005112191310579298 0.0 0.009439430686184974 0.003246682123723379 14:8.0 15:1.0 19:1.0 25:2.0 42:1.0 43:1.0 47:13.0 51:8.0 70:2.0 79:1.0 84:2.0 85:4.0 87:2.0 99:4.0 104:1.0 105:2.0 112:7.0 135:5.0 149:46.0 164:4.0 189:8.0 201:2.0 214:5.0 266:3.0 292:2.0 311:2.0 356:3.0 361:1.0 372:1.0 389:1.0 422:1.0 444:3.0 449:3.0 490:1.0 491:1.0 567:2.0 666:8.0 670:19.0 673:11.0 689:1.0 690:2.0 734:3.0 834:1.0 849:1.0 883:4.0 922:1.0 969:6.0 996:1.0 1000:1.0 1008:12.0 1035:2.0 1085:3.0 1148:28.0 1183:3.0 1219:1.0 1275:2.0 1427:2.0 1486:2.0 1522:1.0 1574:2.0 1582:1.0 1622:2.0 1676:1.0 1754:7.0 1790:1.0 1856:1.0 1920:1.0 2049:11.0 2110:1.0 2115:2.0 2181:5.0 2226:2.0 2228:6.0 2309:4.0 2397:1.0 2464:8.0 2473:1.0 2560:1.0 2859:2.0 2946:3.0 3166:1.0 3655:1.0 3674:2.0 3920:3.0 4228:3.0 4448:4.0 4964:1.0 5138:3.0 5194:2.0 5334:1.0 5803:1.0 5946:1.0 6415:3.0 8200:1.0 8781:1.0 10126:3.0 12129:2.0 13281:2.0 13951:2.0 14030:-1.0 
0.0 0.0 5.140062613519851E-4 0.0 0.0 0.0 0.0 0.0 8:1.0 23:2.0 46:1.0 71:3.0 82:1.0 87:1.0 235:1.0 292:3.0 358:1.0 616:1.0 633:1.0 699:2.0 895:1.0 1215:8.0 1623:2.0 2115:1.0 5153:3.0 5915:2.0 14030:-1.0 
0.044576957068536024 0.00455176788082671 0.02561011729981295 0.023023672721087865 0.0 0.05906476865012234 0.005942672671436882 0.016925243497659687 14:1.0 24:3.0 58:1.0 104:2.0 292:1.0 395:2.0 476:1.0 488:1.0 563:2.0 581:2.0 679:1.0 862:1.0 1063:1.0 5301:1.0 6119:2.0 8084:1.0 14030:-1.0 
0.0 0.0 0.007859959242655685 0.027269587715043227 0.1084578019003343 0.0 0.016925981589240177 0.037476333265707214 91:6.0 292:1.0 359:1.0 968:1.0 1374:1.0 1386:2.0 1734:1.0 2952:1.0 14030:-1.0 
0.0 4.4476338777047614E-4 0.0 0.0 1.609742752994783E-4 0.0 0.0 0.002405289604285193 5:6.0 14:2.0 51:5.0 73:3.0 78:1.0 121:5.0 219:2.0 241:4.0 292:3.0 312:5.0 372:1.0 444:4.0 535:1.0 545:5.0 560:3.0 581:1.0 589:31.0 596:2.0 652:14.0 978:2.0 1011:2.0 1116:1.0 1215:3.0 1281:1.0 1817:6.0 2092:2.0 2125:1.0 2262:2.0 2501:14.0 2622:44.0 2670:5.0 2966:2.0 4086:3.0 5630:1.0 11307:2.0 13771:2.0 14030:-1.0 
0.043100560667428664 0.0178870079628303 0.03175498196723107 0.01656792623870825 0.04047195866880905 0.027730266952348946 0.01078757182413125 0.013272028229516387 56:1.0 91:1.0 95:2.0 220:1.0 278:1.0 372:1.0 437:1.0 553:1.0 616:1.0 926:1.0 1374:1.0 1666:5.0 1802:1.0 2093:1.0 2582:1.0 2724:1.0 3599:1.0 4507:1.0 5287:1.0 7138:1.0 12170:1.0 14030:-1.0 
0.005181048243608067 0.0 0.0 0.0 0.008385083105160814 0.0 0.0 0.0 14:1.0 47:3.0 48:1.0 70:1.0 73:1.0 175:1.0 285:3.0 381:1.0 448:1.0 730:1.0 925:1.0 1109:1.0 1127:27.0 1219:2.0 1733:3.0 1784:1.0 1817:2.0 2501:8.0 2670:4.0 2798:3.0 3370:2.0 4200:2.0 5099:1.0 5636:1.0 5915:2.0 13508:1.0 14030:-1.0 
0.0 0.0 0.0 0.005571554841132187 0.0 0.0 0.0 0.0 5:4.0 14:10.0 19:2.0 24:1.0 35:2.0 48:1.0 51:5.0 73:1.0 78:1.0 99:1.0 121:6.0 135:8.0 151:1.0 162:1.0 210:1.0 243:1.0 261:3.0 292:16.0 312:6.0 328:2.0 330:1.0 410:2.0 412:2.0 413:1.0 490:1.0 560:4.0 590:1.0 598:1.0 617:1.0 690:2.0 699:3.0 789:1.0 798:5.0 829:1.0 869:2.0 877:3.0 895:6.0 1047:1.0 1140:1.0 1287:1.0 1503:1.0 1547:5.0 1639:2.0 1782:2.0 1950:5.0 2065:1.0 2568:5.0 2922:2.0 3055:1.0 3171:1.0 3195:2.0 3211:1.0 3605:1.0 4224:1.0 4733:1.0 11979:1.0 14030:-1.0 
0.051597541013462866 0.04295644867673991 0.0 0.04442581904468978 0.14575805850693735 0.0 0.2315728758474978 0.17199142001357165 14:4.0 73:3.0 104:1.0 241:1.0 312:1.0 2568:1.0 2984:1.0 13771:1.0 14030:-1.0 
0.0 0.0 0.0 0.0 0.04535077693585117 0.0 0.0 0.0 38:1.0 73:2.0 78:2.0 104:1.0 175:1.0 312:2.0 374:12.0 410:1.0 1984:2.0 2501:4.0 5057:2.0 7520:1.0 14030:-1.0 
0.0 0.0028679714971684483 0.0 0.0 0.020309529624544933 0.0 0.0306007128425188 0.0 14:13.0 48:2.0 73:4.0 78:1.0 104:1.0 241:1.0 312:5.0 410:1.0 512:1.0 652:1.0 926:1.0 1782:1.0 3855:1.0 3950:1.0 5018:1.0 11307:1.0 14030:-1.0 
4.6774714102872366E-4 0.0040689680297305245 0.004895093489046552 0.010354805550099416 0.04279769676821483 0.006752164089266032 0.0064951775050468485 0.015108580230870979 14:1.0 73:3.0 90:1.0 175:1.0 380:1.0 612:3.0 1547:1.0 1782:1.0 8426:6.0 14030:-1.0 
1.908547733936912E-4 7.202439325905971E-4 4.281629755836108E-4 0.0 4.4888529105365833E-4 0.0 9.769844513986632E-4 0.0 24:5.0 29:5.0 38:5.0 39:1.0 42:2.0 47:2.0 48:3.0 70:8.0 73:11.0 78:5.0 84:2.0 85:3.0 87:2.0 88:1.0 91:1.0 100:2.0 105:5.0 118:3.0 120:1.0 121:58.0 172:21.0 183:3.0 214:7.0 240:1.0 242:1.0 252:7.0 261:6.0 304:2.0 311:1.0 346:1.0 349:3.0 353:7.0 372:8.0 410:7.0 412:1.0 414:4.0 449:1.0 502:1.0 537:1.0 560:13.0 589:1.0 645:2.0 652:15.0 729:1.0 754:1.0 767:2.0 798:5.0 803:1.0 962:1.0 1060:1.0 1065:1.0 1143:1.0 1263:2.0 1367:5.0 1387:145.0 1389:5.0 1392:6.0 1533:2.0 1581:2.0 1651:1.0 1688:1.0 1953:1.0 2047:28.0 2110:1.0 2259:1.0 2262:4.0 2288:1.0 2426:1.0 2464:2.0 2482:1.0 2578:2.0 2966:1.0 2999:22.0 3191:2.0 3312:1.0 3350:1.0 3810:1.0 3917:1.0 4072:2.0 4125:1.0 4137:1.0 4274:1.0 4549:3.0 5056:1.0 5170:27.0 5596:1.0 5666:1.0 6242:1.0 6406:4.0 6804:1.0 7598:1.0 8132:1.0 8406:3.0 8519:7.0 8639:4.0 10997:1.0 11305:2.0 12262:3.0 12688:1.0 12844:1.0 13045:1.0 13222:1.0 13762:1.0 13771:1.0 14030:-1.0 
0.0 8.867483592441438E-4 0.0 0.002475842555521773 0.0 0.0 0.0010134293654098275 0.0019653222473091213 10:1.0 14:5.0 24:3.0 26:6.0 42:5.0 46:1.0 47:1.0 48:1.0 90:2.0 99:2.0 102:2.0 112:5.0 175:1.0 197:2.0 206:1.0 232:2.0 286:1.0 304:5.0 335:2.0 412:2.0 439:1.0 444:1.0 690:1.0 730:2.0 751:1.0 896:34.0 1095:2.0 1463:14.0 1651:2.0 1812:4.0 2111:2.0 2259:1.0 2301:1.0 3961:22.0 5641:1.0 14030:-1.0 
0.0 0.005211532224869956 0.007054800560591849 0.017485797460052355 0.043968542853233185 0.006952912451483066 0.018345003296274677 0.04119377073488202 5:2.0 14:1.0 24:2.0 70:7.0 73:2.0 78:1.0 84:2.0 91:1.0 135:2.0 706:5.0 925:18.0 1287:5.0 1332:3.0 1485:1.0 1547:1.0 1782:1.0 2239:1.0 3000:1.0 3171:1.0 4870:3.0 5915:6.0 14030:-1.0 
0.007774353391731758 0.0 0.0 0.005689820217302143 0.06303738067500228 0.011514006330125668 0.004703222964281543 0.006321649767700115 38:1.0 71:2.0 798:2.0 837:10.0 1306:2.0 4731:1.0 6203:1.0 14030:-1.0 
0.014714844856290026 0.0 0.0 0.005661315647676465 0.0 0.0 0.0 0.0 5:7.0 14:5.0 15:5.0 19:1.0 47:3.0 71:3.0 135:7.0 151:4.0 164:2.0 197:2.0 214:22.0 218:2.0 268:1.0 311:5.0 312:4.0 381:1.0 396:5.0 412:5.0 535:4.0 548:6.0 616:1.0 682:1.0 753:3.0 892:1.0 925:1.0 978:1.0 996:6.0 1047:1.0 1125:1.0 1346:1.0 2563:1.0 2649:1.0 2726:1.0 2728:2.0 3183:1.0 3982:1.0 4025:1.0 5213:4.0 9389:1.0 12844:1.0 13508:2.0 14030:-1.0 
0.0 0.0 0.0 0.0 6.186316270057484E-4 0.0 0.0 6.124948499357887E-4 5:2.0 8:6.0 10:4.0 14:2.0 16:17.0 38:4.0 54:1.0 70:2.0 73:17.0 78:4.0 79:3.0 99:2.0 118:2.0 121:11.0 155:3.0 214:3.0 221:1.0 261:1.0 312:1.0 347:2.0 358:1.0 372:2.0 410:3.0 449:1.0 512:8.0 556:1.0 581:1.0 629:1.0 652:12.0 661:37.0 670:1.0 737:1.0 789:1.0 790:3.0 798:3.0 831:17.0 837:2.0 881:2.0 922:1.0 996:12.0 1012:1.0 1105:1.0 1116:1.0 1166:1.0 1215:2.0 1231:5.0 1252:2.0 1332:7.0 1408:2.0 1412:74.0 1480:1.0 1486:21.0 1579:3.0 1623:1.0 1643:1.0 1802:1.0 1817:4.0 1984:17.0 2200:1.0 2239:2.0 2432:1.0 2501:37.0 2530:2.0 2670:2.0 3232:1.0 3370:3.0 3580:1.0 3989:1.0 4140:1.0 5153:1.0 5473:1.0 5479:1.0 5715:1.0 6174:1.0 8623:3.0 9995:1.0 14030:-1.0 
0.0020086912768068317 0.0 0.0 0.0 0.0 0.0 0.0 0.03663863023338785 5:5.0 14:2.0 15:5.0 17:1.0 19:1.0 23:3.0 38:1.0 84:1.0 87:4.0 106:1.0 110:2.0 135:1.0 164:4.0 197:1.0 241:2.0 372:1.0 395:1.0 449:1.0 461:2.0 578:1.0 581:1.0 616:6.0 644:2.0 748:2.0 1012:2.0 1435:3.0 1486:1.0 1769:1.0 1981:6.0 2397:1.0 4231:1.0 4296:1.0 13508:1.0 14030:-1.0 
0.0017176699654153824 0.0037849156579331153 0.005236417896940558 0.0037295887358280975 0.0 0.0 0.0 0.0 5:1.0 7:1.0 25:2.0 47:2.0 61:2.0 87:4.0 91:1.0 93:1.0 97:4.0 99:1.0 115:1.0 121:1.0 135:2.0 197:1.0 201:1.0 241:2.0 253:4.0 359:1.0 422:2.0 434:2.0 510:4.0 602:3.0 616:3.0 718:1.0 851:3.0 937:1.0 1010:1.0 1547:1.0 14030:-1.0 
0.0 0.0 0.0 0.010163261382660181 0.03108786379067826 0.0 0.0 0.13161403750290201 14:2.0 112:1.0 120:1.0 135:1.0 535:1.0 545:1.0 563:1.0 581:1.0 699:3.0 722:1.0 1000:2.0 1012:5.0 1017:1.0 1211:2.0 1879:1.0 2125:1.0 2350:1.0 2444:1.0 3205:1.0 3599:1.0 5091:1.0 8623:4.0 13886:1.0 14030:-1.0 
0.0 0.0 0.0 0.0 0.0 0.0 0.0 0.016054073463708785 14:2.0 15:1.0 38:1.0 73:5.0 85:1.0 90:2.0 292:9.0 502:1.0 581:2.0 590:2.0 652:2.0 707:1.0 837:2.0 1215:3.0 1817:4.0 2670:1.0 3003:4.0 12177:3.0 14030:-1.0 
0.0 4.5650733252349456E-4 0.0 0.0 0.0 0.0 0.0 0.0 5:10.0 13:4.0 14:10.0 15:1.0 19:14.0 21:1.0 22:3.0 24:18.0 25:10.0 34:1.0 38:110.0 39:1.0 40:1.0 42:2.0 43:1.0 46:1.0 47:5.0 48:4.0 49:4.0 51:2.0 54:4.0 56:13.0 60:5.0 64:2.0 66:13.0 74:1.0 75:1.0 78:4.0 79:1.0 82:1.0 84:2.0 85:9.0 87:3.0 90:3.0 91:2.0 93:19.0 97:16.0 99:4.0 100:1.0 102:1.0 109:1.0 112:13.0 120:3.0 121:14.0 125:2.0 127:1.0 135:3.0 146:4.0 149:2.0 151:1.0 155:4.0 159:1.0 162:1.0 163:1.0 164:9.0 168:3.0 170:3.0 172:1.0 175:2.0 178:2.0 185:2.0 200:2.0 204:1.0 207:9.0 214:30.0 221:3.0 228:2.0 229:1.0 234:8.0 241:1.0 243:4.0 253:6.0 261:1.0 264:4.0 275:1.0 278:1.0 282:1.0 285:3.0 292:2.0 293:1.0 294:4.0 303:1.0 304:9.0 305:1.0 312:5.0 322:2.0 327:1.0 328:2.0 331:2.0 334:3.0 343:2.0 346:7.0 349:7.0 356:1.0 357:1.0 361:1.0 372:10.0 380:3.0 381:1.0 383:2.0 394:27.0 395:3.0 403:1.0 410:3.0 416:3.0 420:1.0 422:1.0 439:49.0 450:1.0 454:4.0 457:4.0 468:1.0 491:1.0 493:10.0 495:2.0 501:1.0 507:1.0 508:1.0 510:1.0 512:2.0 514:1.0 520:1.0 524:1.0 527:8.0 537:2.0 541:6.0 545:1.0 559:8.0 560:1.0 566:2.0 567:4.0 573:1.0 590:3.0 593:3.0 594:3.0 595:4.0 596:1.0 602:2.0 608:6.0 612:2.0 615:2.0 633:1.0 639:1.0 645:3.0 647:3.0 652:6.0 665:1.0 673:1.0 674:1.0 682:1.0 688:1.0 690:2.0 699:2.0 704:3.0 722:11.0 729:5.0 750:1.0 762:1.0 794:3.0 798:3.0 804:2.0 840:1.0 862:1.0 864:1.0 869:1.0 883:1.0 934:4.0 955:4.0 968:1.0 988:2.0 991:5.0 999:3.0 1005:1.0 1010:5.0 1012:4.0 1047:1.0 1112:3.0 1116:9.0 1125:5.0 1127:1.0 1135:1.0 1143:15.0 1166:3.0 1173:2.0 1177:1.0 1196:1.0 1219:1.0 1252:2.0 1263:3.0 1292:1.0 1311:1.0 1316:7.0 1372:1.0 1389:6.0 1399:7.0 1408:3.0 1462:1.0 1468:1.0 1470:1.0 1481:2.0 1536:1.0 1572:4.0 1582:8.0 1590:2.0 1647:4.0 1651:10.0 1682:1.0 1728:1.0 1732:1.0 1734:2.0 1799:2.0 1850:2.0 1875:1.0 1905:2.0 1945:1.0 1950:1.0 1953:1.0 1979:3.0 1985:2.0 2026:1.0 2029:7.0 2065:1.0 2223:1.0 2259:2.0 2346:1.0 2348:1.0 2377:1.0 2397:2.0 2415:1.0 2438:3.0 2517:1.0 2589:1.0 2601:1.0 2757:1.0 2858:3.0 2898:1.0 2922:2.0 3055:1.0 3170:3.0 3179:1.0 3195:1.0 3206:5.0 3215:1.0 3312:1.0 3543:1.0 3605:5.0 3612:2.0 3908:4.0 4096:1.0 4405:1.0 4549:1.0 4565:4.0 4658:1.0 4957:2.0 5543:1.0 7738:1.0 8084:10.0 8234:1.0 8634:3.0 10046:2.0 10958:1.0 11095:1.0 11307:2.0 12156:2.0 12745:1.0 13508:1.0 13771:2.0 13931:1.0 14023:4.0 14030:-1.0 
0.0 0.0 0.0 0.0 0.0 0.0 0.0 0.010567794503267771 71:3.0 434:1.0 502:1.0 559:1.0 564:2.0 661:6.0 952:1.0 1000:3.0 1085:1.0 1166:1.0 1316:2.0 1435:8.0 1845:2.0 1979:1.0 1984:2.0 2286:2.0 2501:6.0 2674:1.0 4224:1.0 4435:2.0 4589:3.0 12629:2.0 14030:-1.0 
0.0908504573697967 0.05835275397080328 0.04816638673340287 0.09994837406760508 0.0974536249917852 0.016451634769659843 0.056698627109497905 0.08147138784420453 43:2.0 135:1.0 164:2.0 412:1.0 504:1.0 559:2.0 3439:1.0 8996:2.0 13701:1.0 14030:-1.0 
0.03492752723917378 0.03779637584063439 0.0076930190087048335 0.013178496932711678 0.0 0.005196517972544756 0.030540530110721643 0.031671196953219134 5:3.0 37:4.0 47:31.0 48:1.0 91:2.0 100:1.0 212:1.0 285:6.0 299:1.0 349:1.0 407:1.0 560:1.0 612:1.0 730:2.0 2110:2.0 2501:1.0 4200:2.0 5962:3.0 14030:-1.0 
4.2443865481552143E-4 5.486196654024088E-4 0.0 0.0 0.012610582128181558 0.0 0.0 0.0 5:3.0 14:1.0 15:1.0 38:2.0 48:3.0 73:2.0 78:3.0 99:1.0 135:1.0 166:1.0 214:1.0 219:4.0 241:1.0 312:7.0 346:1.0 349:4.0 364:1.0 372:2.0 438:6.0 560:10.0 563:1.0 652:4.0 762:1.0 837:1.0 849:1.0 979:4.0 1010:1.0 1012:1.0 1116:1.0 1143:1.0 1486:1.0 1782:3.0 1994:1.0 5915:2.0 9277:4.0 12177:24.0 13771:2.0 14030:-1.0 
0.0 0.0 0.0 0.004150270392456724 0.034414490352335604 0.0 0.0030682400134247776 0.017709610879851373 5:5.0 19:7.0 47:1.0 51:4.0 70:2.0 73:1.0 84:1.0 120:1.0 121:1.0 175:1.0 208:2.0 214:1.0 219:1.0 243:1.0 292:3.0 351:3.0 496:2.0 617:1.0 670:6.0 790:3.0 849:1.0 895:2.0 978:1.0 1035:1.0 1231:10.0 1438:1.0 1622:7.0 1979:1.0 1990:1.0 2311:1.0 2482:2.0 2501:6.0 2670:4.0 2788:9.0 3845:1.0 5915:5.0 8200:3.0 8623:6.0 14030:-1.0 
0.0 0.0 0.002625067685602398 0.0 0.0 0.0 0.0 0.0 5:5.0 8:3.0 15:1.0 38:1.0 46:1.0 47:19.0 51:1.0 54:9.0 73:21.0 78:9.0 79:1.0 85:2.0 100:2.0 121:2.0 155:1.0 201:1.0 261:4.0 266:1.0 285:32.0 289:1.0 299:1.0 312:1.0 317:1.0 335:2.0 372:1.0 381:2.0 382:1.0 401:1.0 410:1.0 444:3.0 495:1.0 514:2.0 534:1.0 547:6.0 560:1.0 596:6.0 652:5.0 729:1.0 730:2.0 748:5.0 790:1.0 798:20.0 837:20.0 849:1.0 889:1.0 925:15.0 1073:1.0 1116:5.0 1127:4.0 1231:8.0 1252:5.0 1273:1.0 1389:1.0 1533:1.0 1601:4.0 1875:1.0 1984:2.0 2092:1.0 2110:1.0 2153:1.0 2262:1.0 2432:1.0 2501:9.0 2512:4.0 2620:6.0 2670:2.0 2765:1.0 2855:1.0 3084:1.0 4200:2.0 4754:3.0 4821:4.0 5681:2.0 5915:1.0 6409:1.0 6795:1.0 8256:1.0 8623:2.0 8824:1.0 11451:1.0 11609:2.0 11767:3.0 12297:1.0 13222:1.0 14030:-1.0 
0.0 0.0 0.0 4.09865079126136E-4 0.0 0.0 0.0 0.0 5:6.0 14:6.0 19:2.0 25:2.0 47:1.0 51:4.0 70:1.0 84:1.0 85:2.0 87:2.0 91:1.0 99:1.0 121:3.0 164:1.0 197:1.0 214:2.0 268:1.0 285:1.0 292:4.0 312:1.0 349:2.0 372:2.0 381:2.0 389:1.0 395:1.0 410:3.0 412:7.0 469:1.0 490:1.0 600:1.0 616:5.0 736:11.0 753:18.0 926:1.0 934:1.0 1116:2.0 1582:2.0 1601:3.0 1622:6.0 1731:1.0 2293:2.0 2438:1.0 2957:9.0 3163:5.0 4212:1.0 12572:3.0 14030:-1.0 
0.011044821414324951 0.00431017574732803 0.01580498344305966 0.030478302897207706 0.009831096115186289 0.0 0.0 0.03213883202050472 38:2.0 46:1.0 84:1.0 99:4.0 175:1.0 395:1.0 490:3.0 707:1.0 734:1.0 735:1.0 834:1.0 905:1.0 927:1.0 972:1.0 1135:1.0 1183:1.0 1666:1.0 2397:1.0 4242:1.0 4629:1.0 5575:1.0 9724:1.0 13886:1.0 14030:-1.0 
0.0 0.023187248938863807 0.012199423518903022 0.0 0.10730708986668946 0.021511860310142364 0.04840728892662847 0.01853576748890965 73:2.0 196:2.0 434:1.0 496:2.0 715:2.0 996:2.0 1817:4.0 3370:2.0 3810:1.0 12844:2.0 14030:-1.0 
0.0 0.0 0.0 0.0 0.0 0.0 5.400508548121068E-4 0.0 5:1.0 14:48.0 15:2.0 19:63.0 38:5.0 39:2.0 47:9.0 51:13.0 54:4.0 71:36.0 79:2.0 84:2.0 85:4.0 87:10.0 88:2.0 90:1.0 91:4.0 97:2.0 99:1.0 110:1.0 120:7.0 121:7.0 126:2.0 135:41.0 141:2.0 149:3.0 151:26.0 162:4.0 175:2.0 178:1.0 188:3.0 197:1.0 200:2.0 201:8.0 206:1.0 210:1.0 214:11.0 229:3.0 243:1.0 246:9.0 252:2.0 268:1.0 279:1.0 289:3.0 292:32.0 300:4.0 304:1.0 311:32.0 312:26.0 349:5.0 351:1.0 356:1.0 358:3.0 359:3.0 368:2.0 372:1.0 380:1.0 389:20.0 392:1.0 394:1.0 410:1.0 422:7.0 428:2.0 444:1.0 445:4.0 448:5.0 461:2.0 490:1.0 496:2.0 502:1.0 534:3.0 535:7.0 545:12.0 557:2.0 560:5.0 581:1.0 591:3.0 596:1.0 627:2.0 652:4.0 661:2.0 669:1.0 673:5.0 687:1.0 688:1.0 689:1.0 699:2.0 715:6.0 722:1.0 727:10.0 743:2.0 798:6.0 810:1.0 818:1.0 834:1.0 843:1.0 849:6.0 869:3.0 895:1.0 925:1.0 934:1.0 978:1.0 996:1.0 1010:1.0 1047:9.0 1096:3.0 1127:1.0 1143:3.0 1166:7.0 1211:3.0 1256:3.0 1287:2.0 1309:1.0 1316:2.0 1346:2.0 1385:1.0 1389:2.0 1392:1.0 1433:2.0 1546:1.0 1639:14.0 1699:4.0 1711:1.0 1770:1.0 1860:3.0 1933:1.0 1972:1.0 2379:1.0 2543:1.0 2620:2.0 2728:1.0 2819:3.0 2922:10.0 3000:3.0 3055:3.0 3076:2.0 3105:1.0 3119:3.0 3122:2.0 3605:4.0 3712:1.0 4791:2.0 4918:4.0 5255:1.0 5443:1.0 5485:4.0 6134:1.0 8200:1.0 8623:1.0 10046:1.0 10447:2.0 12828:1.0 12844:8.0 14030:-1.0 
0.013791811524919114 0.04142633680116376 0.0075557330608127865 0.012251659007631937 0.12327034098941286 0.0 0.0 0.018647284574174645 5:1.0 85:3.0 170:1.0 292:1.0 581:2.0 652:1.0 656:1.0 693:1.0 1035:1.0 1316:1.0 14030:-1.0 
0.0 0.0 0.0 0.0 0.057815023469608075 0.0 0.0033656947712617 0.0 25:1.0 38:3.0 167:1.0 191:1.0 292:1.0 389:1.0 527:1.0 560:2.0 735:1.0 753:4.0 921:1.0 1582:2.0 1770:1.0 3055:1.0 3170:1.0 6132:1.0 14030:-1.0 
0.00278923434434153 4.6926822178285007E-4 0.0 0.0 0.03846062491432192 0.0015573066862191733 0.0 0.003728056205769238 5:3.0 10:1.0 14:1.0 24:1.0 38:1.0 51:7.0 70:2.0 73:1.0 87:1.0 101:2.0 121:7.0 135:1.0 137:1.0 196:1.0 210:2.0 292:3.0 297:2.0 328:1.0 380:2.0 410:1.0 485:5.0 496:2.0 534:2.0 566:3.0 652:1.0 676:4.0 690:1.0 715:31.0 743:1.0 798:19.0 823:2.0 849:1.0 877:14.0 1047:6.0 1131:24.0 1287:11.0 1675:9.0 1699:3.0 1817:1.0 1920:2.0 1950:3.0 2052:1.0 2384:2.0 2946:1.0 3170:6.0 3195:1.0 3605:1.0 3637:1.0 4224:1.0 4456:1.0 4877:1.0 5153:7.0 5841:1.0 5915:1.0 8634:7.0 12844:2.0 14030:-1.0 
0.0 0.0 0.0 0.0 0.008053067675383097 0.0 0.0 0.0 5:1.0 8:4.0 14:2.0 38:11.0 42:1.0 70:2.0 78:3.0 85:2.0 90:2.0 155:1.0 240:1.0 349:1.0 364:1.0 367:16.0 438:1.0 535:1.0 545:1.0 581:1.0 665:2.0 926:3.0 1010:1.0 1012:5.0 1084:1.0 1790:2.0 1817:5.0 1981:3.0 2029:1.0 2042:3.0 2397:2.0 2670:4.0 4189:1.0 4685:1.0 5915:1.0 13042:1.0 14030:-1.0 
0.025605592275312897 0.01831564862622332 0.0 0.009210022463263365 0.0031141961149324837 0.008445346924331704 0.017353543209021507 0.08257896943230579 47:8.0 48:1.0 54:8.0 349:1.0 361:1.0 4722:3.0 9577:1.0 14030:-1.0 
0.0 0.0 0.0 0.0 0.006168374825806819 0.0 0.0 7.358426698028843E-4 15:4.0 19:1.0 24:5.0 38:13.0 46:2.0 47:1.0 48:1.0 60:1.0 70:2.0 78:6.0 79:4.0 85:1.0 88:2.0 99:4.0 107:2.0 127:1.0 183:5.0 201:2.0 204:2.0 234:1.0 284:2.0 292:4.0 304:1.0 311:5.0 328:1.0 335:1.0 347:3.0 372:1.0 491:2.0 545:1.0 563:1.0 594:1.0 649:1.0 652:2.0 692:4.0 706:1.0 849:1.0 862:1.0 1000:7.0 1012:12.0 1116:7.0 1263:1.0 1287:2.0 1309:2.0 1415:1.0 1491:1.0 1572:1.0 1731:1.0 1762:2.0 1817:1.0 1979:13.0 2092:2.0 2149:2.0 2473:1.0 3232:1.0 3810:1.0 4000:3.0 4249:1.0 4391:1.0 4863:1.0 5251:1.0 6706:2.0 13771:3.0 14030:-1.0 
0.0 0.002642461678368324 0.0 0.0 0.0 0.0 0.0 0.004513031820446097 25:1.0 70:14.0 311:1.0 376:1.0 394:1.0 404:19.0 496:1.0 502:1.0 559:1.0 598:1.0 633:2.0 697:2.0 752:1.0 788:1.0 790:2.0 884:4.0 917:1.0 937:2.0 952:1.0 961:1.0 994:9.0 1027:1.0 1057:5.0 1060:1.0 1085:1.0 1219:3.0 1346:1.0 1359:1.0 1386:1.0 1528:2.0 1546:5.0 1590:1.0 1639:1.0 1650:2.0 1655:1.0 1720:4.0 1733:4.0 1750:1.0 2115:1.0 2338:2.0 2699:1.0 2721:3.0 3097:5.0 3183:1.0 3551:1.0 3611:1.0 3748:1.0 4019:1.0 8623:1.0 9224:2.0 10898:1.0 11742:1.0 12844:1.0 13728:1.0 14030:-1.0 
0.0 0.0012951923176969136 0.0 0.0 0.0 0.0 0.008699524845348213 0.0 70:11.0 191:1.0 252:1.0 311:5.0 351:1.0 404:4.0 512:1.0 539:1.0 559:1.0 621:4.0 633:2.0 697:4.0 727:1.0 752:2.0 788:1.0 790:2.0 823:1.0 825:3.0 869:1.0 884:2.0 922:1.0 926:1.0 994:4.0 996:2.0 1057:1.0 1077:1.0 1085:4.0 1117:2.0 1219:1.0 1386:2.0 1470:12.0 1546:3.0 1571:2.0 1607:2.0 1787:1.0 1939:1.0 2231:2.0 2321:1.0 2438:5.0 2614:1.0 2720:1.0 2721:2.0 2977:4.0 3167:1.0 3356:3.0 4379:3.0 9389:1.0 12844:6.0 13333:2.0 13728:7.0 14030:-1.0 
0.0 0.008309817258273016 0.0031679046150047013 0.0 0.0 0.0 9.477797742155254E-5 0.0 5:8.0 14:17.0 15:3.0 19:3.0 24:8.0 38:3.0 47:5.0 48:7.0 51:10.0 66:1.0 70:6.0 78:1.0 79:6.0 84:2.0 87:1.0 91:4.0 97:2.0 104:2.0 121:1.0 135:6.0 149:3.0 164:4.0 172:1.0 235:3.0 268:1.0 292:5.0 309:1.0 311:7.0 312:4.0 329:2.0 334:2.0 349:2.0 356:1.0 359:2.0 364:2.0 372:1.0 381:8.0 395:2.0 404:1.0 412:6.0 434:3.0 444:2.0 448:1.0 455:1.0 483:2.0 485:2.0 535:5.0 539:1.0 558:1.0 566:1.0 579:1.0 652:8.0 661:1.0 665:1.0 666:1.0 670:10.0 673:2.0 684:1.0 697:2.0 729:3.0 734:1.0 752:1.0 753:1.0 754:3.0 768:1.0 777:1.0 790:3.0 798:1.0 804:1.0 823:3.0 859:1.0 881:1.0 883:1.0 884:1.0 927:1.0 961:1.0 963:1.0 1000:1.0 1008:2.0 1060:1.0 1073:4.0 1077:1.0 1166:2.0 1279:1.0 1297:1.0 1316:2.0 1389:2.0 1412:3.0 1427:1.0 1454:2.0 1480:2.0 1485:2.0 1488:6.0 1522:2.0 1582:1.0 1641:4.0 1720:1.0 1856:2.0 1919:1.0 2049:1.0 2125:1.0 2181:12.0 2226:1.0 2239:1.0 2431:1.0 2438:2.0 2560:2.0 2630:1.0 2734:1.0 2922:1.0 2946:2.0 3000:1.0 3104:1.0 3119:3.0 3290:3.0 3350:1.0 3363:2.0 3655:1.0 3738:1.0 3767:2.0 4086:1.0 4309:2.0 4410:1.0 4448:2.0 4483:3.0 4589:11.0 4826:1.0 5030:1.0 5853:1.0 6040:1.0 8303:1.0 9389:1.0 9883:2.0 10447:1.0 11307:1.0 12572:1.0 13728:1.0 14030:-1.0 
0.03720071969380134 0.0 0.013694015199022629 0.0 0.04018561477259092 0.0 0.03934095766093536 0.0 14:1.0 19:2.0 38:2.0 85:1.0 110:1.0 201:3.0 246:1.0 292:8.0 347:1.0 381:2.0 400:1.0 476:1.0 559:2.0 652:1.0 715:1.0 729:1.0 921:1.0 1143:1.0 1260:2.0 1582:1.0 1734:1.0 2568:1.0 2922:1.0 3947:1.0 14030:-1.0 
0.00602476901152583 0.011458099274720232 0.0036696666161448637 0.0 0.0815587803425128 0.0033720924872807623 0.026804480261451196 0.014250298441720443 38:3.0 73:6.0 167:4.0 175:1.0 205:4.0 347:1.0 410:2.0 448:1.0 617:1.0 1675:2.0 2137:7.0 2432:2.0 2819:4.0 5915:2.0 8254:1.0 14030:-1.0 
0.008391595478086246 0.031890246570824766 0.0016743961461192175 0.034157222229345224 0.03280059082648542 0.006263491672810102 0.0059928604167361855 0.041172178639856824 21:2.0 25:4.0 33:1.0 38:2.0 43:1.0 46:1.0 64:1.0 78:1.0 85:4.0 90:7.0 99:1.0 166:1.0 167:1.0 184:1.0 189:2.0 200:1.0 214:4.0 221:1.0 234:1.0 243:1.0 246:1.0 264:1.0 346:1.0 349:1.0 372:2.0 469:1.0 493:1.0 501:1.0 592:1.0 614:1.0 665:2.0 690:1.0 729:2.0 734:1.0 748:1.0 790:1.0 897:1.0 1135:1.0 1183:2.0 1187:1.0 1237:1.0 1295:2.0 1653:2.0 1666:2.0 1812:1.0 1859:1.0 1993:2.0 2160:1.0 2176:1.0 2397:3.0 2590:1.0 3634:1.0 3822:1.0 5049:1.0 5630:3.0 7217:1.0 12636:1.0 14023:1.0 14030:-1.0 
0.0 0.0011274499260521382 0.0 0.0 0.0 0.0 0.0 0.0 14:15.0 25:2.0 35:1.0 38:11.0 46:1.0 48:1.0 54:6.0 70:2.0 71:3.0 78:1.0 84:1.0 85:3.0 87:1.0 91:13.0 100:1.0 104:10.0 112:2.0 121:1.0 135:4.0 151:2.0 164:3.0 168:1.0 178:1.0 183:1.0 197:1.0 206:1.0 210:1.0 214:7.0 219:1.0 233:1.0 241:1.0 243:1.0 268:22.0 292:5.0 347:2.0 349:4.0 372:2.0 394:1.0 410:1.0 412:6.0 414:2.0 422:2.0 457:1.0 493:1.0 510:1.0 527:2.0 535:3.0 548:1.0 560:1.0 589:21.0 590:1.0 612:2.0 661:5.0 664:4.0 699:7.0 752:2.0 834:4.0 849:1.0 877:1.0 905:2.0 934:2.0 1010:1.0 1040:1.0 1047:2.0 1054:1.0 1065:3.0 1077:2.0 1116:4.0 1125:7.0 1166:1.0 1257:1.0 1287:4.0 1316:1.0 1346:3.0 1364:1.0 1385:1.0 1531:1.0 1545:2.0 1547:1.0 1618:1.0 1720:3.0 1731:1.0 1767:1.0 1801:2.0 2006:1.0 2649:13.0 2952:1.0 3008:1.0 3070:1.0 3894:1.0 3961:1.0 4120:7.0 4145:5.0 4576:2.0 6406:1.0 9555:1.0 9951:1.0 11694:1.0 11832:1.0 12844:3.0 13508:3.0 14030:-1.0 
0.03500263059445971 0.009660269593597053 0.014574855671604398 0.01297555506837995 0.027995591752753696 0.057345278299155034 0.025860712088401207 0.025889186673841578 14:1.0 164:1.0 541:1.0 616:1.0 689:1.0 1211:1.0 1316:1.0 1639:1.0 2783:1.0 5474:4.0 14030:-1.0 
0.0 0.023590931883089125 0.0 0.0 0.041319883366432546 0.0 0.0 0.0 14:6.0 24:1.0 48:2.0 70:2.0 73:4.0 261:2.0 312:1.0 364:2.0 410:5.0 551:1.0 617:1.0 991:1.0 1675:4.0 1817:1.0 2855:2.0 14030:-1.0 
0.0 7.06206137861778E-4 0.0 0.0 0.0 0.004653649277269722 0.0 0.0 5:1.0 24:2.0 46:3.0 51:1.0 70:2.0 73:6.0 79:8.0 99:2.0 110:9.0 121:2.0 183:1.0 212:1.0 261:8.0 298:19.0 304:6.0 351:4.0 372:1.0 410:2.0 444:2.0 495:3.0 510:2.0 541:5.0 560:8.0 565:1.0 617:3.0 737:1.0 810:1.0 818:7.0 849:1.0 925:10.0 996:4.0 1008:1.0 1105:2.0 1163:1.0 1231:15.0 1386:1.0 1389:1.0 1788:1.0 1949:3.0 2110:1.0 2501:1.0 2670:1.0 3797:2.0 3810:2.0 3989:3.0 5798:1.0 5915:2.0 8634:1.0 14030:-1.0 
0.0 0.0 8.701502723052172E-4 0.0 0.0 0.0 0.0 0.0 8:1.0 38:1.0 47:3.0 54:48.0 79:1.0 85:2.0 93:1.0 121:3.0 164:1.0 183:3.0 214:5.0 266:2.0 292:1.0 304:1.0 353:3.0 372:3.0 449:3.0 545:1.0 560:3.0 810:2.0 1581:2.0 2583:1.0 5404:2.0 5681:1.0 8480:1.0 10813:1.0 14030:-1.0 
0.0 0.0 0.0 0.0 0.006931737074277623 0.0 0.0 0.0 5:1.0 19:4.0 22:1.0 24:11.0 25:2.0 38:15.0 47:3.0 48:43.0 60:4.0 70:1.0 73:5.0 78:2.0 79:12.0 86:1.0 88:1.0 90:2.0 135:1.0 162:1.0 210:5.0 219:1.0 241:2.0 252:3.0 266:1.0 286:1.0 289:2.0 292:1.0 298:1.0 309:3.0 311:1.0 312:3.0 346:2.0 364:1.0 389:2.0 404:2.0 410:5.0 412:3.0 424:2.0 448:1.0 481:3.0 501:2.0 534:1.0 544:1.0 558:1.0 581:2.0 595:1.0 616:1.0 633:2.0 645:2.0 715:7.0 729:1.0 789:6.0 798:4.0 803:1.0 810:1.0 837:5.0 849:10.0 881:7.0 951:1.0 996:2.0 1012:5.0 1060:2.0 1096:6.0 1108:1.0 1116:1.0 1120:1.0 1130:2.0 1287:2.0 1315:1.0 1337:2.0 1367:3.0 1387:12.0 1389:1.0 1458:2.0 1508:1.0 1586:1.0 1650:1.0 1651:1.0 1675:1.0 1746:1.0 1817:9.0 1919:3.0 1949:1.0 1953:1.0 1979:4.0 2047:1.0 2482:6.0 2759:1.0 2999:5.0 3055:1.0 3232:2.0 3543:1.0 3908:17.0 4224:1.0 4440:1.0 4663:1.0 4733:1.0 6075:1.0 7905:1.0 10672:1.0 12824:1.0 13389:1.0 13771:1.0 14030:-1.0 
0.0 0.0 0.0 0.0 0.019384120935934213 0.0 0.0 0.0 38:7.0 42:5.0 46:2.0 79:1.0 85:1.0 105:8.0 183:3.0 207:1.0 221:3.0 304:2.0 372:1.0 537:1.0 560:25.0 729:1.0 1387:19.0 1389:1.0 1533:1.0 1688:2.0 2110:2.0 3597:1.0 3810:3.0 3862:1.0 6650:2.0 9847:3.0 12688:1.0 14030:-1.0 
0.0 0.0 0.0016907806241123061 0.0 0.0 0.0 0.0 0.0 38:1.0 49:1.0 135:1.0 349:1.0 578:1.0 1802:2.0 1879:2.0 1979:2.0 2093:1.0 2952:2.0 14030:-1.0 
0.025657317287894443 0.013513874543529756 0.006392758479349519 0.011646924759440352 0.025627912889262715 0.009535354254786023 0.017802751670980364 0.016448182613662314 87:1.0 97:7.0 149:1.0 253:1.0 434:1.0 1085:2.0 14030:-1.0 
5.358729946640632E-4 0.0 0.0 0.016157565585418032 0.0 0.0 0.01780077797206792 0.027938473710749673 14:4.0 55:1.0 135:2.0 169:1.0 241:1.0 292:3.0 334:1.0 356:3.0 412:1.0 422:2.0 539:1.0 689:7.0 722:1.0 925:2.0 996:4.0 1166:4.0 1711:1.0 2223:2.0 2329:4.0 2756:2.0 3363:2.0 14030:-1.0 
0.016331955933353626 0.0 0.012576960479602878 0.07218209947608949 0.11704145518959808 0.011939814835502998 0.007256193620371146 0.08263512495013511 14:2.0 24:3.0 51:2.0 135:1.0 197:1.0 364:2.0 534:1.0 706:2.0 794:1.0 884:1.0 1012:3.0 1073:2.0 4125:1.0 4194:1.0 5110:1.0 12872:1.0 14030:-1.0 
0.04428384262813646 0.0399994491140466 0.009099052816536184 0.0133451208690094 0.017763430186754907 0.011133315851485357 0.0166349661627138 0.0 39:2.0 112:1.0 161:1.0 197:1.0 201:1.0 286:1.0 722:3.0 905:3.0 5179:1.0 14030:-1.0 
0.0 0.002765241895903976 0.0070893377165671435 0.0 0.0 0.0 0.0 0.0 5:1.0 15:2.0 47:35.0 48:4.0 73:17.0 121:1.0 219:4.0 241:3.0 285:18.0 299:1.0 312:2.0 335:1.0 349:2.0 389:1.0 412:1.0 512:1.0 534:1.0 560:6.0 589:1.0 652:3.0 770:1.0 978:1.0 1127:3.0 2798:13.0 3223:2.0 3370:1.0 14030:-1.0 
0.0 0.024023450877361095 0.0 0.010770873960419234 0.0 0.03398193185399764 0.0 0.0 188:1.0 560:4.0 3055:1.0 3076:2.0 3170:1.0 8634:1.0 14030:-1.0 
0.0 8.840158192502965E-4 0.0 0.0 0.0 0.0 0.010363725712633885 0.0 13:1.0 21:2.0 22:1.0 24:1.0 84:1.0 149:1.0 159:7.0 161:1.0 218:1.0 228:2.0 237:1.0 289:2.0 346:1.0 349:2.0 394:1.0 481:2.0 552:9.0 581:4.0 589:1.0 654:2.0 707:1.0 737:1.0 762:1.0 876:1.0 1084:1.0 1113:2.0 1114:1.0 1174:1.0 1389:1.0 1599:1.0 1796:2.0 1993:1.0 2014:1.0 2253:1.0 2308:1.0 2924:1.0 3230:1.0 3236:1.0 3461:1.0 3514:1.0 4248:1.0 4515:1.0 4605:1.0 6948:1.0 13157:1.0 14030:-1.0 
1.1898445129378953E-4 0.01467853333745836 0.0 0.0 0.0 0.0 0.0 0.023012275916114724 8:2.0 21:2.0 24:1.0 43:7.0 46:1.0 64:2.0 78:1.0 84:1.0 90:12.0 92:1.0 112:2.0 121:1.0 127:2.0 136:1.0 137:1.0 148:1.0 159:3.0 166:2.0 167:1.0 175:4.0 176:1.0 200:1.0 201:1.0 207:1.0 208:2.0 218:1.0 227:1.0 247:2.0 264:1.0 277:1.0 304:1.0 334:1.0 346:1.0 349:4.0 372:1.0 389:1.0 410:1.0 532:1.0 533:1.0 537:1.0 556:2.0 581:2.0 594:2.0 603:1.0 686:1.0 702:2.0 707:1.0 737:1.0 837:2.0 862:2.0 864:1.0 895:1.0 932:1.0 939:2.0 1020:1.0 1084:6.0 1114:1.0 1124:4.0 1160:1.0 1164:3.0 1174:1.0 1197:3.0 1223:2.0 1434:1.0 1599:1.0 1651:1.0 1675:1.0 1796:2.0 1871:1.0 1886:1.0 1981:1.0 2056:1.0 2113:1.0 2283:2.0 2389:1.0 2749:1.0 2793:1.0 3449:4.0 6367:1.0 9886:1.0 11327:1.0 11956:1.0 13669:1.0 14030:-1.0 
0.0 0.0 0.0 0.015296306086464094 0.16003141895213024 0.0 0.10276926406231324 0.1575730590338278 14:3.0 51:2.0 135:1.0 292:1.0 869:1.0 1614:1.0 1771:1.0 2819:1.0 14030:-1.0 
0.0 0.0 0.0 0.0 0.0 0.0 0.005465375796705397 0.0 5:2.0 14:8.0 15:1.0 19:4.0 51:10.0 71:13.0 78:1.0 85:2.0 91:1.0 121:2.0 210:2.0 292:9.0 311:2.0 335:1.0 349:1.0 353:1.0 380:1.0 422:1.0 445:2.0 471:1.0 535:4.0 548:1.0 687:2.0 715:9.0 877:2.0 895:1.0 909:1.0 1047:1.0 1088:3.0 1263:1.0 1731:2.0 2083:1.0 2568:1.0 2804:1.0 3523:1.0 4019:1.0 8634:1.0 10958:1.0 14030:-1.0 
0.0 0.0 0.0 0.0013763407922835153 0.003998996503233511 8.403015530581389E-4 0.0 0.0 3:18.0 5:1.0 14:9.0 24:3.0 38:2.0 51:6.0 60:1.0 66:1.0 70:1.0 99:1.0 127:1.0 145:1.0 210:3.0 241:1.0 289:2.0 292:5.0 372:1.0 380:2.0 389:2.0 412:4.0 414:1.0 471:7.0 544:3.0 673:44.0 699:3.0 715:2.0 767:1.0 770:2.0 849:5.0 862:1.0 934:4.0 1010:1.0 1088:1.0 1135:1.0 1229:20.0 1245:1.0 1263:1.0 1810:1.0 1851:1.0 2568:3.0 2946:53.0 3523:2.0 4159:1.0 4608:19.0 6054:2.0 9921:1.0 11902:10.0 14030:-1.0 
0.0 0.0 0.0 0.0 0.00408052013106798 0.0 0.13655935463478855 0.1033317354589993 14:1.0 38:1.0 104:1.0 292:1.0 383:1.0 559:2.0 652:1.0 781:1.0 1012:2.0 1979:1.0 4937:1.0 14030:-1.0 
0.005658425370576691 0.003097769507260285 0.0016129124432695372 0.022615088061823004 0.16853089476025154 0.006518730771939105 0.009160562630998473 0.0959153301702326 73:2.0 325:2.0 381:1.0 389:1.0 547:1.0 859:5.0 1564:1.0 1817:5.0 3119:1.0 3370:3.0 4224:2.0 5915:1.0 14030:-1.0 
0.011137223907026105 1.1855750855593296E-4 7.597539198250313E-4 0.009661820754110807 0.011578238822497634 0.0 0.0 0.029847360707778246 14:1.0 42:1.0 46:1.0 84:1.0 87:6.0 115:2.0 121:2.0 135:9.0 137:3.0 151:1.0 164:2.0 167:1.0 241:1.0 292:1.0 394:1.0 689:3.0 870:1.0 992:1.0 1047:2.0 1135:1.0 1699:1.0 1790:10.0 2029:3.0 2149:1.0 2533:1.0 2732:1.0 2922:1.0 13508:1.0 14030:-1.0 
0.0 0.0 1.761478823804956E-4 0.0 0.015477408661079878 0.0 0.0 6.876128823971534E-4 5:1.0 22:1.0 24:4.0 25:2.0 37:3.0 47:9.0 48:1.0 54:2.0 70:4.0 100:1.0 121:1.0 127:1.0 149:6.0 166:1.0 285:5.0 292:15.0 299:5.0 304:3.0 312:4.0 349:1.0 381:4.0 396:1.0 407:1.0 410:5.0 412:3.0 414:1.0 496:13.0 521:1.0 535:10.0 541:2.0 615:1.0 617:3.0 645:4.0 730:3.0 810:1.0 849:1.0 862:1.0 925:4.0 1010:1.0 1113:1.0 1237:1.0 1389:1.0 1454:57.0 1668:1.0 1675:1.0 1728:1.0 1770:1.0 2110:2.0 2512:1.0 3299:4.0 4191:1.0 8671:1.0 14030:-1.0 
8.005468723661079E-4 0.0 0.0 0.0030494450402535206 0.0 0.0 0.0 0.004381230395207851 14:18.0 19:2.0 38:1.0 85:1.0 135:3.0 240:1.0 292:4.0 356:2.0 422:37.0 444:1.0 534:1.0 616:1.0 652:1.0 689:19.0 690:1.0 934:1.0 1289:1.0 1380:1.0 1427:6.0 1508:2.0 1567:1.0 1711:3.0 2819:1.0 2922:12.0 14030:-1.0 
0.0 0.004041472041023134 0.0033360896117213515 0.006731893593998922 0.010427287692940072 0.0 0.0 0.02013140860311795 29:15.0 394:4.0 670:12.0 838:2.0 869:13.0 883:5.0 922:3.0 956:1.0 1004:1.0 1008:2.0 1057:2.0 1085:3.0 1793:1.0 1817:2.0 2482:1.0 3370:6.0 4224:1.0 5915:1.0 8623:7.0 13333:4.0 14030:-1.0 
0.0 0.0 0.0 0.0 0.040863471726086543 0.0 0.006023437240574646 0.03970053136271037 14:12.0 15:1.0 19:10.0 49:3.0 91:1.0 104:1.0 135:1.0 151:1.0 215:1.0 279:1.0 292:6.0 347:1.0 349:3.0 380:1.0 581:2.0 737:1.0 1381:1.0 1404:1.0 2074:1.0 2204:2.0 3494:1.0 6105:1.0 14030:-1.0 
0.0 0.0 0.0019462301329666322 0.013855488705084936 0.0 0.0 0.0 0.020798185330097804 25:4.0 49:1.0 91:1.0 137:4.0 197:2.0 230:1.0 289:1.0 331:1.0 395:1.0 545:1.0 578:1.0 581:1.0 689:1.0 921:1.0 991:1.0 1010:1.0 1047:1.0 1211:1.0 1215:1.0 1263:1.0 1654:1.0 1716:1.0 1734:1.0 2031:1.0 2074:1.0 2081:1.0 2125:1.0 2438:1.0 3055:1.0 3205:1.0 3520:1.0 3599:1.0 8634:1.0 14030:-1.0 
0.005626754905316376 0.0 0.011219686270558324 0.010624446138860702 0.03666964214538348 0.017934637410786845 0.008407322335594393 0.0 39:3.0 110:2.0 138:1.0 177:1.0 208:2.0 334:1.0 688:1.0 737:1.0 1084:5.0 14030:-1.0 
0.0 0.0 0.0 0.0 0.00787509319796327 0.0 0.0 0.0 14:1.0 38:3.0 47:1.0 70:1.0 73:1.0 78:1.0 79:13.0 110:4.0 139:1.0 149:1.0 183:3.0 284:1.0 292:1.0 560:10.0 584:2.0 617:4.0 670:13.0 787:3.0 818:3.0 1263:2.0 1337:6.0 1533:5.0 1582:1.0 1817:11.0 3597:4.0 4149:6.0 4781:6.0 14030:-1.0 
0.0 0.0 0.0 0.0 0.0 0.0 0.0 0.008896560332399403 5:7.0 14:3.0 38:6.0 48:3.0 54:5.0 71:3.0 87:8.0 120:1.0 135:3.0 151:1.0 175:5.0 201:1.0 214:1.0 284:1.0 292:9.0 335:2.0 372:1.0 380:4.0 412:5.0 449:1.0 502:3.0 535:1.0 560:6.0 581:1.0 628:1.0 652:1.0 682:1.0 690:1.0 715:2.0 877:1.0 883:4.0 972:1.0 1060:1.0 1065:7.0 1125:2.0 1127:4.0 1131:2.0 1143:2.0 1211:2.0 1338:2.0 1359:2.0 1408:2.0 1435:2.0 1469:3.0 1546:3.0 1547:1.0 1675:4.0 1716:1.0 1731:1.0 1784:1.0 1801:1.0 2125:14.0 2262:3.0 2270:1.0 2614:2.0 3034:1.0 3119:1.0 4212:1.0 4370:2.0 7889:1.0 12572:11.0 12844:6.0 14030:-1.0 
0.004695479922725403 0.0 0.004570010512247016 0.006236774812792589 0.15273001379872692 0.00157504557309257 0.004234281317786061 0.02045810994387728 5:9.0 30:1.0 70:2.0 82:1.0 289:2.0 449:1.0 565:14.0 633:1.0 644:1.0 881:1.0 1116:1.0 1359:1.0 2134:1.0 4431:1.0 14030:-1.0 
0.0010160750607829284 0.004304064494227723 0.0016636211731112641 0.0 0.0 0.0 2.1110904561300617E-4 7.518332466369659E-4 5:11.0 15:15.0 19:3.0 46:1.0 47:80.0 48:14.0 54:8.0 64:2.0 85:17.0 91:1.0 99:26.0 102:4.0 104:1.0 110:9.0 120:53.0 121:27.0 130:1.0 155:6.0 163:1.0 164:3.0 172:1.0 188:2.0 208:1.0 214:2.0 219:17.0 227:1.0 270:6.0 277:1.0 285:6.0 289:2.0 292:20.0 317:3.0 343:1.0 346:3.0 347:2.0 349:1.0 372:3.0 380:2.0 410:3.0 412:14.0 436:2.0 444:24.0 449:20.0 472:1.0 496:2.0 516:1.0 537:10.0 556:6.0 560:1.0 565:7.0 566:2.0 641:1.0 665:2.0 737:4.0 753:25.0 770:1.0 794:2.0 795:1.0 837:22.0 877:1.0 895:3.0 896:2.0 969:5.0 978:7.0 1045:2.0 1087:1.0 1143:1.0 1287:1.0 1508:1.0 1533:1.0 1547:2.0 1555:1.0 1627:2.0 1675:2.0 1762:28.0 1905:1.0 2200:2.0 2243:2.0 2262:1.0 2449:1.0 2450:2.0 2512:1.0 2563:1.0 2728:7.0 3637:2.0 4011:1.0 4147:1.0 4165:1.0 4335:9.0 4586:1.0 6075:3.0 10927:1.0 11295:12.0 11307:1.0 11445:1.0 12900:1.0 13003:2.0 13354:1.0 14030:-1.0 
4.4019341582387947E-4 0.0 0.0 6.22840046227657E-4 0.0 0.0 0.0032324069634871344 0.0 71:3.0 135:1.0 149:1.0 292:1.0 1125:1.0 2725:2.0 2961:1.0 14030:-1.0 
2.7561423112017723E-4 0.0 5.7297280413513526E-5 0.0 2.0708400095892365E-4 0.0 0.0 5.653283316032367E-4 51:1.0 135:1.0 164:1.0 358:2.0 501:2.0 559:3.0 689:2.0 1012:1.0 2922:2.0 4937:1.0 14030:-1.0 
0.0 0.0 0.0 3.173749680803094E-4 0.003941918857501666 0.0 0.0 0.0029568352162054573 5:23.0 14:45.0 15:2.0 19:2.0 24:1.0 30:1.0 35:1.0 38:19.0 46:3.0 47:6.0 50:1.0 79:19.0 84:3.0 85:8.0 87:8.0 90:1.0 99:2.0 105:32.0 112:2.0 135:3.0 140:1.0 164:1.0 214:19.0 221:5.0 230:1.0 241:2.0 292:10.0 312:5.0 328:1.0 342:1.0 347:1.0 364:1.0 372:2.0 412:2.0 424:2.0 491:1.0 510:1.0 560:27.0 566:4.0 581:1.0 590:3.0 612:1.0 652:2.0 670:5.0 687:1.0 699:7.0 707:2.0 753:1.0 762:1.0 767:1.0 818:8.0 849:8.0 881:1.0 895:2.0 991:1.0 1010:1.0 1047:22.0 1116:2.0 1125:2.0 1127:9.0 1219:2.0 1287:7.0 1387:17.0 1412:1.0 1415:1.0 1422:1.0 1503:2.0 1533:4.0 1636:1.0 1688:5.0 1731:2.0 1733:2.0 2245:1.0 2612:1.0 2734:1.0 3029:13.0 3195:1.0 3232:1.0 3605:1.0 3677:1.0 3950:2.0 4137:1.0 4296:1.0 4731:1.0 9951:2.0 10046:1.0 11845:1.0 12177:2.0 12844:1.0 13508:5.0 14030:-1.0 
0.3512129966952281 0.17533129834734273 0.11000754522153372 0.2592812487110648 0.4396517657534964 0.206266452673145 0.2817963806278504 0.4996991223412025 653:1.0 1012:1.0 3515:1.0 14030:-1.0 
0.0 0.0 0.0 0.0 0.0 0.0 0.0 0.004948054779220157 14:23.0 19:5.0 39:1.0 51:2.0 70:1.0 91:24.0 104:1.0 135:19.0 149:2.0 172:1.0 196:1.0 200:1.0 201:6.0 268:1.0 289:2.0 292:5.0 311:5.0 349:1.0 412:1.0 534:1.0 581:1.0 661:2.0 697:1.0 934:1.0 949:1.0 996:1.0 1077:2.0 1287:6.0 1564:3.0 1567:1.0 1622:6.0 1728:1.0 1771:56.0 1813:3.0 2033:1.0 2125:13.0 2135:1.0 3000:3.0 3119:1.0 3420:1.0 3655:2.0 4544:1.0 4672:3.0 6722:1.0 14030:-1.0 
0.0 0.0 0.0 0.010191547183858864 0.0 0.0 0.005250073289127558 0.036184198682065204 48:1.0 266:1.0 292:2.0 559:1.0 951:1.0 1979:6.0 2444:1.0 2864:1.0 14030:-1.0 
0.0026015225059853784 0.0 0.0 0.0 0.0 0.0 0.0 0.0 14:4.0 15:31.0 19:1.0 38:1.0 47:15.0 73:43.0 78:1.0 88:1.0 90:3.0 99:1.0 121:2.0 127:2.0 149:20.0 196:5.0 218:14.0 221:1.0 241:10.0 285:12.0 289:1.0 304:1.0 312:22.0 334:2.0 346:1.0 349:1.0 361:1.0 372:2.0 380:1.0 410:3.0 449:24.0 495:1.0 512:7.0 545:1.0 560:5.0 589:1.0 612:1.0 652:10.0 687:2.0 700:1.0 715:1.0 753:20.0 762:1.0 837:2.0 1116:4.0 1127:29.0 1219:6.0 1355:1.0 1651:1.0 1674:1.0 1732:2.0 1817:3.0 1984:1.0 2262:9.0 2501:12.0 2670:2.0 2798:13.0 3229:2.0 3370:3.0 4200:1.0 5099:1.0 5166:4.0 7041:1.0 8495:1.0 11307:1.0 12177:1.0 13508:1.0 14030:-1.0 
0.0 0.0 0.0 0.0 0.0 0.0 0.0 0.01494783603414139 5:7.0 8:8.0 43:2.0 54:4.0 70:3.0 71:1.0 99:1.0 104:1.0 164:7.0 167:1.0 186:2.0 214:1.0 261:2.0 292:2.0 349:3.0 372:1.0 404:1.0 412:1.0 556:3.0 581:2.0 633:1.0 644:8.0 670:1.0 707:1.0 831:2.0 884:1.0 1153:1.0 1309:3.0 1579:2.0 1802:1.0 3055:1.0 14030:-1.0 
0.077623940098302 0.0335570570191301 0.03940413353550048 0.07218940555197673 0.11375398652298085 0.07844765699638082 0.09114500734797128 0.12244630873737036 905:2.0 12802:2.0 14030:-1.0 
0.0 0.0 0.0 0.0011564882484903366 0.07105880430695448 0.0 0.0 0.0 19:1.0 22:1.0 25:1.0 38:8.0 47:2.0 48:7.0 79:8.0 90:1.0 121:1.0 162:1.0 289:1.0 298:1.0 312:1.0 410:1.0 424:2.0 481:1.0 558:1.0 789:3.0 798:3.0 810:1.0 837:1.0 1012:1.0 1116:1.0 3232:1.0 3908:2.0 4733:1.0 6075:1.0 7905:1.0 12824:1.0 14030:-1.0 
0.0 0.0 0.0 0.00254989289807913 0.0 0.0 0.0 0.009784501890589006 5:41.0 14:45.0 19:1.0 25:2.0 37:1.0 38:1.0 47:10.0 48:4.0 79:21.0 85:1.0 99:1.0 104:1.0 110:5.0 120:2.0 135:1.0 214:1.0 219:3.0 227:1.0 234:5.0 270:1.0 282:1.0 292:1.0 298:1.0 304:1.0 312:1.0 334:4.0 351:1.0 372:1.0 449:1.0 455:2.0 510:6.0 535:2.0 560:11.0 566:3.0 589:8.0 692:1.0 810:5.0 881:2.0 1116:20.0 1125:1.0 1143:1.0 1166:2.0 1238:1.0 1387:1.0 1480:5.0 1524:1.0 1622:4.0 1675:1.0 1802:1.0 2011:1.0 2262:1.0 2310:6.0 2622:3.0 2798:5.0 3597:8.0 3677:1.0 4731:1.0 5170:4.0 7572:3.0 10986:2.0 13771:3.0 13825:1.0 14030:-1.0 
0.030383414917625043 0.0 0.02383261663284909 0.01878749021919427 0.11979287330260885 0.0 0.023351577073745217 0.014845806549255776 51:1.0 135:1.0 164:1.0 358:2.0 501:2.0 559:3.0 689:2.0 1012:1.0 2922:2.0 4937:1.0 14030:-1.0 
0.057637184788181244 0.0 0.014549984278362696 0.006369285473719516 0.0 0.0 0.0498414062545418 0.03230123455773106 71:3.0 135:1.0 149:1.0 292:1.0 1125:1.0 2725:2.0 2961:1.0 14030:-1.0 
0.0 0.017486139090800535 0.0032318689372372177 0.0 0.0 0.051939834087363114 0.04510920453640288 0.013982204314146377 24:1.0 25:1.0 38:1.0 51:2.0 221:2.0 991:1.0 1012:1.0 2952:1.0 14030:-1.0 
0.0012198292975672907 0.0 0.0 0.0 0.0 0.0 0.00348339769986277 0.0 19:2.0 51:3.0 71:23.0 85:1.0 99:1.0 121:2.0 268:1.0 289:1.0 292:1.0 312:1.0 431:1.0 527:26.0 534:2.0 1289:1.0 1582:1.0 1733:2.0 1950:1.0 2262:14.0 14030:-1.0 
0.0 0.0 0.001035550580791413 0.0 0.006728646403617389 0.0 0.018779928827037714 0.0 10:2.0 14:5.0 19:2.0 38:1.0 51:11.0 71:1.0 85:2.0 87:1.0 120:7.0 121:20.0 151:1.0 208:1.0 214:4.0 292:6.0 300:1.0 311:3.0 343:1.0 493:4.0 534:9.0 612:1.0 670:8.0 715:6.0 877:6.0 2382:1.0 3122:1.0 4458:1.0 8141:1.0 8623:2.0 14030:-1.0 
0.0 0.0 0.0 0.0 0.010640950997826951 0.0 0.0 0.038565281423471154 14:1.0 43:5.0 51:4.0 135:2.0 149:1.0 151:5.0 164:1.0 214:5.0 292:13.0 682:1.0 1316:3.0 1568:2.0 2620:1.0 14030:-1.0 
0.24167488087607902 0.05286848932316005 0.045290421399432436 0.05585633545389741 0.49049144787950766 0.055140444925203765 0.14923522492964428 0.2725120395715421 79:2.0 188:1.0 221:1.0 389:1.0 560:1.0 14030:-1.0 
0.06325313113026461 0.009498580602386916 0.05357742792637897 0.14865216410620297 0.0781488286728254 0.0670722056143248 0.11128193973852996 0.09136823653239773 19:2.0 2952:1.0 3006:1.0 3055:1.0 13333:1.0 14030:-1.0 
0.0 0.0 0.0 0.0 1.0 0.0 9.967099464418493E-4 0.0 14:8.0 38:2.0 42:1.0 73:15.0 78:1.0 84:1.0 85:1.0 175:1.0 284:1.0 380:3.0 410:5.0 422:1.0 501:1.0 594:2.0 617:3.0 652:3.0 729:2.0 798:23.0 1010:1.0 1012:2.0 1486:17.0 1572:1.0 1675:2.0 2239:8.0 3218:1.0 3309:9.0 5940:7.0 6092:1.0 13627:1.0 14030:-1.0 
0.0 0.0 0.0 0.0 0.9460129718670921 0.0 0.0 0.0 14:1.0 38:3.0 56:1.0 73:4.0 78:1.0 79:18.0 88:1.0 135:3.0 183:2.0 201:1.0 304:8.0 349:1.0 389:11.0 560:20.0 581:1.0 652:2.0 690:1.0 715:1.0 1120:1.0 1263:3.0 1387:5.0 1533:12.0 1688:2.0 2239:4.0 2432:1.0 3232:3.0 4072:1.0 5940:1.0 14030:-1.0 
0.0 0.0 0.0 0.0 0.999132630954542 0.0 0.0 0.0 14:1.0 38:11.0 70:1.0 79:8.0 104:1.0 221:1.0 304:4.0 389:1.0 410:2.0 444:1.0 558:1.0 560:2.0 789:4.0 798:2.0 925:7.0 979:1.0 1012:2.0 1572:1.0 2149:3.0 2239:4.0 3309:1.0 10417:1.0 11307:1.0 14030:-1.0 
0.08869034910086752 0.04650117892959213 0.018924894609693932 0.07850156921004585 0.1613090626583177 0.08910588286625512 0.13693929609795255 0.2439889134152882 48:2.0 70:2.0 1771:2.0 1920:2.0 14030:-1.0 
0.007582743417398324 0.0 0.0 0.0030289954728572196 0.0 0.0 0.004325439406939345 0.0 5:1.0 8:1.0 15:1.0 24:1.0 47:1.0 49:1.0 54:1.0 85:1.0 91:25.0 135:5.0 166:1.0 201:18.0 220:4.0 309:3.0 312:1.0 325:1.0 334:3.0 343:1.0 349:4.0 372:1.0 495:4.0 563:1.0 595:1.0 616:1.0 703:3.0 798:1.0 846:1.0 1143:1.0 1345:1.0 1547:1.0 2395:19.0 2473:6.0 2582:2.0 2861:2.0 3000:5.0 4025:1.0 5287:2.0 7814:1.0 9312:1.0 10372:3.0 13694:1.0 14023:7.0 14030:-1.0 
0.0 0.003049851064775073 9.786225140931044E-4 0.0 0.9971081644677218 0.0 6.19062382847937E-4 0.005119313449661827 51:3.0 73:1.0 78:1.0 119:1.0 121:3.0 167:1.0 284:1.0 410:6.0 444:1.0 449:1.0 596:1.0 633:1.0 925:10.0 996:6.0 1231:3.0 1533:2.0 1990:2.0 2262:7.0 2501:1.0 2670:1.0 2806:2.0 3370:2.0 5485:20.0 12651:1.0 14030:-1.0 
0.002998981815825589 0.00809754398553018 1.5008569011853317E-4 0.00377915650185617 0.03701830406493871 6.785172702600404E-4 0.0 0.003497914954208665 78:1.0 210:1.0 596:1.0 849:1.0 925:5.0 1533:18.0 1564:2.0 1817:5.0 1990:2.0 1994:6.0 2501:1.0 2670:1.0 3338:7.0 4137:1.0 4224:8.0 5915:2.0 14030:-1.0 
0.1447406550795227 0.10888100803901987 0.08410979382093695 0.0877262639986345 0.29451751075834354 0.1065885197450028 0.13069906282876087 0.29804588050421976 14:1.0 15:1.0 24:1.0 84:1.0 311:2.0 512:2.0 2830:1.0 14030:-1.0 
0.04282374584488575 0.016833731175803838 0.015973192326071892 0.004518639794035241 0.0 0.0 0.22241944120752813 0.01930591911807499 8:1.0 14:1.0 15:4.0 24:1.0 33:1.0 48:1.0 84:1.0 197:1.0 581:1.0 591:2.0 906:3.0 1953:1.0 2175:1.0 14030:-1.0 
0.07620887422338442 0.009014432776261858 0.014480888434456501 0.045705928248678446 0.0 0.007384657082543648 0.024276548182849956 0.05291358653611513 14:2.0 84:1.0 534:1.0 535:5.0 681:3.0 14030:-1.0 
0.04093516907575452 0.0 0.008390873710962614 0.0076726257026454555 5.283646815360779E-4 0.012241397304565357 0.030392443316375476 0.0 21:3.0 24:1.0 159:4.0 179:1.0 207:1.0 233:1.0 581:1.0 589:1.0 702:1.0 732:1.0 769:1.0 914:1.0 1084:1.0 1097:1.0 1381:1.0 1484:2.0 1614:1.0 1770:1.0 2389:1.0 2654:1.0 4605:2.0 8084:1.0 14030:-1.0 
0.0 5.559556371871701E-4 0.0 0.0 0.0 0.001257426512155116 0.0 0.0 5:5.0 14:8.0 19:2.0 24:1.0 25:4.0 26:1.0 38:7.0 39:2.0 47:7.0 56:1.0 59:1.0 67:1.0 70:4.0 71:1.0 73:15.0 78:12.0 84:37.0 85:1.0 90:2.0 91:6.0 92:1.0 93:3.0 99:20.0 100:1.0 102:3.0 105:2.0 112:2.0 120:1.0 121:1.0 136:2.0 138:1.0 164:1.0 168:1.0 175:59.0 178:2.0 188:1.0 201:1.0 206:2.0 210:1.0 214:12.0 219:1.0 221:9.0 222:1.0 237:3.0 241:1.0 260:1.0 264:1.0 279:3.0 289:1.0 292:6.0 298:1.0 305:1.0 312:1.0 325:1.0 334:1.0 346:3.0 372:7.0 380:9.0 383:1.0 410:11.0 414:1.0 422:3.0 434:2.0 445:1.0 491:1.0 502:1.0 529:1.0 534:1.0 610:2.0 613:2.0 652:3.0 673:1.0 690:5.0 715:9.0 725:1.0 754:1.0 789:1.0 794:1.0 798:1.0 810:5.0 821:3.0 896:39.0 934:1.0 955:1.0 1041:4.0 1042:1.0 1050:1.0 1116:1.0 1143:4.0 1187:1.0 1211:7.0 1325:2.0 1385:1.0 1508:1.0 1545:1.0 1610:3.0 1651:3.0 1654:1.0 1675:1.0 1728:1.0 1731:2.0 1817:4.0 1858:3.0 1953:2.0 2083:1.0 2132:3.0 2156:1.0 2259:2.0 2485:1.0 2543:2.0 2920:2.0 3093:2.0 3229:2.0 3370:3.0 3446:2.0 3637:1.0 3894:1.0 4618:1.0 4772:20.0 4983:12.0 5220:1.0 5942:1.0 6345:1.0 8426:2.0 8623:1.0 14030:-1.0 
0.0 0.0 0.0 0.0 0.0 0.0 0.010039609016748507 0.0 3:1.0 5:1.0 14:8.0 22:2.0 24:3.0 26:2.0 33:1.0 38:4.0 39:1.0 43:1.0 46:1.0 47:6.0 51:1.0 71:1.0 79:1.0 91:3.0 99:2.0 104:1.0 121:2.0 151:1.0 167:1.0 175:1.0 197:2.0 200:1.0 214:2.0 241:1.0 246:4.0 286:1.0 292:5.0 304:1.0 312:1.0 315:1.0 346:1.0 400:1.0 412:1.0 444:3.0 501:1.0 535:9.0 563:1.0 566:1.0 616:1.0 624:1.0 715:2.0 762:1.0 969:1.0 1012:9.0 1035:7.0 1131:4.0 1183:1.0 1287:4.0 1337:1.0 1387:1.0 1389:1.0 1622:1.0 1674:1.0 1711:2.0 1731:3.0 1817:1.0 2036:1.0 2149:1.0 2444:3.0 3116:2.0 3821:1.0 4149:1.0 4781:1.0 8738:1.0 9910:1.0 14030:-1.0 
0.07073303324942827 0.056984471163588526 0.006649815566090152 0.0077272335282815505 0.12508493159874934 0.0 0.0 0.0 87:7.0 164:2.0 395:1.0 560:1.0 699:1.0 737:1.0 1116:1.0 1125:1.0 1143:1.0 1309:1.0 14030:-1.0 
0.4505433400207152 0.18932892118017533 0.13706793260811168 0.23573460794065929 0.3968403435738133 0.21158660057624654 0.3232614514467627 0.4696045698502867 335:1.0 1316:1.0 2115:1.0 14030:-1.0 
0.0 0.0033778773707663734 0.0 0.0 0.0 0.0 0.0 0.0 38:1.0 70:3.0 71:2.0 73:2.0 121:1.0 188:2.0 241:2.0 404:3.0 461:2.0 560:3.0 578:1.0 633:2.0 670:3.0 706:1.0 727:1.0 788:1.0 994:1.0 1057:1.0 1387:1.0 1688:1.0 2047:8.0 2093:1.0 2952:4.0 2999:8.0 3055:4.0 3076:4.0 3370:1.0 3915:2.0 14030:-1.0 
0.0 0.0 9.880336855244566E-5 0.0 0.0 0.0 0.0 0.0 5:5.0 14:2.0 15:1.0 51:1.0 70:4.0 71:3.0 85:1.0 87:1.0 164:2.0 218:4.0 252:1.0 292:1.0 299:2.0 312:1.0 325:1.0 404:7.0 412:2.0 448:1.0 496:2.0 501:1.0 502:1.0 548:1.0 559:1.0 633:1.0 682:1.0 697:10.0 727:5.0 752:1.0 963:2.0 1051:1.0 1125:4.0 1210:1.0 1219:2.0 1359:1.0 1374:3.0 1386:1.0 1435:2.0 1547:1.0 1574:2.0 1582:1.0 1639:1.0 1690:1.0 2338:1.0 2952:1.0 8623:3.0 10372:1.0 11724:1.0 12572:1.0 12844:1.0 13508:3.0 14030:-1.0 
0.0 0.011105829020940962 0.0 0.0 0.0034724335776191613 0.0 0.0 0.0 5:2.0 14:6.0 24:4.0 25:1.0 38:3.0 71:1.0 78:3.0 85:4.0 97:2.0 104:1.0 107:3.0 120:6.0 121:2.0 135:1.0 151:6.0 162:1.0 214:2.0 218:1.0 221:1.0 292:2.0 299:1.0 309:1.0 335:1.0 347:2.0 358:1.0 372:2.0 396:1.0 430:2.0 434:1.0 450:3.0 469:1.0 560:6.0 612:1.0 664:2.0 690:1.0 692:1.0 707:1.0 736:1.0 767:1.0 823:1.0 969:1.0 1050:1.0 1077:2.0 1116:12.0 1166:2.0 1285:6.0 1385:2.0 1468:2.0 1651:1.0 1720:1.0 1762:1.0 1915:4.0 2261:2.0 2473:2.0 2861:1.0 3169:3.0 3233:1.0 4957:1.0 7196:1.0 9667:1.0 14030:-1.0 
0.19326785108303604 0.1649160608011906 0.05536051965714918 0.07918225211162296 0.283869938736461 0.06595241135640054 0.1907777577532737 0.14951307176604325 38:1.0 71:1.0 120:1.0 292:1.0 495:1.0 1802:1.0 3656:1.0 14030:-1.0 
0.0 0.0 0.0 0.0 0.0045167164307961544 0.0 0.002351898413108349 0.002478848183030533 14:1.0 73:7.0 78:3.0 79:1.0 90:1.0 162:1.0 212:1.0 215:1.0 261:1.0 292:2.0 312:1.0 358:1.0 410:2.0 412:1.0 535:1.0 557:2.0 559:3.0 652:2.0 743:7.0 798:1.0 1047:2.0 1131:1.0 1289:6.0 1332:5.0 1486:6.0 1675:1.0 1802:1.0 1817:1.0 1994:1.0 2253:1.0 2444:3.0 3411:1.0 5860:1.0 14030:-1.0 
0.12757533237067156 0.13399168840620285 0.05900085591212261 0.01827463737183562 0.29297234385256854 0.08577728830019692 0.23446256186787456 0.37166913232254434 70:2.0 364:1.0 790:1.0 1008:1.0 1319:1.0 3551:1.0 12844:1.0 13333:1.0 14030:-1.0 
0.0 0.0 0.0 0.0010628706639635728 0.020478679992257973 0.0 0.0011786952021873858 0.0 5:3.0 14:19.0 15:2.0 24:3.0 33:2.0 38:2.0 78:1.0 100:1.0 104:1.0 105:1.0 164:6.0 214:1.0 252:1.0 292:2.0 311:9.0 343:1.0 347:1.0 444:1.0 545:3.0 558:2.0 560:8.0 770:1.0 789:1.0 837:1.0 926:11.0 1127:2.0 1143:1.0 1148:1.0 1166:1.0 1389:1.0 1485:8.0 1688:1.0 1733:1.0 1919:1.0 2110:1.0 2226:4.0 2341:1.0 2348:1.0 3620:1.0 6406:2.0 8657:3.0 14030:-1.0 
0.14283785626634804 0.08658625888197924 0.09268867770742943 0.06952569057530487 0.021873690540528838 0.08991394353655832 0.1030439730419162 0.26184045272747497 90:1.0 1374:1.0 1505:1.0 1979:1.0 2952:1.0 14030:-1.0 
0.0 0.0 0.0 0.0 0.0 0.0 4.360444553963639E-4 0.014021468397336074 14:1.0 19:1.0 38:1.0 292:2.0 311:1.0 410:1.0 501:1.0 798:1.0 996:3.0 1012:3.0 1485:2.0 1979:2.0 2115:1.0 2444:1.0 3908:1.0 14030:-1.0 
1.8694398871365843E-4 0.0030285555914968867 0.00171060123534652 0.0016223070552091915 0.002194875957147674 0.0 1.923441077436658E-4 0.012487099865270017 14:8.0 25:2.0 38:1.0 43:3.0 46:8.0 47:1.0 78:10.0 85:3.0 90:1.0 91:8.0 104:1.0 107:12.0 135:2.0 201:3.0 241:1.0 242:1.0 311:4.0 334:1.0 347:1.0 349:2.0 372:2.0 404:26.0 422:1.0 495:2.0 700:1.0 752:4.0 849:1.0 1012:1.0 1097:1.0 1135:1.0 1666:1.0 1731:1.0 2090:23.0 2259:2.0 3097:40.0 3262:8.0 3655:1.0 4672:1.0 7232:1.0 7244:1.0 11344:1.0 14030:-1.0 
0.025136810519308207 0.024816864549017353 0.01759315937342192 0.034759503775499155 0.060917708328761276 0.02359416790308953 0.037929686083597085 0.10827495068555841 215:1.0 286:1.0 311:2.0 504:1.0 670:2.0 697:1.0 840:1.0 1304:2.0 1368:1.0 1434:1.0 1562:1.0 2054:3.0 2152:1.0 14030:-1.0 
0.02233568779061676 0.0 0.0 0.011922587403150732 0.08577961652875994 0.0 0.10175636011892085 0.05499856931164889 5:3.0 47:4.0 48:2.0 51:1.0 121:1.0 214:1.0 293:2.0 335:1.0 364:1.0 502:1.0 678:1.0 754:2.0 959:1.0 1287:2.0 1485:1.0 1846:1.0 2344:2.0 4051:1.0 4453:1.0 8623:1.0 11638:1.0 12844:1.0 13728:1.0 14030:-1.0 
0.0 0.0 0.0 0.021618036239040076 0.0 0.0 0.0 0.0 14:3.0 24:1.0 51:1.0 85:1.0 121:2.0 137:1.0 289:1.0 292:7.0 389:1.0 394:2.0 581:1.0 715:12.0 1047:1.0 1088:5.0 1143:1.0 1316:3.0 1716:2.0 2208:1.0 8634:1.0 14030:-1.0 
0.001287566697646889 0.0 0.0 0.005748278516499993 0.018635754702625466 0.0 0.0 0.023274442239235835 24:1.0 38:9.0 48:1.0 70:8.0 73:1.0 78:21.0 85:1.0 91:1.0 121:1.0 175:7.0 201:1.0 210:5.0 229:4.0 289:1.0 346:1.0 349:3.0 416:1.0 501:1.0 558:1.0 617:26.0 798:3.0 849:2.0 877:1.0 934:2.0 951:2.0 991:1.0 1030:8.0 1171:4.0 1389:1.0 1564:4.0 1731:5.0 1821:1.0 2820:3.0 3516:1.0 4224:8.0 4604:6.0 5745:1.0 5915:13.0 6092:6.0 14030:-1.0 
0.09452965681008407 0.07983202507124855 0.07106909946792975 0.15391419354052538 0.11279672368717968 0.09248478820948373 0.09118989960482976 0.05151103344883018 389:1.0 1188:1.0 2952:1.0 3465:1.0 11738:1.0 14030:-1.0 
0.0 0.0 0.0 0.005351027920449871 0.0 0.0 0.004298576125723693 0.0 14:23.0 19:9.0 51:7.0 121:2.0 135:22.0 197:7.0 292:2.0 312:17.0 534:1.0 535:1.0 934:1.0 1163:2.0 1433:2.0 1567:5.0 2329:1.0 2348:1.0 2901:1.0 3000:1.0 3218:3.0 4189:1.0 4544:2.0 7814:1.0 14030:-1.0 
0.0 0.0052547400371750035 3.582341988599981E-5 0.0012920036290330306 0.0 0.0 0.003158633718092591 0.001394355475551193 38:2.0 47:5.0 243:1.0 346:1.0 364:2.0 410:2.0 512:1.0 560:1.0 563:1.0 581:1.0 590:8.0 743:1.0 789:1.0 969:1.0 1817:1.0 5915:2.0 6383:1.0 9277:3.0 12177:7.0 14030:-1.0 
0.0 0.0 0.0 0.0 0.0014601109173032923 0.0 0.0 0.0 14:11.0 38:3.0 46:1.0 48:1.0 51:1.0 73:4.0 85:1.0 135:1.0 211:3.0 241:2.0 284:1.0 361:6.0 372:1.0 410:3.0 444:2.0 512:15.0 535:1.0 560:5.0 581:1.0 589:2.0 590:10.0 715:1.0 753:1.0 837:1.0 849:2.0 926:6.0 1010:1.0 1166:1.0 1536:1.0 1817:6.0 2501:1.0 2966:2.0 6383:1.0 11714:1.0 14030:-1.0 
-0.0 0.0 0.0 0.0 0.0 0.005604291764565748 0.052854459951257836 0.0 15:2.0 24:7.0 43:1.0 51:1.0 104:1.0 149:6.0 164:1.0 178:1.0 201:1.0 218:4.0 285:3.0 309:1.0 589:2.0 753:1.0 834:1.0 1462:1.0 1590:2.0 14030:-1.0 
-0.0 0.001904794010367872 0.0 0.003663695055412454 0.0030679135227808883 3.7475142932062483E-4 0.0 0.005712377277777027 5:3.0 14:1.0 24:2.0 26:2.0 38:1.0 43:1.0 46:8.0 48:8.0 66:2.0 70:8.0 71:6.0 73:2.0 78:5.0 85:2.0 112:5.0 135:2.0 149:2.0 151:2.0 214:8.0 241:2.0 274:1.0 292:1.0 298:2.0 335:2.0 347:2.0 364:2.0 436:5.0 448:4.0 449:3.0 469:3.0 486:2.0 496:4.0 527:1.0 557:1.0 563:2.0 589:6.0 592:1.0 593:1.0 629:1.0 633:1.0 645:1.0 652:2.0 670:1.0 684:1.0 699:1.0 706:3.0 707:1.0 715:1.0 730:1.0 787:1.0 790:3.0 823:1.0 859:5.0 883:1.0 896:1.0 917:1.0 922:1.0 925:4.0 949:3.0 953:1.0 968:1.0 1002:1.0 1008:2.0 1073:1.0 1085:4.0 1095:10.0 1131:1.0 1155:2.0 1183:8.0 1281:3.0 1287:1.0 1422:1.0 1452:7.0 1463:1.0 1574:1.0 1741:3.0 1750:14.0 1754:4.0 1778:1.0 1867:2.0 2038:1.0 2223:1.0 2259:4.0 2614:5.0 2752:1.0 2946:1.0 3093:1.0 3171:1.0 3203:4.0 3507:1.0 3576:1.0 3894:1.0 3961:1.0 4189:1.0 5158:1.0 5304:2.0 5915:5.0 7095:2.0 14030:-1.0 
-0.003561876335529184 0.0 0.0 0.008017748750053497 0.009873480271417115 0.0 0.01147600327657989 0.0017409005009929972 13:1.0 14:2.0 19:2.0 25:1.0 33:4.0 43:2.0 46:4.0 48:1.0 84:2.0 85:2.0 87:1.0 88:1.0 90:3.0 91:8.0 99:3.0 105:2.0 118:1.0 121:2.0 135:5.0 149:4.0 161:1.0 189:1.0 197:1.0 200:1.0 201:1.0 228:1.0 241:1.0 246:2.0 284:2.0 292:2.0 293:2.0 298:1.0 304:2.0 358:1.0 372:4.0 395:4.0 412:1.0 452:1.0 491:3.0 535:1.0 566:5.0 598:3.0 689:2.0 690:3.0 699:7.0 734:1.0 794:1.0 798:9.0 897:1.0 909:1.0 969:1.0 1085:1.0 1117:1.0 1143:2.0 1183:1.0 1211:2.0 1215:1.0 1266:1.0 1337:1.0 1387:2.0 1688:1.0 1827:1.0 1923:1.0 2036:1.0 2110:1.0 2125:1.0 2196:1.0 2712:1.0 2997:1.0 3205:3.0 3402:5.0 3538:1.0 3827:1.0 4039:1.0 4072:1.0 4125:1.0 4658:2.0 5630:1.0 8915:1.0 12304:1.0 12636:1.0 14030:-1.0 
-0.021509974490721877 0.025773985925677954 0.0 0.04045891805121731 0.0 0.001258324807854291 0.0013422724203309916 0.0 10:2.0 14:2.0 22:1.0 25:2.0 26:2.0 38:1.0 43:1.0 47:15.0 70:5.0 78:2.0 105:1.0 121:1.0 149:2.0 189:1.0 210:1.0 246:1.0 284:3.0 335:3.0 395:1.0 455:1.0 483:2.0 488:1.0 490:1.0 526:1.0 592:10.0 678:1.0 722:1.0 730:1.0 766:1.0 790:3.0 853:1.0 926:1.0 950:2.0 1054:2.0 1356:1.0 1833:1.0 1950:1.0 2348:1.0 2614:1.0 3894:1.0 3961:1.0 4981:1.0 9389:1.0 14030:-1.0 
-0.0 0.0019889978767605567 0.0 0.0 0.003614721248916109 0.0 0.0 0.0 15:7.0 19:1.0 38:1.0 90:2.0 99:2.0 110:2.0 127:1.0 214:7.0 270:6.0 285:1.0 347:10.0 449:11.0 537:1.0 556:1.0 566:1.0 639:1.0 690:6.0 737:1.0 753:6.0 767:1.0 897:1.0 1295:2.0 1553:1.0 1651:1.0 2450:1.0 3255:3.0 14030:-1.0 
-0.025947475821403217 0.0 0.005277136700092474 0.0022812524683311192 0.0 0.0 0.018517668802547415 0.010294517020768449 15:3.0 104:12.0 149:3.0 241:4.0 292:3.0 335:6.0 527:3.0 753:7.0 834:2.0 972:6.0 1462:2.0 2057:1.0 2572:3.0 8623:2.0 14030:-1.0 
-0.021718944710329563 0.02075710647848223 0.0024721960608339783 0.02693825165082482 0.0 0.0034000612886354938 0.028193449516000068 0.10218430818297398 24:1.0 59:1.0 159:1.0 322:1.0 325:3.0 328:2.0 349:3.0 437:1.0 647:1.0 726:1.0 806:1.0 887:1.0 1135:1.0 1261:1.0 1293:1.0 1654:1.0 1791:1.0 1903:1.0 2828:1.0 3735:1.0 4288:1.0 14030:-1.0 
-0.0033399166975999614 0.0 0.0014081946828220467 0.0 0.0 0.0 0.0 0.0 15:10.0 24:1.0 37:3.0 38:1.0 46:3.0 47:44.0 48:1.0 54:1.0 59:1.0 70:1.0 71:8.0 79:1.0 82:2.0 84:2.0 85:1.0 87:1.0 91:2.0 110:3.0 172:1.0 214:2.0 221:1.0 282:4.0 285:18.0 299:3.0 317:2.0 321:1.0 335:1.0 346:1.0 372:4.0 392:1.0 396:1.0 407:2.0 449:2.0 455:1.0 469:1.0 496:1.0 589:4.0 612:15.0 669:1.0 692:3.0 730:1.0 753:4.0 810:1.0 837:2.0 905:1.0 969:1.0 1041:1.0 1143:1.0 1252:1.0 1452:2.0 1601:1.0 1641:1.0 1651:1.0 1823:1.0 2200:4.0 2234:1.0 2438:1.0 2875:1.0 3055:1.0 3163:1.0 3279:1.0 4200:1.0 4248:1.0 4313:1.0 4447:1.0 4873:1.0 5018:1.0 5166:2.0 5962:1.0 8709:1.0 9902:1.0 11469:2.0 12061:2.0 12572:2.0 14030:-1.0 
-0.008516056575172095 0.0 0.0020244678942894375 0.004573061206813985 0.0015386328635401618 0.0 0.0 0.0 14:6.0 24:1.0 26:1.0 38:1.0 46:5.0 135:10.0 137:4.0 149:6.0 184:1.0 191:1.0 218:3.0 261:2.0 292:1.0 298:2.0 304:1.0 335:4.0 349:1.0 491:1.0 502:6.0 534:1.0 535:9.0 545:2.0 592:2.0 652:1.0 670:1.0 863:2.0 1065:3.0 1069:2.0 1096:2.0 1310:1.0 1389:2.0 1571:2.0 2666:9.0 2688:13.0 3822:5.0 13173:1.0 13281:4.0 14030:-1.0 
-0.0 0.01119019761068926 0.0 0.0025281007370239143 0.01191780810577245 0.0 0.0 0.013546993591700049 5:1.0 14:3.0 18:1.0 33:2.0 38:2.0 39:1.0 46:2.0 47:1.0 78:4.0 90:3.0 120:1.0 178:3.0 183:2.0 196:6.0 214:1.0 246:1.0 261:1.0 293:2.0 298:3.0 346:1.0 372:1.0 410:2.0 455:1.0 459:1.0 491:20.0 495:2.0 545:11.0 670:1.0 729:1.0 770:1.0 790:11.0 798:3.0 804:1.0 824:3.0 863:19.0 870:1.0 883:4.0 897:1.0 922:4.0 951:4.0 994:1.0 1008:13.0 1069:1.0 1237:1.0 1452:2.0 1675:2.0 1731:1.0 1821:1.0 2244:1.0 2590:2.0 2604:2.0 2614:2.0 2634:1.0 3085:2.0 3125:1.0 3334:1.0 3480:1.0 3713:1.0 4021:2.0 8230:1.0 8623:11.0 9389:4.0 10166:1.0 11494:1.0 13281:1.0 14030:-1.0 
-0.014711517125020402 0.029617393509451317 0.029355420634431733 0.03780139067892679 0.03344280668538111 0.028750006448252343 0.031161830916750868 0.018636269351863625 24:3.0 33:1.0 78:1.0 149:1.0 178:1.0 372:3.0 449:3.0 491:3.0 734:1.0 762:1.0 870:1.0 1452:4.0 3542:1.0 5476:1.0 6137:1.0 14030:-1.0 
-0.0 0.022345618130222948 0.019362716585659096 0.001836635142989208 0.023085384488493586 0.002614097117507562 0.0015255241298936615 0.0018490175445055946 5:3.0 14:4.0 24:4.0 51:2.0 87:8.0 120:2.0 135:1.0 164:4.0 188:1.0 197:1.0 311:1.0 347:1.0 434:4.0 560:1.0 596:1.0 664:2.0 754:2.0 1211:1.0 1488:1.0 1856:1.0 2181:5.0 2338:3.0 2400:1.0 2438:1.0 2720:1.0 3446:1.0 4145:4.0 4448:1.0 14030:-1.0 
-0.0 0.04015364332910259 0.0 0.02687676187522092 0.04542541276628536 0.0 0.027682995331553033 0.01794848557602201 25:1.0 47:5.0 73:3.0 91:2.0 121:3.0 175:1.0 372:1.0 491:16.0 558:1.0 715:9.0 789:3.0 810:2.0 812:1.0 934:1.0 962:1.0 1241:1.0 1770:1.0 1867:2.0 4072:1.0 14030:-1.0 
-0.0 0.005829369936403075 0.0 0.0 0.009862387762326522 0.0 0.0 0.009600989291309607 15:4.0 39:2.0 54:6.0 85:1.0 87:3.0 127:1.0 149:1.0 164:2.0 214:1.0 218:8.0 241:1.0 285:4.0 317:2.0 361:4.0 372:4.0 410:1.0 535:1.0 673:1.0 703:1.0 730:1.0 734:2.0 736:4.0 821:1.0 979:1.0 1389:2.0 14030:-1.0 
-0.0 0.0 0.0 0.003631980533798669 0.004185645949463754 0.0 0.0 0.0 14:11.0 19:3.0 26:4.0 33:7.0 38:5.0 47:2.0 48:1.0 78:10.0 79:1.0 85:1.0 88:2.0 121:4.0 149:5.0 164:1.0 175:1.0 196:2.0 214:1.0 218:5.0 221:1.0 240:1.0 241:1.0 246:1.0 293:3.0 298:7.0 311:1.0 346:1.0 349:4.0 364:1.0 382:1.0 396:1.0 400:1.0 410:2.0 491:11.0 501:2.0 534:1.0 545:4.0 558:2.0 592:3.0 652:5.0 666:1.0 670:3.0 699:3.0 752:2.0 770:1.0 798:1.0 849:1.0 863:19.0 870:3.0 896:1.0 934:4.0 951:1.0 994:1.0 1002:3.0 1012:3.0 1156:2.0 1279:1.0 1281:1.0 1452:2.0 1522:1.0 1547:14.0 1564:1.0 1572:2.0 1675:3.0 1699:1.0 1789:1.0 1869:7.0 2200:1.0 2561:1.0 2614:9.0 2634:1.0 2687:6.0 2732:1.0 2814:1.0 3313:1.0 4224:1.0 4313:1.0 4504:1.0 4754:2.0 7175:4.0 9389:1.0 12844:4.0 13508:1.0 14030:-1.0 
-0.024221829745341397 0.008206942286364292 4.4770055778854857E-4 0.02155727092731783 0.014844197145175748 8.69073815063257E-4 0.0 0.009682884897459627 5:1.0 14:1.0 43:2.0 84:1.0 112:1.0 120:1.0 135:3.0 164:3.0 452:2.0 504:1.0 823:4.0 859:2.0 870:2.0 878:1.0 1065:2.0 1125:1.0 1136:8.0 1275:1.0 1287:1.0 1374:1.0 1522:1.0 1790:1.0 1866:2.0 2065:2.0 2522:1.0 2830:3.0 3093:2.0 3166:1.0 3260:2.0 4453:1.0 5288:1.0 6449:2.0 8996:2.0 13173:2.0 13508:2.0 14030:-1.0 
-0.010332433489709919 0.0013438252602597737 0.0 0.0 0.016751534434217008 4.8536028687701574E-4 0.011713326628914339 0.0013706470357221223 5:6.0 14:13.0 47:5.0 48:5.0 54:2.0 73:5.0 78:2.0 79:1.0 84:2.0 120:1.0 121:1.0 135:1.0 197:1.0 201:1.0 241:2.0 289:1.0 299:1.0 312:16.0 347:1.0 349:1.0 381:2.0 392:1.0 410:13.0 449:1.0 450:1.0 502:1.0 512:1.0 547:1.0 581:2.0 596:6.0 612:3.0 837:2.0 925:1.0 1127:12.0 1359:1.0 1389:1.0 1675:4.0 1716:1.0 1860:1.0 1984:4.0 2101:1.0 2501:4.0 2798:1.0 2855:1.0 3232:2.0 3370:1.0 3951:1.0 4272:1.0 4710:1.0 5027:1.0 5329:1.0 5640:3.0 7628:1.0 14030:-1.0 
-0.019806560661282356 0.007104287839146574 0.0 0.005278075230758712 0.01800654573197266 0.0013834313663937516 0.012173103755631067 0.0 14:2.0 48:2.0 84:1.0 91:1.0 135:3.0 164:7.0 167:1.0 268:2.0 312:1.0 412:1.0 592:2.0 753:5.0 781:1.0 863:1.0 870:1.0 949:3.0 1125:3.0 1148:1.0 1156:1.0 1310:2.0 1517:1.0 1547:1.0 1953:1.0 2271:5.0 2559:1.0 3961:2.0 5787:1.0 13508:1.0 14030:-1.0 
-0.01102431003684903 0.008127891416364422 2.5137454618739084E-5 0.005562536399227455 0.00936439645299594 0.0038794451256595752 0.016873269734192016 0.007690529655008206 18:1.0 19:2.0 214:1.0 246:1.0 349:1.0 410:4.0 682:9.0 863:5.0 1065:4.0 1069:4.0 1073:9.0 1571:4.0 1750:2.0 4209:1.0 5014:1.0 9389:2.0 12844:14.0 14030:-1.0 
-0.049615312687594317 0.013944216403292051 0.007693928070297245 0.03219871675554411 0.020864808951676618 0.01117577271496809 0.013649654115371532 0.026998768607620762 164:1.0 491:1.0 514:2.0 535:5.0 994:1.0 4796:3.0 14030:-1.0 
-0.0 0.001174968888753238 0.0 0.010824028074977749 0.0044152562351724425 0.0 0.0 0.02554878849791961 372:1.0 883:1.0 994:3.0 1008:2.0 1143:1.0 1452:1.0 2614:8.0 9389:3.0 14030:-1.0 
-0.008039502778829392 0.0 0.0 0.011618322157252454 0.009396490107828023 0.009037665994131944 0.011663473309189317 0.06375773835579089 5:3.0 19:1.0 25:1.0 46:3.0 87:2.0 115:1.0 121:1.0 151:1.0 214:9.0 243:4.0 493:1.0 545:1.0 615:2.0 682:1.0 889:1.0 1143:1.0 1951:1.0 2102:1.0 2209:2.0 2861:1.0 5213:1.0 14030:-1.0 
-0.0 0.004407182722535503 0.0 0.0 0.029664533690277398 0.0 0.0 0.006149879571578613 24:1.0 42:1.0 240:1.0 312:3.0 349:3.0 449:1.0 883:2.0 988:1.0 1008:4.0 1452:2.0 2065:1.0 2614:9.0 13281:4.0 14030:-1.0 
-0.0 0.0 8.120926546084934E-4 0.0035213607642603966 0.0 7.493500390894843E-5 0.0 0.0029362291843100493 5:1.0 19:5.0 26:3.0 99:5.0 120:1.0 121:2.0 184:1.0 196:13.0 206:1.0 229:12.0 312:4.0 343:2.0 372:1.0 412:1.0 454:1.0 491:9.0 535:6.0 545:8.0 592:3.0 699:1.0 706:2.0 715:1.0 790:2.0 791:4.0 905:1.0 934:1.0 1030:5.0 1171:3.0 1440:2.0 1623:1.0 1690:2.0 1731:1.0 1904:1.0 2140:3.0 2604:1.0 2634:1.0 2728:2.0 3522:14.0 3737:3.0 3961:1.0 4525:2.0 5915:1.0 7664:1.0 8396:1.0 8623:1.0 14030:-1.0 
-0.0690243631135609 0.11131452143793928 0.06427372114515285 0.056219513935954084 0.11783231811635883 0.01335431685020648 0.06802091290602359 0.19670741872022335 43:1.0 78:3.0 85:1.0 149:1.0 285:2.0 349:1.0 4382:1.0 4784:1.0 5754:1.0 8437:1.0 12486:2.0 14030:-1.0 
-0.0 0.018098412045396264 0.006097666129035647 0.01747624545793244 0.025193120727187032 0.0 0.009859205955440532 0.02259798057446065 240:1.0 404:1.0 448:1.0 567:2.0 661:2.0 670:8.0 790:2.0 883:2.0 1008:4.0 1035:2.0 1085:3.0 1287:2.0 1378:2.0 1486:1.0 1754:3.0 1920:3.0 1939:1.0 2429:3.0 2614:9.0 3860:1.0 5888:1.0 5927:1.0 6373:1.0 8200:1.0 13048:5.0 14030:-1.0 
-0.031705367677040415 0.0031682874949709164 0.0 0.002387124191261664 0.0 0.0 0.0 0.031039900696894874 5:2.0 47:4.0 73:1.0 164:1.0 212:1.0 214:1.0 234:2.0 361:1.0 372:1.0 381:3.0 389:1.0 1127:1.0 1143:1.0 1238:1.0 1675:1.0 4926:2.0 8468:1.0 14030:-1.0 
-0.003429293388736517 0.0060494977127223395 0.008130720695829914 0.005254186759626969 0.017068503668316127 0.005257400092864157 0.021956730330620285 0.025121432409348256 24:3.0 48:1.0 70:1.0 78:1.0 87:1.0 135:2.0 176:1.0 215:1.0 218:2.0 241:1.0 312:1.0 325:3.0 412:2.0 449:4.0 459:1.0 563:1.0 582:1.0 652:1.0 670:2.0 688:1.0 869:1.0 883:3.0 1008:5.0 1281:5.0 1359:1.0 1486:3.0 1503:1.0 2614:8.0 2830:1.0 3284:1.0 3457:1.0 7177:2.0 7942:1.0 12572:3.0 13508:3.0 13563:1.0 14030:-1.0 
-0.0 0.03552498200365753 0.0 0.06021184112748589 0.02325663829774963 0.003397134536887507 0.0661614974088801 0.035095524418794696 3:1.0 5:1.0 19:1.0 23:1.0 26:1.0 73:1.0 91:1.0 99:1.0 112:1.0 149:1.0 178:1.0 240:1.0 261:1.0 278:1.0 298:1.0 312:5.0 328:1.0 491:4.0 545:1.0 645:1.0 652:4.0 670:3.0 762:1.0 790:1.0 812:1.0 1123:1.0 1366:1.0 1412:1.0 1690:1.0 2116:1.0 2122:1.0 2205:2.0 2259:1.0 2655:1.0 5029:1.0 5301:1.0 14030:-1.0 
-0.0 0.0 0.0 0.0 0.0 0.0018796274993378795 0.0 0.0 14:7.0 19:2.0 24:10.0 33:1.0 38:5.0 43:9.0 46:1.0 47:11.0 48:4.0 60:1.0 73:2.0 78:11.0 90:1.0 105:4.0 120:6.0 127:2.0 135:18.0 136:1.0 164:4.0 175:1.0 197:4.0 201:3.0 208:1.0 215:2.0 234:1.0 241:1.0 266:13.0 286:1.0 330:1.0 334:2.0 343:1.0 347:1.0 396:5.0 455:1.0 495:1.0 535:7.0 541:23.0 567:1.0 626:1.0 670:3.0 689:1.0 729:1.0 745:2.0 767:2.0 768:1.0 864:1.0 883:1.0 928:1.0 961:2.0 1008:1.0 1012:2.0 1389:1.0 1459:1.0 1486:1.0 1547:6.0 1666:1.0 1673:10.0 1834:1.0 1869:1.0 2650:1.0 2688:2.0 2928:1.0 3000:1.0 3311:6.0 3474:2.0 3969:1.0 4589:1.0 5248:4.0 6631:1.0 7195:1.0 8084:6.0 9270:2.0 10832:1.0 12361:6.0 14030:-1.0 
-9.070473857741415E-4 0.0 0.0 0.0 0.0 0.0 0.0 0.0030701079114698994 5:4.0 14:8.0 15:3.0 19:2.0 26:2.0 33:3.0 42:1.0 46:4.0 47:2.0 48:1.0 64:1.0 78:1.0 85:2.0 87:5.0 88:1.0 90:1.0 91:4.0 99:4.0 104:1.0 110:3.0 112:1.0 135:6.0 137:2.0 149:7.0 164:11.0 175:1.0 196:2.0 197:2.0 201:1.0 241:1.0 246:1.0 298:2.0 312:3.0 325:9.0 334:2.0 335:2.0 349:3.0 366:3.0 372:1.0 395:1.0 412:2.0 490:6.0 491:1.0 534:2.0 535:8.0 566:3.0 682:3.0 689:2.0 743:2.0 770:1.0 798:1.0 863:1.0 870:1.0 883:1.0 951:1.0 969:2.0 1010:1.0 1012:3.0 1041:1.0 1142:1.0 1156:2.0 1284:3.0 1287:2.0 1289:2.0 1458:1.0 1480:1.0 1547:1.0 1639:3.0 1646:2.0 1919:3.0 2074:2.0 2125:1.0 2154:3.0 2175:1.0 2261:2.0 2400:2.0 2560:2.0 2788:1.0 3937:2.0 4116:1.0 4568:2.0 8623:2.0 9389:7.0 12844:2.0 13173:1.0 13174:10.0 13281:3.0 13416:1.0 13902:1.0 14030:-1.0 
-0.0 0.002741232158613616 0.0 0.0 0.0 0.0 0.0 0.0 5:3.0 13:1.0 15:11.0 24:2.0 25:2.0 37:9.0 39:1.0 46:1.0 47:15.0 49:1.0 54:5.0 84:2.0 85:2.0 91:1.0 93:2.0 99:1.0 102:1.0 104:2.0 105:1.0 110:4.0 149:6.0 151:1.0 162:1.0 166:1.0 200:1.0 214:3.0 215:1.0 233:1.0 292:2.0 299:9.0 317:2.0 347:1.0 349:1.0 360:3.0 361:1.0 372:6.0 392:1.0 414:1.0 514:3.0 535:1.0 545:1.0 612:3.0 632:9.0 669:4.0 692:9.0 707:3.0 730:3.0 736:5.0 737:4.0 744:1.0 753:1.0 767:1.0 806:1.0 810:1.0 849:2.0 895:2.0 978:1.0 1135:1.0 1143:4.0 1152:1.0 1285:1.0 1389:1.0 1391:2.0 2065:3.0 2236:1.0 2276:3.0 2323:6.0 2470:1.0 2512:2.0 2616:1.0 2947:3.0 2970:1.0 4191:1.0 4393:2.0 4581:1.0 4647:3.0 4816:5.0 5049:1.0 8718:1.0 13446:1.0 13734:2.0 14030:-1.0 
-0.061614541932469825 0.0 0.0 0.012786819217929594 0.008185709636215661 8.30178759933216E-4 0.012277907800535424 0.011749235552192962 15:2.0 71:8.0 79:2.0 87:4.0 188:1.0 200:1.0 210:3.0 214:2.0 218:2.0 292:1.0 311:2.0 364:1.0 412:1.0 490:1.0 496:1.0 535:1.0 559:4.0 753:2.0 767:1.0 1415:1.0 1422:1.0 1462:1.0 2245:1.0 2543:1.0 2922:2.0 3055:2.0 4145:2.0 5334:4.0 10176:3.0 14030:-1.0 
-0.043149812430532744 0.006114211455310316 0.012454494718662515 0.007688761824622721 0.00547442763453024 0.0 0.0013140507846748823 0.011897848090387256 5:3.0 14:4.0 87:2.0 91:1.0 99:1.0 104:1.0 135:2.0 151:1.0 164:7.0 197:1.0 241:1.0 292:3.0 329:1.0 353:1.0 396:2.0 422:1.0 434:1.0 452:1.0 689:2.0 736:1.0 1095:2.0 1125:4.0 1166:2.0 1211:2.0 1287:4.0 1316:9.0 1639:1.0 1641:1.0 1731:1.0 1856:2.0 2181:4.0 2338:5.0 2438:4.0 2602:1.0 2720:1.0 2922:1.0 4019:1.0 4448:2.0 5609:1.0 10447:2.0 14030:-1.0 
-0.0 0.0 0.0 0.039200311211846806 0.0189403412783054 0.039081248034166426 0.014966670329798754 0.0660480894136632 46:4.0 90:1.0 95:2.0 105:1.0 183:1.0 187:2.0 214:1.0 275:1.0 488:1.0 587:2.0 1070:1.0 1629:1.0 1993:2.0 3107:1.0 9109:1.0 14030:-1.0 
-0.0014761996912197406 0.0011536955177654325 0.0011810665698515246 0.001511520849697426 0.0015796776829623254 0.0 7.369132362488437E-4 0.0026576496685229217 5:30.0 14:6.0 37:23.0 38:21.0 47:6.0 48:1.0 51:3.0 54:1.0 73:3.0 85:5.0 99:4.0 102:1.0 104:1.0 120:4.0 121:1.0 149:5.0 201:2.0 210:10.0 279:1.0 285:8.0 292:1.0 299:31.0 312:5.0 328:2.0 349:1.0 371:2.0 372:1.0 392:1.0 444:7.0 449:26.0 490:5.0 496:1.0 535:2.0 589:1.0 652:3.0 730:6.0 737:1.0 789:2.0 798:1.0 895:1.0 1012:4.0 1077:2.0 1116:5.0 1127:1.0 1359:1.0 1389:1.0 1485:5.0 1486:4.0 1801:5.0 1802:1.0 1817:3.0 1965:1.0 2239:1.0 2311:1.0 2501:4.0 2512:1.0 2525:1.0 2728:4.0 2853:1.0 3947:1.0 4212:3.0 4240:1.0 4976:2.0 6130:5.0 6409:1.0 12717:1.0 13771:1.0 14030:-1.0 
-0.0 0.0021351192175382834 1.907732142678627E-4 0.004416125615515237 0.004567610586537723 0.0 0.0010698251021955742 3.4902734933036673E-4 26:1.0 71:1.0 85:3.0 210:2.0 233:1.0 241:1.0 311:1.0 312:3.0 328:1.0 412:2.0 563:1.0 566:1.0 652:1.0 666:1.0 706:2.0 707:2.0 734:1.0 841:1.0 859:1.0 883:34.0 922:2.0 925:3.0 1008:3.0 1010:1.0 1060:1.0 1065:1.0 1125:1.0 1142:1.0 1279:1.0 1486:1.0 1530:1.0 1533:1.0 1666:1.0 1750:1.0 1867:3.0 1920:1.0 2026:1.0 2036:1.0 2044:2.0 2134:1.0 2322:1.0 2620:2.0 3203:2.0 3288:1.0 3991:1.0 5057:2.0 5312:1.0 5544:8.0 5665:1.0 5915:1.0 6137:1.0 8623:1.0 9696:1.0 10152:1.0 10670:31.0 11845:3.0 13281:1.0 13333:2.0 13737:11.0 14030:-1.0 
-0.0 0.018546640550682808 0.0033067691599345046 0.0 0.011130760150804123 0.0 0.0 0.033630377056915566 26:5.0 42:1.0 43:1.0 149:3.0 298:1.0 349:1.0 407:2.0 449:1.0 491:4.0 563:1.0 652:5.0 699:1.0 790:1.0 883:1.0 922:6.0 1008:2.0 1069:3.0 1452:1.0 1486:3.0 2044:2.0 2322:3.0 4235:1.0 14030:-1.0 
-0.0 2.614777894922119E-4 0.004934380366027997 0.0 0.009307345498366123 0.0 0.02204411784632569 0.007199970807163748 15:1.0 47:3.0 51:2.0 196:6.0 201:6.0 241:4.0 246:3.0 491:1.0 545:1.0 670:5.0 790:1.0 883:1.0 922:2.0 936:1.0 959:3.0 1008:9.0 1085:2.0 1131:8.0 1215:1.0 1260:3.0 1669:8.0 1674:1.0 1906:7.0 1920:6.0 2245:1.0 2887:1.0 3285:1.0 5014:1.0 5915:2.0 11257:1.0 13728:3.0 14030:-1.0 
-0.013595688108802911 0.001957929135445674 0.008064468208557241 0.0033710441004715817 0.015613137455491461 0.0 0.00995667184964649 0.015091947367469462 5:6.0 15:2.0 38:17.0 47:12.0 73:3.0 84:1.0 85:1.0 87:1.0 104:2.0 149:2.0 197:3.0 214:1.0 241:2.0 285:4.0 328:1.0 364:1.0 372:1.0 444:7.0 535:2.0 541:1.0 548:2.0 612:1.0 652:2.0 925:5.0 978:7.0 1486:2.0 1674:1.0 1794:1.0 1817:4.0 2239:2.0 2501:4.0 2511:3.0 2674:1.0 2798:1.0 3025:1.0 3229:1.0 3232:4.0 3321:1.0 3947:1.0 4298:3.0 5317:8.0 12718:1.0 14030:-1.0 
-0.0 0.0 0.002090225827075353 0.0 0.0 0.0 0.0 0.0 13:1.0 15:1.0 19:2.0 46:1.0 149:2.0 161:1.0 285:1.0 313:1.0 316:2.0 488:1.0 552:3.0 556:2.0 669:2.0 737:1.0 748:5.0 942:3.0 1447:1.0 1533:1.0 4191:2.0 4296:1.0 5274:3.0 14030:-1.0 
-0.0037335056399448925 0.0 0.012362216345010448 0.00447709082724094 0.006201977462329597 0.0035841716062073 0.005856094658406598 0.0033409386569181305 24:3.0 43:1.0 46:2.0 78:1.0 149:2.0 241:1.0 410:1.0 481:1.0 591:2.0 669:1.0 686:1.0 754:1.0 949:3.0 968:1.0 1041:1.0 1156:1.0 1284:5.0 1374:3.0 2125:1.0 2488:1.0 2648:2.0 14030:-1.0 
-1.0 0.5529951436427815 0.7352983245320311 0.8248436128132658 1.0 0.6540312786233348 1.0 1.0 212:1.0 14030:-1.0 
-0.008118785951104046 0.0 0.0 0.0 9.754631404964376E-6 2.7185528058084318E-5 0.0 0.0 66:1.0 85:1.0 105:1.0 130:1.0 167:1.0 200:1.0 214:13.0 226:6.0 241:2.0 284:1.0 286:1.0 298:1.0 303:1.0 527:2.0 707:3.0 730:3.0 912:2.0 991:3.0 1005:1.0 1135:1.0 1199:1.0 1501:2.0 1632:3.0 1736:1.0 4288:1.0 14030:-1.0 
-0.0 0.0 0.0 0.003702715727883329 0.009156917707229326 0.0 0.0 0.0 5:1.0 87:1.0 164:4.0 210:2.0 215:1.0 218:7.0 241:1.0 261:1.0 293:1.0 328:1.0 449:1.0 535:1.0 563:1.0 652:1.0 670:4.0 688:1.0 790:2.0 834:1.0 838:2.0 883:4.0 1008:6.0 1125:1.0 1219:1.0 1281:5.0 1359:1.0 1408:6.0 1486:2.0 1503:2.0 1731:1.0 1768:4.0 2614:19.0 3093:3.0 3166:1.0 3334:3.0 4453:3.0 8623:2.0 9119:1.0 10671:1.0 11906:1.0 12572:6.0 12844:16.0 13281:1.0 13508:2.0 13563:1.0 14030:-1.0 
-0.001192982626100079 0.0010722535142187975 0.0 0.0 0.0 0.0 8.916804581757112E-5 0.0 5:1.0 14:20.0 15:5.0 19:1.0 26:3.0 38:4.0 44:1.0 48:1.0 71:2.0 78:1.0 84:1.0 85:4.0 87:2.0 91:2.0 112:2.0 135:6.0 137:1.0 147:1.0 149:1.0 164:14.0 167:2.0 197:10.0 214:1.0 241:7.0 246:3.0 347:1.0 349:4.0 395:1.0 396:1.0 412:5.0 422:1.0 535:10.0 591:13.0 666:1.0 669:1.0 687:1.0 689:3.0 690:2.0 748:2.0 753:5.0 823:2.0 878:1.0 949:15.0 999:1.0 1085:2.0 1125:1.0 1142:1.0 1143:6.0 1215:3.0 1284:8.0 1332:2.0 1427:1.0 1898:1.0 2029:1.0 2110:1.0 2125:2.0 2223:1.0 2395:1.0 2602:1.0 3041:10.0 3183:1.0 3368:3.0 3481:4.0 3827:1.0 3856:1.0 4576:3.0 4658:1.0 4983:1.0 5915:1.0 6421:1.0 9389:3.0 10810:1.0 13508:3.0 14030:-1.0 
-0.0 0.0014599229229011988 0.0 1.739366299458376E-5 0.012230323120696794 0.0 0.005435265097553891 0.0013167008923445367 13:1.0 21:1.0 28:5.0 47:3.0 65:1.0 166:1.0 214:2.0 241:3.0 246:1.0 286:1.0 349:1.0 533:1.0 612:1.0 635:4.0 647:1.0 762:1.0 769:1.0 803:1.0 1072:1.0 1084:1.0 1273:7.0 1306:1.0 1676:1.0 3516:1.0 8084:1.0 14030:-1.0 
-0.0 1.2047088239149024E-4 0.0 0.0 0.0 0.0 0.0 0.04401045237877578 14:1.0 33:2.0 51:2.0 55:24.0 78:3.0 84:4.0 112:1.0 135:6.0 164:4.0 197:1.0 201:1.0 292:1.0 311:1.0 347:1.0 349:1.0 395:2.0 412:1.0 422:1.0 491:1.0 592:1.0 689:1.0 883:1.0 937:3.0 951:1.0 994:1.0 1008:1.0 1198:3.0 1215:1.0 1549:1.0 1711:2.0 1790:1.0 1993:1.0 2069:2.0 2334:1.0 2614:1.0 3827:1.0 5594:1.0 14030:-1.0 
