svm_type c_svc
kernel_type rbf
gamma 7.127583749109053E-5
nr_class 9
total_sv 2904
rho -0.4547067308295509 0.0396156220552712 -0.6572557318892482 -0.7817463753554483 -1.1595862565790676 -0.11943851850042789 -0.12293696975578734 -1.5174665151006308 0.5382915068746594 -0.2464251747319724 -0.7549682232466883 -0.8536945259358492 0.3055524594610864 0.1719497211007853 -1.1132737493220277 -0.7854415938754457 -0.807231531535741 -1.3315713936811246 -0.26539980630244026 -0.17363143573039544 -1.6543883818741378 -0.7322745718561944 -0.8750656635471503 0.49105824984537505 0.2846427234206023 -1.2426795672497217 0.6193546206128144 0.8895205386438017 0.7743672075944805 0.5273706231850845 1.200346065520671 0.6525353608337074 -0.3264021864450844 0.027618649896940062 -1.715809532588328 -0.8096923789498114
label 7 9 4 1 8 2 5 3 6
nr_sv 340 340 339 340 195 340 337 334 339
SV
1.0 1.0 1.0 0.16349242007686676 1.0 1.0 1.0 1.0 410:1.0 5:1.0 1503:2.0 2619:1.0 286:1.0 14:42.0 1116:2.0 19:1.0 10441:1.0 261:2.0 560:9.0 1486:3.0 5715:2.0 926:4.0 652:1.0 512:3.0 38:1.0 311:30.0 312:3.0 3567:1.0 48:2.0 292:4.0 9277:1.0 54:2.0 12177:4.0 2568:4.0 1582:1.0 5915:1.0 1309:1.0 1850:1.0 1010:1.0 2501:14.0 78:2.0 743:5.0 73:2.0 2253:2.0 1415:1.0 7816:1.0 91:1.0 1047:7.0 3370:2.0 510:4.0 4296:1.0 1817:2.0 988:1.0 12844:2.0 593:1.0 2149:1.0 837:3.0 2425:1.0 13771:5.0 241:1.0 14030:-1.0 
1.0 1.0 1.0 0.27681920843902136 1.0 1.0 1.0 1.0 410:4.0 200:2.0 5:1.0 545:3.0 413:3.0 4137:2.0 1572:9.0 2432:2.0 1012:2.0 73:27.0 286:1.0 15:1.0 1979:4.0 2253:3.0 1116:1.0 1662:1.0 1114:1.0 1486:1.0 24:1.0 690:1.0 3272:1.0 878:3.0 91:1.0 102:1.0 372:1.0 652:4.0 100:1.0 175:2.0 4296:1.0 2239:2.0 234:1.0 99:1.0 1886:2.0 5940:1.0 42:1.0 798:5.0 312:23.0 1533:5.0 47:1.0 1675:1.0 1197:1.0 594:2.0 1143:1.0 1618:4.0 537:3.0 121:1.0 13771:2.0 3029:6.0 14030:-1.0 
1.0 1.0 1.0 0.8078013147852621 1.0 1.0 1.0 1.0 1582:1.0 4536:1.0 1699:4.0 141:1.0 5:1.0 412:1.0 197:1.0 558:1.0 196:8.0 135:2.0 4079:3.0 14:2.0 85:1.0 19:1.0 13728:5.0 699:1.0 261:5.0 210:1.0 1047:7.0 715:3.0 925:1.0 2163:4.0 42:1.0 798:6.0 380:1.0 292:5.0 3712:1.0 246:1.0 14030:-1.0 
1.0 1.0 1.0 0.45994465012117103 1.0 1.0 1.0 1.0 10046:2.0 715:7.0 5:1.0 312:1.0 380:1.0 400:1.0 376:4.0 14:19.0 135:2.0 284:1.0 15:2.0 19:1.0 48:1.0 292:4.0 1287:9.0 121:4.0 11498:1.0 151:3.0 727:3.0 14030:-1.0 
1.0 1.0 1.0 1.0 1.0 1.0 1.0 1.0 71:3.0 1634:1.0 5075:2.0 2682:1.0 79:2.0 1012:3.0 3044:1.0 14:1.0 135:1.0 1979:3.0 3269:1.0 84:2.0 19:3.0 1716:3.0 563:1.0 1233:1.0 214:3.0 147:1.0 1648:1.0 2029:1.0 389:2.0 90:3.0 151:1.0 102:1.0 2473:1.0 578:1.0 4296:1.0 99:1.0 5118:1.0 1666:1.0 1678:1.0 2110:1.0 12423:1.0 794:1.0 438:1.0 493:1.0 535:1.0 292:1.0 666:1.0 2208:1.0 1316:1.0 1688:1.0 121:1.0 120:2.0 5027:1.0 14030:-1.0 
1.0 1.0 1.0 0.3705648881644642 1.0 1.0 1.0 1.0 687:2.0 1915:1.0 2984:1.0 5:1.0 412:1.0 3163:1.0 1218:1.0 400:1.0 14:9.0 135:4.0 2616:1.0 284:1.0 1116:11.0 19:4.0 155:6.0 563:1.0 13612:1.0 560:4.0 2450:1.0 25:1.0 5714:1.0 1485:2.0 1346:1.0 810:1.0 1788:2.0 151:1.0 6009:3.0 649:1.0 444:1.0 4103:1.0 172:1.0 42:1.0 312:3.0 11451:1.0 1125:2.0 2947:1.0 47:4.0 164:2.0 3656:1.0 186:2.0 51:2.0 289:2.0 3299:1.0 292:1.0 54:6.0 11095:1.0 905:1.0 1143:1.0 11218:1.0 537:3.0 1275:1.0 205:1.0 71:13.0 67:1.0 1435:1.0 737:2.0 79:8.0 347:1.0 895:1.0 1166:2.0 87:1.0 88:2.0 328:1.0 9675:2.0 91:2.0 8634:1.0 372:2.0 3850:1.0 99:2.0 5404:3.0 97:3.0 2783:1.0 381:3.0 380:1.0 496:4.0 2170:1.0 1332:1.0 105:2.0 358:3.0 969:2.0 253:1.0 3592:1.0 1085:1.0 735:1.0 365:1.0 841:1.0 121:1.0 1454:3.0 14030:-1.0 
1.0 1.0 1.0 0.8232381184441032 1.0 1.0 1.0 1.0 789:2.0 48:2.0 292:1.0 1546:6.0 412:1.0 560:1.0 843:1.0 2568:7.0 47:1.0 14:14.0 14030:-1.0 
1.0 1.0 1.0 1.0 1.0 1.0 1.0 1.0 510:1.0 70:2.0 1699:1.0 311:3.0 3055:4.0 5153:1.0 617:1.0 135:8.0 699:2.0 869:5.0 24:1.0 3170:2.0 996:1.0 268:1.0 14030:-1.0 
1.0 1.0 1.0 1.0 1.0 1.0 1.0 1.0 6406:1.0 2819:1.0 3055:1.0 162:1.0 1163:1.0 12423:1.0 590:1.0 135:6.0 14:11.0 3656:1.0 395:1.0 51:3.0 1567:1.0 19:3.0 534:2.0 292:3.0 869:1.0 2568:1.0 1316:1.0 14030:-1.0 
1.0 1.0 1.0 0.7134599756677799 1.0 1.0 1.0 1.0 1427:1.0 5:6.0 412:1.0 3465:2.0 349:1.0 1095:1.0 79:8.0 2438:1.0 135:2.0 14:2.0 84:2.0 566:1.0 4212:3.0 87:5.0 699:2.0 4448:3.0 1712:1.0 334:1.0 2181:5.0 91:4.0 151:2.0 1183:2.0 578:2.0 33:1.0 2226:1.0 1263:2.0 312:2.0 1125:2.0 47:1.0 164:5.0 1389:1.0 535:5.0 292:1.0 13951:5.0 1211:3.0 4731:1.0 5138:3.0 1856:3.0 5339:3.0 11845:1.0 1454:3.0 14030:-1.0 
1.0 1.0 1.0 0.9903522100326303 1.0 1.0 1.0 1.0 410:1.0 70:2.0 1915:1.0 71:15.0 545:1.0 2861:2.0 349:1.0 4953:1.0 2620:7.0 73:1.0 626:3.0 699:1.0 692:1.0 214:1.0 1720:1.0 151:1.0 102:1.0 372:2.0 5251:1.0 2642:1.0 512:1.0 3494:3.0 12844:4.0 12572:1.0 104:3.0 51:1.0 289:2.0 670:1.0 292:2.0 1920:2.0 1618:1.0 483:1.0 13771:4.0 241:1.0 14030:-1.0 
1.0 1.0 1.0 1.0 1.0 1.0 1.0 1.0 3163:2.0 196:1.0 1601:4.0 24:1.0 736:1.0 2293:4.0 347:1.0 360:2.0 1639:4.0 1275:2.0 164:1.0 14030:-1.0 
1.0 1.0 1.0 0.6133482085101544 1.0 1.0 1.0 1.0 10046:1.0 71:1.0 414:1.0 581:4.0 682:3.0 520:1.0 12423:2.0 14:16.0 628:1.0 1143:2.0 214:8.0 2329:1.0 1316:2.0 151:4.0 14030:-1.0 
1.0 1.0 1.0 0.16191300435686595 1.0 0.8529471210715459 0.8268212460521793 1.0 410:2.0 687:1.0 4536:1.0 5:6.0 412:2.0 6105:2.0 951:2.0 5630:1.0 14:34.0 673:2.0 284:1.0 566:2.0 19:9.0 2324:1.0 261:2.0 25:1.0 24:1.0 934:1.0 690:3.0 149:1.0 268:11.0 688:1.0 151:1.0 516:1.0 1407:1.0 13304:4.0 38:3.0 444:13.0 11922:2.0 3679:1.0 172:2.0 434:4.0 11451:1.0 2829:5.0 47:23.0 9273:29.0 51:6.0 50:1.0 535:3.0 48:3.0 1148:17.0 4796:3.0 4116:1.0 292:13.0 54:15.0 905:1.0 5998:1.0 422:1.0 1582:4.0 1701:2.0 201:4.0 4600:1.0 346:1.0 1166:62.0 85:6.0 84:1.0 87:5.0 1004:1.0 457:1.0 628:1.0 455:1.0 1287:1.0 88:1.0 91:2.0 372:1.0 510:3.0 4435:1.0 99:5.0 97:14.0 110:17.0 2649:4.0 1676:1.0 1193:1.0 104:1.0 3602:2.0 4422:1.0 357:2.0 359:1.0 253:23.0 353:1.0 1085:17.0 837:1.0 4189:1.0 4304:2.0 121:1.0 241:2.0 120:5.0 14030:-1.0 
1.0 1.0 1.0 0.2390205802380963 1.0 1.0 1.0 1.0 2200:1.0 687:2.0 5:1.0 818:1.0 556:5.0 824:1.0 4260:1.0 14:2.0 1116:6.0 565:1.0 2052:1.0 7537:1.0 304:8.0 652:1.0 1252:1.0 38:12.0 444:4.0 39:1.0 798:2.0 1533:1.0 47:4.0 316:1.0 2229:1.0 424:12.0 289:2.0 292:2.0 54:6.0 177:2.0 537:1.0 3338:1.0 3762:1.0 1156:1.0 349:1.0 737:3.0 79:13.0 87:2.0 93:9.0 214:7.0 94:1.0 330:1.0 449:1.0 12560:1.0 2882:1.0 102:1.0 372:2.0 510:5.0 511:1.0 99:1.0 110:2.0 501:1.0 12688:1.0 593:1.0 969:17.0 353:1.0 837:1.0 361:1.0 121:1.0 120:3.0 3029:1.0 13771:3.0 14030:-1.0 
1.0 1.0 1.0 0.2204712907979242 1.0 1.0 1.0 1.0 2200:1.0 687:1.0 10046:1.0 4068:1.0 818:3.0 14:4.0 15:1.0 566:1.0 3810:2.0 1116:12.0 560:17.0 812:1.0 690:1.0 12529:1.0 652:2.0 444:3.0 38:10.0 2239:3.0 514:2.0 42:1.0 1263:5.0 1533:4.0 798:1.0 46:1.0 47:5.0 51:1.0 7905:4.0 664:1.0 189:1.0 3932:2.0 298:1.0 781:1.0 537:1.0 183:2.0 60:1.0 3218:1.0 1309:1.0 351:1.0 737:1.0 78:2.0 349:1.0 79:25.0 1012:1.0 5429:1.0 73:5.0 85:2.0 221:4.0 222:1.0 93:1.0 214:3.0 88:3.0 372:2.0 1821:1.0 581:3.0 978:2.0 110:6.0 5940:1.0 2170:8.0 105:1.0 358:1.0 10274:1.0 3232:3.0 2149:2.0 3989:2.0 353:2.0 13222:2.0 5823:1.0 843:1.0 4731:1.0 121:5.0 13771:1.0 14030:-1.0 
1.0 1.0 1.0 1.0 1.0 1.0 1.0 1.0 510:1.0 201:1.0 615:1.0 3552:1.0 3396:1.0 825:3.0 1393:2.0 14:3.0 1150:1.0 87:2.0 595:3.0 358:3.0 185:2.0 292:3.0 293:1.0 191:2.0 5268:1.0 2901:1.0 24:2.0 241:2.0 1285:1.0 14030:-1.0 
1.0 1.0 1.0 0.9560308065324082 1.0 1.0 1.0 1.0 4267:1.0 3827:1.0 277:1.0 413:1.0 1634:1.0 559:1.0 556:1.0 5012:1.0 566:1.0 1114:1.0 6795:1.0 1651:2.0 10018:2.0 151:1.0 2473:1.0 304:1.0 39:1.0 11327:1.0 1522:1.0 43:1.0 2110:1.0 2349:2.0 3908:1.0 3185:1.0 164:2.0 416:1.0 2360:1.0 2575:1.0 2093:1.0 2487:1.0 9687:1.0 616:1.0 346:1.0 1979:1.0 2253:1.0 84:2.0 870:1.0 212:1.0 215:1.0 1047:1.0 90:1.0 5949:1.0 581:13.0 10197:1.0 1666:1.0 5118:1.0 230:1.0 12423:1.0 591:1.0 253:1.0 127:1.0 1316:1.0 121:1.0 4544:1.0 14030:-1.0 
0.6821160709088899 0.9726182167196933 0.4926140431630348 0.1967481427095573 0.0437428135919513 0.820419837796276 0.8200353844483084 0.0 5:4.0 1647:1.0 558:1.0 559:13.0 14:41.0 566:1.0 19:8.0 1119:1.0 563:3.0 1113:1.0 2731:1.0 21:1.0 560:4.0 25:1.0 1109:1.0 24:14.0 516:5.0 35:3.0 2712:3.0 512:1.0 38:12.0 37:3.0 43:3.0 1601:4.0 527:13.0 1125:58.0 3804:2.0 47:8.0 51:1.0 4354:1.0 535:4.0 48:3.0 534:1.0 2216:1.0 1143:1.0 537:1.0 61:1.0 70:1.0 71:2.0 66:1.0 612:38.0 4952:3.0 79:1.0 85:4.0 4452:5.0 84:1.0 87:4.0 2245:1.0 1590:1.0 632:3.0 91:1.0 100:18.0 1065:2.0 99:2.0 581:1.0 1546:58.0 1547:4.0 97:1.0 2783:1.0 1536:1.0 12572:34.0 2774:2.0 3738:52.0 1060:2.0 104:2.0 105:3.0 121:3.0 1077:3.0 137:1.0 682:2.0 135:22.0 8024:2.0 699:3.0 158:4.0 13248:1.0 690:6.0 149:3.0 689:5.0 151:2.0 2581:3.0 652:15.0 1731:3.0 175:1.0 2101:1.0 1734:3.0 2110:2.0 164:20.0 2108:1.0 2081:1.0 12745:1.0 666:3.0 189:16.0 2572:2.0 3175:4.0 3101:1.0 201:2.0 197:2.0 736:1.0 220:1.0 2115:2.0 754:3.0 214:7.0 753:8.0 1183:7.0 2647:1.0 1666:1.0 2649:4.0 1675:4.0 252:1.0 730:1.0 2149:1.0 3119:7.0 1693:1.0 722:1.0 1688:1.0 241:1.0 823:4.0 285:2.0 284:1.0 3000:2.0 261:17.0 268:2.0 791:1.0 2957:3.0 311:21.0 2952:7.0 798:8.0 312:3.0 2488:1.0 1389:1.0 289:1.0 292:32.0 770:10.0 1386:3.0 1869:3.0 298:1.0 781:9.0 4125:1.0 776:1.0 349:3.0 347:1.0 4019:7.0 334:1.0 1287:9.0 878:1.0 1284:5.0 328:2.0 370:1.0 859:2.0 381:2.0 862:1.0 3034:1.0 834:12.0 357:1.0 361:4.0 410:79.0 11530:1.0 2848:3.0 412:15.0 949:2.0 400:2.0 951:4.0 404:1.0 395:1.0 389:2.0 2338:1.0 925:3.0 2819:1.0 921:1.0 13448:1.0 436:3.0 424:2.0 1010:3.0 2922:2.0 1012:5.0 2379:2.0 1979:1.0 1415:1.0 5303:1.0 455:4.0 1965:1.0 454:2.0 449:1.0 13508:3.0 510:1.0 979:1.0 5805:1.0 496:1.0 495:1.0 969:1.0 491:10.0 972:1.0 485:1.0 483:74.0 14030:-1.0 
1.0 1.0 1.0 0.25821279909440403 1.0 1.0 1.0 1.0 343:2.0 137:6.0 4332:28.0 412:2.0 5084:2.0 818:2.0 78:1.0 79:2.0 347:1.0 346:20.0 14:2.0 1116:4.0 221:2.0 2019:6.0 325:2.0 560:2.0 1820:1.0 2006:2.0 39:2.0 172:6.0 3917:4.0 4983:2.0 1263:4.0 1533:2.0 586:2.0 104:2.0 293:2.0 54:10.0 905:1.0 491:4.0 666:2.0 1387:8.0 3932:2.0 11918:2.0 781:1.0 604:1.0 3924:2.0 14030:-1.0 
1.0 0.9169489209087065 1.0 0.17376234665494744 0.7502314235785114 0.7763081433080204 0.7840527396643602 0.4828656574403926 412:18.0 954:1.0 558:3.0 1231:4.0 15:1.0 566:1.0 3810:6.0 560:10.0 1651:3.0 24:2.0 1105:3.0 652:23.0 789:3.0 444:9.0 38:1.0 3917:2.0 172:1.0 1263:95.0 312:1.0 47:2.0 424:1.0 670:7.0 48:1.0 1385:1.0 666:1.0 1387:6.0 1994:1.0 298:2.0 5745:1.0 183:1.0 1622:6.0 883:1.0 1008:2.0 2382:12.0 349:3.0 1163:1.0 78:4.0 1010:1.0 1572:3.0 79:44.0 347:1.0 1012:1.0 73:24.0 346:2.0 221:4.0 5899:1.0 457:5.0 455:1.0 10913:1.0 100:1.0 110:7.0 978:1.0 584:2.0 2170:1.0 1085:2.0 491:5.0 10280:3.0 4731:1.0 6343:1.0 121:10.0 241:4.0 14030:-1.0 
1.0 1.0 1.0 0.16242178231804305 1.0 0.8848490739112295 0.8526861790905048 1.0 410:3.0 6192:1.0 4069:2.0 414:1.0 5:17.0 412:1.0 545:2.0 2432:1.0 5630:2.0 285:14.0 15:9.0 1776:2.0 392:1.0 1782:2.0 560:3.0 24:1.0 2605:1.0 149:6.0 652:9.0 304:1.0 1610:2.0 1731:1.0 925:1.0 38:2.0 444:3.0 39:4.0 8426:1.0 1875:2.0 312:5.0 1127:14.0 46:1.0 47:28.0 521:1.0 1120:1.0 51:1.0 4248:1.0 424:2.0 4115:1.0 48:6.0 8447:1.0 1990:2.0 666:1.0 299:2.0 2674:1.0 612:7.0 2919:1.0 748:1.0 2382:2.0 78:2.0 2262:3.0 349:1.0 2501:11.0 469:1.0 347:2.0 346:2.0 73:44.0 4200:1.0 762:1.0 85:4.0 221:4.0 3084:2.0 1833:1.0 2798:59.0 218:8.0 93:2.0 214:1.0 753:10.0 1281:1.0 2670:6.0 91:3.0 449:3.0 878:1.0 90:2.0 372:3.0 100:1.0 3370:3.0 715:2.0 99:4.0 1817:14.0 381:2.0 13923:2.0 589:2.0 8356:1.0 105:1.0 1674:2.0 6348:1.0 593:1.0 730:1.0 3119:1.0 361:1.0 120:3.0 241:9.0 14030:-1.0 
1.0 1.0 1.0 1.0 1.0 1.0 1.0 1.0 1054:2.0 1125:1.0 14030:-1.0 
1.0 1.0 1.0 0.4341202464530024 1.0 1.0 1.0 1.0 2033:1.0 71:4.0 682:4.0 5:2.0 1647:2.0 412:3.0 197:1.0 1435:1.0 135:15.0 14:8.0 1166:1.0 19:1.0 214:15.0 2029:1.0 151:2.0 102:1.0 2712:1.0 581:1.0 12423:2.0 164:1.0 51:3.0 289:1.0 535:1.0 292:1.0 598:1.0 14030:-1.0 
1.0 1.0 1.0 0.31021361460608465 1.0 1.0 1.0 1.0 4536:1.0 823:1.0 559:2.0 14:8.0 284:1.0 19:2.0 563:2.0 2324:6.0 25:9.0 149:2.0 689:1.0 926:8.0 38:2.0 444:2.0 39:1.0 311:2.0 2952:21.0 1261:2.0 1125:1.0 47:1.0 51:2.0 50:1.0 534:3.0 292:10.0 905:1.0 2688:1.0 13333:3.0 2093:1.0 422:1.0 1582:1.0 201:8.0 614:1.0 1012:2.0 346:1.0 334:1.0 2125:2.0 2395:2.0 996:6.0 91:3.0 999:1.0 372:1.0 2160:1.0 501:1.0 1676:1.0 104:1.0 358:5.0 246:1.0 121:1.0 120:1.0 14030:-1.0 
1.0 1.0 1.0 0.2742414141475792 1.0 1.0 1.0 1.0 516:1.0 304:1.0 652:5.0 38:1.0 6406:3.0 99:1.0 8076:1.0 79:1.0 9055:1.0 762:1.0 1116:10.0 729:1.0 969:1.0 87:2.0 1385:1.0 219:4.0 1387:33.0 560:10.0 13222:3.0 962:1.0 298:1.0 4153:1.0 1688:1.0 13771:3.0 14030:-1.0 
1.0 1.0 1.0 0.46107561225205 1.0 1.0 1.0 1.0 1610:2.0 168:5.0 2341:3.0 581:1.0 5:1.0 1463:1.0 679:3.0 312:7.0 1010:1.0 4772:2.0 3093:2.0 347:1.0 895:13.0 14:1.0 164:8.0 3961:3.0 493:1.0 19:2.0 1238:2.0 8623:2.0 5100:1.0 4019:3.0 24:3.0 896:15.0 14030:-1.0 
1.0 1.0 1.0 0.15234390061577208 1.0 1.0 1.0 1.0 414:1.0 412:1.0 829:1.0 2432:1.0 14:3.0 3810:6.0 4145:1.0 560:52.0 13248:1.0 149:1.0 30:1.0 652:1.0 38:11.0 444:2.0 42:1.0 798:1.0 162:1.0 4652:1.0 1872:2.0 47:1.0 424:4.0 292:1.0 9277:5.0 12177:7.0 537:1.0 183:2.0 3457:1.0 1581:3.0 737:1.0 349:1.0 79:3.0 2685:1.0 3475:1.0 84:1.0 87:4.0 3626:3.0 219:5.0 214:1.0 849:1.0 510:3.0 715:1.0 1460:1.0 988:1.0 110:3.0 978:2.0 12688:8.0 5666:1.0 105:1.0 495:1.0 969:1.0 115:1.0 837:1.0 4731:1.0 240:1.0 3029:1.0 13771:3.0 14030:-1.0 
1.0 1.0 1.0 0.08220619345969606 1.0 1.0 0.9452733759102896 1.0 1905:1.0 4072:1.0 14:6.0 15:1.0 2047:1.0 3810:4.0 1238:1.0 19:1.0 5002:1.0 560:12.0 24:4.0 4153:1.0 149:1.0 652:4.0 170:1.0 38:2.0 512:1.0 42:1.0 798:1.0 434:1.0 46:2.0 47:2.0 9055:2.0 424:3.0 9277:5.0 12177:7.0 1387:46.0 10124:3.0 183:2.0 1581:1.0 8076:1.0 79:4.0 346:1.0 73:1.0 221:1.0 214:1.0 510:1.0 100:1.0 1818:1.0 978:1.0 12688:1.0 104:2.0 105:3.0 593:1.0 3597:1.0 730:1.0 596:1.0 112:1.0 1688:3.0 121:1.0 13771:5.0 3029:2.0 14030:-1.0 
1.0 1.0 1.0 0.3024958293966012 1.0 1.0 1.0 1.0 5:6.0 8:1.0 559:3.0 556:2.0 286:1.0 14:2.0 2199:2.0 16:7.0 1116:10.0 1359:1.0 565:1.0 1118:1.0 8823:1.0 22:1.0 24:2.0 2725:1.0 6009:1.0 789:1.0 512:1.0 1886:1.0 39:1.0 311:7.0 43:1.0 1125:2.0 3325:1.0 47:1.0 794:8.0 54:5.0 293:1.0 881:4.0 1582:1.0 70:11.0 1579:2.0 2505:10.0 889:1.0 349:1.0 2501:5.0 78:1.0 347:2.0 73:1.0 5431:1.0 87:2.0 1288:1.0 3069:1.0 2245:1.0 91:1.0 636:1.0 10372:4.0 2543:1.0 1551:19.0 99:10.0 4435:1.0 1546:1.0 4713:1.0 1332:4.0 3260:1.0 1802:5.0 1085:1.0 836:2.0 4431:1.0 410:2.0 2620:1.0 407:1.0 2047:1.0 1486:4.0 1485:1.0 9374:2.0 390:3.0 3197:1.0 925:1.0 5312:1.0 2829:1.0 4229:4.0 164:1.0 2108:1.0 186:1.0 906:1.0 9398:3.0 661:3.0 3446:1.0 4246:1.0 1435:3.0 1012:1.0 1166:4.0 1000:1.0 1408:4.0 1412:1.0 3356:1.0 752:4.0 4296:1.0 502:2.0 6075:1.0 252:1.0 4556:1.0 253:12.0 8623:3.0 963:1.0 3376:3.0 722:1.0 1690:1.0 241:2.0 14030:-1.0 
1.0 1.0 1.0 1.0 1.0 1.0 1.0 1.0 137:1.0 372:1.0 71:1.0 12844:2.0 12572:2.0 2438:2.0 14:4.0 285:1.0 4922:1.0 135:1.0 2559:1.0 1953:1.0 292:7.0 396:2.0 25:1.0 214:2.0 149:2.0 996:2.0 878:1.0 14030:-1.0 
1.0 1.0 1.0 1.0 1.0 1.0 1.0 1.0 751:1.0 414:3.0 200:1.0 278:1.0 347:1.0 404:1.0 135:2.0 325:1.0 8084:1.0 82:1.0 25:5.0 387:1.0 212:2.0 334:1.0 24:1.0 215:1.0 208:1.0 91:1.0 328:1.0 1187:1.0 4575:1.0 13508:1.0 39:2.0 645:1.0 707:1.0 1535:1.0 4174:1.0 382:1.0 643:1.0 439:1.0 1389:1.0 292:2.0 416:2.0 14030:-1.0 
1.0 1.0 1.0 0.16129744134317425 1.0 0.9470586306471787 0.9123453641521464 1.0 410:3.0 818:6.0 545:18.0 4072:1.0 1231:4.0 14:2.0 3810:12.0 566:1.0 560:9.0 304:1.0 652:9.0 4781:1.0 2006:2.0 444:35.0 38:2.0 42:2.0 1263:4.0 312:2.0 4652:1.0 47:10.0 424:4.0 670:1.0 48:1.0 534:1.0 4116:1.0 1990:3.0 1387:1.0 3932:2.0 541:3.0 4789:1.0 298:26.0 537:2.0 2674:1.0 5915:1.0 4676:1.0 612:2.0 2382:38.0 11590:2.0 1010:1.0 78:2.0 2501:4.0 79:22.0 347:1.0 73:14.0 346:2.0 221:8.0 3070:1.0 10913:6.0 2670:2.0 878:2.0 5798:1.0 372:3.0 849:1.0 1817:1.0 97:1.0 110:30.0 9590:1.0 2170:1.0 6075:6.0 104:1.0 729:1.0 253:3.0 1563:2.0 1085:3.0 491:2.0 837:1.0 4549:1.0 121:2.0 14030:-1.0 
1.0 1.0 1.0 0.39514503029254877 1.0 1.0 1.0 1.0 3827:1.0 548:1.0 1647:1.0 5:2.0 412:3.0 3055:2.0 349:1.0 79:2.0 736:1.0 4685:1.0 135:1.0 14:2.0 10447:4.0 87:11.0 19:1.0 4145:1.0 699:1.0 218:2.0 560:2.0 334:1.0 753:4.0 312:1.0 1948:1.0 1125:2.0 12572:10.0 164:2.0 3119:1.0 1316:1.0 1690:2.0 121:1.0 14030:-1.0 
1.0 1.0 1.0 1.0 1.0 1.0 1.0 1.0 13508:2.0 2848:10.0 1732:1.0 2648:5.0 1125:1.0 9389:1.0 2774:6.0 14:7.0 164:2.0 292:4.0 2223:1.0 5328:1.0 455:1.0 840:1.0 2720:1.0 14030:-1.0 
1.0 1.0 1.0 1.0 1.0 1.0 1.0 1.0 372:1.0 1610:3.0 578:2.0 38:1.0 514:2.0 2952:1.0 950:1.0 2947:1.0 12572:2.0 135:2.0 14:1.0 1166:1.0 164:1.0 84:1.0 87:2.0 365:3.0 14030:-1.0 
1.0 1.0 1.0 0.9350668480156393 1.0 1.0 1.0 1.0 70:1.0 71:3.0 5:1.0 3163:1.0 197:1.0 349:1.0 736:2.0 347:1.0 285:1.0 14:2.0 135:7.0 87:2.0 19:1.0 4145:2.0 2731:1.0 218:1.0 628:1.0 93:2.0 214:1.0 2725:6.0 2514:1.0 3272:1.0 7343:1.0 149:2.0 91:1.0 151:4.0 13508:2.0 510:1.0 38:1.0 2952:2.0 172:1.0 1125:1.0 12572:2.0 164:2.0 358:1.0 535:1.0 252:1.0 1802:1.0 292:1.0 1387:1.0 1315:1.0 1316:2.0 183:4.0 13333:1.0 2093:3.0 14030:-1.0 
1.0 1.0 1.0 1.0 1.0 1.0 1.0 1.0 70:1.0 64:1.0 682:1.0 5:2.0 8:1.0 347:1.0 15:1.0 457:2.0 214:16.0 149:1.0 90:3.0 445:1.0 1614:1.0 12844:2.0 707:1.0 6140:1.0 3185:1.0 105:1.0 119:1.0 51:1.0 289:1.0 670:2.0 292:1.0 1920:1.0 112:1.0 14030:-1.0 
1.0 1.0 1.0 1.0 1.0 1.0 1.0 1.0 3055:2.0 870:1.0 753:1.0 3076:1.0 3170:1.0 2228:1.0 14030:-1.0 
1.0 1.0 1.0 1.0 1.0 1.0 1.0 1.0 99:2.0 2952:4.0 3041:2.0 949:1.0 347:1.0 1332:1.0 164:1.0 48:1.0 292:2.0 869:2.0 112:1.0 364:2.0 754:2.0 690:1.0 897:5.0 90:1.0 241:1.0 14030:-1.0 
1.0 1.0 1.0 1.0 1.0 1.0 1.0 1.0 87:1.0 870:5.0 748:2.0 12572:1.0 1215:1.0 135:1.0 14030:-1.0 
1.0 1.0 1.0 1.0 1.0 1.0 1.0 1.0 2614:2.0 6013:1.0 412:1.0 43:1.0 14:5.0 51:1.0 394:1.0 292:1.0 8623:1.0 293:2.0 218:1.0 4148:2.0 214:2.0 633:3.0 149:3.0 1215:1.0 14030:-1.0 
1.0 1.0 1.0 0.8898351073548666 1.0 1.0 1.0 1.0 410:2.0 1915:1.0 414:2.0 5:2.0 3532:1.0 14:8.0 135:2.0 3961:1.0 4145:2.0 3000:1.0 699:2.0 304:2.0 5859:3.0 1614:1.0 1125:4.0 166:2.0 164:4.0 3930:1.0 1389:1.0 48:4.0 292:3.0 907:1.0 54:1.0 2356:1.0 5569:1.0 4120:2.0 349:2.0 616:2.0 895:1.0 1003:1.0 1054:5.0 214:1.0 330:3.0 449:1.0 849:1.0 581:1.0 1546:3.0 4564:1.0 4719:1.0 711:1.0 104:1.0 493:1.0 353:4.0 490:1.0 598:1.0 246:1.0 3104:1.0 1316:1.0 1077:1.0 14030:-1.0 
1.0 1.0 1.0 1.0 1.0 1.0 1.0 1.0 851:1.0 137:5.0 510:2.0 6407:1.0 368:1.0 581:6.0 514:1.0 97:1.0 616:7.0 527:1.0 286:1.0 14:3.0 395:1.0 51:1.0 49:1.0 87:1.0 595:1.0 334:1.0 722:1.0 214:1.0 840:1.0 149:1.0 14030:-1.0 
1.0 1.0 1.0 1.0 1.0 1.0 1.0 1.0 823:2.0 71:4.0 682:4.0 412:2.0 3163:6.0 2438:4.0 14:4.0 395:4.0 87:2.0 19:2.0 560:4.0 214:12.0 452:2.0 2029:4.0 149:2.0 996:4.0 1242:1.0 510:2.0 311:2.0 1547:2.0 12844:6.0 1601:4.0 292:2.0 490:2.0 1315:2.0 1316:8.0 14030:-1.0 
1.0 1.0 1.0 1.0 1.0 1.0 1.0 1.0 790:1.0 70:2.0 8396:1.0 884:1.0 1219:1.0 347:1.0 4200:1.0 2630:1.0 1869:2.0 752:5.0 633:2.0 1452:8.0 1623:1.0 539:1.0 1077:1.0 14030:-1.0 
1.0 1.0 1.0 1.0 1.0 1.0 1.0 1.0 1035:1.0 504:2.0 2952:3.0 1125:1.0 1906:1.0 135:2.0 284:1.0 164:4.0 1508:1.0 1389:2.0 48:1.0 112:1.0 1210:2.0 246:1.0 24:1.0 9403:4.0 5579:4.0 1284:1.0 1183:2.0 14030:-1.0 
1.0 1.0 1.0 0.0 1.0 1.0 1.0 1.0 71:4.0 5:1.0 1309:2.0 197:1.0 1435:2.0 616:1.0 1030:2.0 135:3.0 14:1.0 87:1.0 1412:2.0 389:4.0 440:22.0 2582:2.0 519:4.0 368:1.0 2101:2.0 311:1.0 718:1.0 2403:2.0 434:1.0 2829:1.0 1125:4.0 3656:24.0 253:15.0 292:8.0 1085:4.0 2901:1.0 126:1.0 14030:-1.0 
1.0 1.0 1.0 0.45620469416153414 1.0 1.0 1.0 1.0 70:1.0 884:1.0 5915:4.0 311:1.0 197:1.0 645:1.0 10:21.0 404:1.0 14:2.0 670:8.0 699:1.0 6961:4.0 2125:2.0 752:1.0 996:2.0 14030:-1.0 
1.0 1.0 1.0 0.3289589530750835 1.0 1.0 1.0 1.0 926:2.0 70:3.0 5915:4.0 884:1.0 311:10.0 197:1.0 645:1.0 10:24.0 707:1.0 404:3.0 14:2.0 567:1.0 1051:1.0 670:10.0 6961:3.0 963:1.0 2125:7.0 752:1.0 996:2.0 2788:1.0 60:1.0 14030:-1.0 
1.0 1.0 1.0 0.5728094898807302 1.0 1.0 1.0 1.0 137:2.0 682:3.0 5:2.0 412:2.0 1218:1.0 950:1.0 951:1.0 14:1.0 135:1.0 2731:1.0 26:1.0 149:2.0 389:1.0 268:1.0 1131:1.0 311:1.0 446:1.0 1125:2.0 3185:8.0 535:2.0 183:9.0 2093:1.0 71:5.0 3055:1.0 1008:1.0 347:1.0 2379:1.0 3469:1.0 218:3.0 2115:1.0 2125:1.0 214:13.0 3075:1.0 996:1.0 7343:2.0 10372:1.0 8634:1.0 13508:1.0 581:4.0 381:1.0 2649:1.0 12844:2.0 2528:1.0 3119:1.0 602:3.0 1316:1.0 1215:1.0 1077:2.0 241:1.0 14030:-1.0 
1.0 1.0 1.0 1.0 1.0 1.0 1.0 1.0 207:1.0 544:1.0 78:12.0 347:1.0 73:1.0 465:1.0 85:1.0 3151:1.0 2113:1.0 1651:1.0 93:1.0 24:1.0 90:2.0 38:1.0 1547:1.0 501:1.0 707:1.0 47:1.0 981:1.0 1081:1.0 495:1.0 353:1.0 246:3.0 2428:1.0 247:1.0 781:1.0 1621:1.0 6158:1.0 14030:-1.0 
1.0 1.0 1.0 1.0 1.0 1.0 1.0 1.0 790:2.0 823:4.0 70:1.0 311:2.0 172:1.0 381:1.0 12844:4.0 78:2.0 11112:1.0 4952:1.0 4564:1.0 104:3.0 15:1.0 252:1.0 488:1.0 54:1.0 246:1.0 633:1.0 14030:-1.0 
1.0 1.0 1.0 1.0 1.0 1.0 1.0 1.0 19:1.0 969:3.0 335:2.0 241:1.0 164:2.0 14030:-1.0 
1.0 1.0 1.0 1.0 1.0 1.0 1.0 1.0 653:2.0 578:3.0 2682:4.0 521:1.0 135:1.0 14:1.0 164:1.0 3005:1.0 534:1.0 3592:1.0 54:1.0 3119:1.0 754:1.0 88:1.0 14030:-1.0 
1.0 0.9712782981798925 1.0 0.1653547621173939 1.0 0.8424811024311888 0.8236272685644807 0.8656920563364072 969:1.0 19:1.0 612:23.0 47:31.0 104:93.0 14030:-1.0 
1.0 1.0 1.0 0.37483797051017737 1.0 1.0 1.0 1.0 1582:1.0 2234:2.0 6130:1.0 612:24.0 349:1.0 47:4.0 1389:1.0 730:2.0 595:8.0 969:3.0 48:1.0 292:6.0 754:1.0 127:3.0 149:1.0 361:1.0 2243:2.0 14030:-1.0 
1.0 1.0 1.0 1.0 1.0 1.0 1.0 1.0 5979:1.0 13508:1.0 13728:1.0 3163:1.0 1085:1.0 412:1.0 1869:1.0 502:1.0 1607:1.0 14030:-1.0 
1.0 1.0 1.0 0.4622553263314719 1.0 1.0 1.0 1.0 687:1.0 5154:1.0 1503:1.0 4325:9.0 1095:18.0 1012:1.0 347:2.0 135:2.0 15:1.0 87:3.0 563:1.0 3692:1.0 214:2.0 6185:1.0 268:1.0 449:1.0 10587:1.0 1480:3.0 13308:4.0 859:1.0 1125:6.0 1197:1.0 164:4.0 1801:1.0 1452:1.0 120:1.0 11632:9.0 14030:-1.0 
1.0 1.0 1.0 1.0 1.0 1.0 1.0 1.0 1522:1.0 7:1.0 545:2.0 8:2.0 12844:2.0 10:1.0 2704:1.0 14:1.0 3205:1.0 754:1.0 93:1.0 24:2.0 1211:3.0 214:1.0 61:1.0 14030:-1.0 
1.0 1.0 1.0 0.9288574810466749 1.0 1.0 1.0 1.0 309:1.0 512:1.0 581:1.0 5:2.0 1771:1.0 78:1.0 349:1.0 14:7.0 135:8.0 104:1.0 51:1.0 2901:2.0 24:1.0 214:1.0 91:2.0 151:10.0 14030:-1.0 
1.0 1.0 1.0 1.0 1.0 1.0 1.0 1.0 168:1.0 71:6.0 414:1.0 203:1.0 351:2.0 2262:2.0 349:3.0 46:1.0 895:1.0 566:2.0 1389:1.0 19:2.0 292:7.0 560:5.0 697:4.0 297:2.0 214:1.0 88:2.0 149:2.0 14030:-1.0 
1.0 1.0 1.0 1.0 1.0 1.0 1.0 1.0 686:1.0 1374:1.0 201:1.0 64:1.0 4072:1.0 1012:1.0 404:1.0 1166:1.0 17:1.0 327:1.0 84:1.0 325:2.0 699:1.0 457:1.0 218:1.0 214:2.0 4394:1.0 91:1.0 372:1.0 927:1.0 235:1.0 175:1.0 99:1.0 39:1.0 581:1.0 111:1.0 501:1.0 707:1.0 527:1.0 8712:1.0 495:1.0 120:1.0 14030:-1.0 
1.0 1.0 1.0 0.30620004834548925 1.0 0.8717961653879557 1.0 1.0 1427:6.0 2614:18.0 70:5.0 3218:2.0 883:1.0 206:11.0 200:13.0 5915:8.0 2368:3.0 412:6.0 1218:13.0 1008:18.0 617:2.0 1030:6.0 14:8.0 85:2.0 4386:3.0 3084:4.0 454:1.0 1486:18.0 29:2.0 1723:1.0 810:1.0 10152:3.0 790:3.0 304:1.0 168:8.0 38:1.0 785:3.0 312:3.0 229:2.0 1123:2.0 794:1.0 1944:3.0 2083:12.0 289:1.0 670:42.0 1085:13.0 1630:1.0 1920:29.0 1933:3.0 1140:3.0 242:3.0 1688:2.0 2757:5.0 362:37.0 14030:-1.0 
1.0 1.0 1.0 0.443810542851791 1.0 1.0 1.0 1.0 11118:1.0 2438:1.0 14:5.0 15:4.0 395:2.0 566:4.0 1116:1.0 2019:1.0 19:5.0 560:2.0 25:7.0 689:1.0 151:1.0 1734:1.0 312:1.0 3669:2.0 2946:1.0 47:3.0 424:1.0 289:1.0 1268:1.0 292:1.0 666:1.0 178:1.0 298:2.0 2961:1.0 71:7.0 612:3.0 1696:1.0 2262:1.0 2922:1.0 199:1.0 79:2.0 1166:1.0 85:1.0 87:1.0 457:1.0 93:1.0 1041:1.0 454:1.0 335:3.0 214:1.0 88:1.0 2790:1.0 878:6.0 372:1.0 510:5.0 99:1.0 581:17.0 979:1.0 105:2.0 969:1.0 490:1.0 1215:1.0 14030:-1.0 
1.0 1.0 1.0 0.20261065483683136 1.0 1.0 1.0 1.0 5915:1.0 351:3.0 2501:13.0 349:1.0 78:2.0 2047:4.0 697:1.0 219:2.0 560:6.0 5170:4.0 2999:20.0 2670:1.0 449:2.0 926:1.0 372:2.0 3370:1.0 374:2.0 8639:25.0 1817:1.0 3917:1.0 172:6.0 798:3.0 46:1.0 496:6.0 4662:2.0 1750:1.0 1387:4.0 661:9.0 2482:1.0 13045:2.0 14030:-1.0 
1.0 1.0 1.0 1.0 1.0 1.0 1.0 1.0 70:1.0 5:1.0 1486:1.0 2501:2.0 73:1.0 404:2.0 2108:4.0 14030:-1.0 
1.0 1.0 1.0 0.1570614108245108 1.0 0.8352818766078586 0.8005134196782931 1.0 410:6.0 412:2.0 5831:4.0 829:1.0 558:15.0 282:1.0 5630:1.0 9492:10.0 2616:1.0 1116:16.0 565:1.0 2019:5.0 155:1.0 560:26.0 266:3.0 4395:2.0 516:1.0 652:3.0 38:20.0 13447:1.0 42:3.0 3566:1.0 46:1.0 47:9.0 1389:1.0 1390:1.0 48:1.0 5452:1.0 292:2.0 54:1.0 4492:2.0 294:1.0 1143:2.0 2482:1.0 537:2.0 1860:1.0 737:3.0 2262:2.0 349:1.0 79:1.0 73:3.0 346:2.0 895:2.0 85:1.0 219:54.0 335:3.0 214:6.0 3076:5.0 1045:1.0 4706:1.0 372:3.0 100:6.0 5394:1.0 978:58.0 590:1.0 3261:12.0 4716:5.0 729:1.0 118:1.0 969:1.0 1924:3.0 353:9.0 13222:1.0 127:1.0 9951:1.0 121:4.0 13771:3.0 3587:2.0 14030:-1.0 
1.0 0.9175330132263172 0.9439411448108378 0.16896059806874913 0.5874324835397311 0.7863615793602408 0.7750527044047986 0.3237859991901955 2200:4.0 4069:2.0 1919:2.0 818:6.0 545:2.0 558:3.0 12875:1.0 1905:1.0 4137:8.0 14:3.0 284:1.0 12883:1.0 1116:27.0 3810:16.0 19:1.0 2728:1.0 560:69.0 22:1.0 24:5.0 1105:1.0 810:1.0 304:3.0 1135:1.0 38:21.0 3797:1.0 2239:4.0 39:1.0 3552:1.0 514:5.0 798:7.0 312:1.0 47:20.0 1389:1.0 1148:1.0 534:1.0 7905:7.0 48:1.0 292:2.0 10958:1.0 537:2.0 343:1.0 881:1.0 3218:1.0 12802:1.0 66:1.0 1851:1.0 1850:1.0 351:1.0 78:1.0 1572:1.0 2501:4.0 79:80.0 73:11.0 346:2.0 2259:2.0 2253:1.0 8084:1.0 82:4.0 628:2.0 335:1.0 1042:1.0 88:8.0 328:1.0 1827:4.0 90:3.0 1821:2.0 849:5.0 1817:2.0 5940:1.0 110:13.0 380:1.0 1536:1.0 7141:1.0 1060:2.0 3232:2.0 3989:13.0 596:2.0 1085:2.0 127:1.0 4731:4.0 121:12.0 120:2.0 3029:2.0 410:1.0 687:2.0 2855:2.0 414:1.0 1770:1.0 1231:2.0 6105:2.0 135:1.0 6177:1.0 1782:1.0 936:1.0 8944:1.0 1486:3.0 690:1.0 652:8.0 925:9.0 444:2.0 2006:2.0 1263:12.0 645:3.0 1533:12.0 670:1.0 1984:1.0 1506:1.0 3932:2.0 416:1.0 183:1.0 1012:3.0 221:2.0 212:2.0 6526:6.0 214:8.0 209:1.0 449:1.0 210:1.0 510:2.0 5802:2.0 2170:17.0 1675:1.0 729:1.0 10274:4.0 2149:2.0 4313:4.0 491:4.0 13222:7.0 3107:1.0 481:1.0 9951:4.0 243:1.0 240:2.0 13771:2.0 14030:-1.0 
0.9365702583696472 0.8886571597740341 0.7769354731918199 0.16818592421716919 0.39729190604832204 0.7543459293168856 0.7442796460091997 0.12105868066195287 2200:11.0 818:16.0 558:2.0 8:1.0 831:1.0 14:2.0 3810:5.0 1116:89.0 4868:1.0 560:12.0 24:2.0 304:1.0 790:9.0 789:2.0 38:6.0 39:1.0 514:10.0 4103:1.0 311:1.0 312:1.0 46:1.0 47:1.0 50:1.0 1389:1.0 535:1.0 1148:1.0 54:2.0 541:2.0 298:11.0 343:1.0 3055:1.0 66:2.0 7116:2.0 351:17.0 11486:1.0 349:1.0 2501:9.0 78:2.0 79:80.0 73:10.0 346:1.0 85:2.0 1293:1.0 82:1.0 335:1.0 88:5.0 4025:1.0 878:2.0 1827:11.0 90:1.0 372:4.0 849:1.0 1817:3.0 5404:1.0 1547:1.0 110:29.0 1332:2.0 3989:16.0 3232:1.0 353:2.0 837:1.0 127:1.0 4731:5.0 121:8.0 5018:2.0 678:1.0 6105:2.0 1231:1.0 155:4.0 7268:1.0 1480:2.0 2601:1.0 652:4.0 2006:1.0 444:4.0 1263:3.0 2348:3.0 2352:1.0 1984:4.0 428:2.0 11095:4.0 3932:10.0 201:4.0 200:1.0 737:1.0 1163:2.0 1010:1.0 1012:1.0 1166:1.0 762:1.0 4828:1.0 9667:3.0 1412:8.0 6526:9.0 214:11.0 210:1.0 449:2.0 707:2.0 2170:5.0 729:1.0 969:2.0 253:2.0 4313:8.0 491:3.0 2901:1.0 13222:11.0 243:1.0 9951:4.0 240:3.0 13771:4.0 14030:-1.0 
1.0 1.0 1.0 1.0 1.0 1.0 1.0 1.0 70:1.0 1096:3.0 681:1.0 349:1.0 1572:1.0 1012:1.0 73:3.0 135:6.0 14:6.0 1979:5.0 221:2.0 87:1.0 699:1.0 752:1.0 214:3.0 389:2.0 90:1.0 444:1.0 38:4.0 175:1.0 581:1.0 1817:1.0 798:1.0 3008:3.0 593:3.0 535:1.0 2149:1.0 4054:1.0 2494:1.0 735:1.0 661:1.0 962:1.0 1211:1.0 1316:1.0 183:1.0 897:1.0 14030:-1.0 
0.5245454080359008 0.9986445530500031 0.32492879919284584 0.21034676539741443 0.0 0.843689051536903 0.8397822869636915 0.0 1915:1.0 5:5.0 544:2.0 818:1.0 8:2.0 558:10.0 282:2.0 10:1.0 285:1.0 14:15.0 4079:7.0 1116:150.0 566:5.0 565:1.0 563:2.0 21:1.0 560:22.0 261:2.0 25:1.0 266:2.0 1651:2.0 24:8.0 4394:1.0 268:24.0 4370:5.0 1135:2.0 304:3.0 789:1.0 519:1.0 38:32.0 512:3.0 2239:1.0 39:1.0 42:1.0 1127:2.0 798:1.0 12172:1.0 312:5.0 1125:1.0 46:1.0 4108:1.0 47:21.0 1389:3.0 289:1.0 535:12.0 7905:1.0 534:2.0 48:1.0 5452:1.0 292:6.0 770:1.0 1385:1.0 60:2.0 303:2.0 343:1.0 1854:3.0 1308:1.0 351:2.0 349:1.0 2262:3.0 78:18.0 79:1.0 617:2.0 4685:2.0 73:49.0 1302:1.0 346:8.0 621:1.0 2259:4.0 85:11.0 84:1.0 86:1.0 1293:1.0 334:1.0 88:3.0 1047:1.0 878:2.0 1285:1.0 90:11.0 102:1.0 372:10.0 1821:1.0 849:4.0 581:1.0 5404:1.0 1817:4.0 5394:1.0 12844:2.0 380:4.0 4719:1.0 107:1.0 104:14.0 105:1.0 3261:2.0 4716:1.0 3034:1.0 11767:4.0 358:1.0 594:3.0 353:4.0 10672:1.0 3025:5.0 121:3.0 3029:4.0 137:1.0 410:4.0 7535:1.0 414:1.0 2311:1.0 1770:1.0 2619:1.0 135:3.0 395:1.0 2019:1.0 6177:1.0 1238:4.0 155:2.0 1782:2.0 699:1.0 936:1.0 697:1.0 2875:1.0 926:1.0 652:56.0 2583:1.0 444:1.0 2006:2.0 645:2.0 1263:1.0 1533:1.0 3908:1.0 1984:2.0 8447:6.0 665:1.0 11095:1.0 6424:1.0 1276:1.0 2092:3.0 2840:1.0 4246:2.0 196:12.0 4324:1.0 1010:1.0 737:2.0 13551:1.0 1012:7.0 743:1.0 1979:1.0 1166:9.0 762:2.0 221:1.0 767:1.0 9667:1.0 219:3.0 1175:2.0 214:28.0 2665:1.0 9675:3.0 210:3.0 449:14.0 715:1.0 3370:1.0 2642:10.0 3850:1.0 234:1.0 988:1.0 978:11.0 979:5.0 501:5.0 230:1.0 10202:1.0 707:1.0 502:11.0 1675:2.0 729:3.0 1924:1.0 2149:1.0 734:1.0 13222:37.0 10552:2.0 243:1.0 9951:6.0 483:3.0 13771:155.0 14030:-1.0 
1.0 1.0 1.0 0.08831914542538183 1.0 1.0 1.0 1.0 304:2.0 2204:1.0 99:6.0 3055:21.0 97:1.0 110:8.0 79:2.0 2946:2.0 424:3.0 1116:1.0 6177:2.0 292:4.0 1387:4.0 537:5.0 1555:6.0 120:2.0 14030:-1.0 
1.0 1.0 1.0 0.7339814428317605 1.0 1.0 1.0 1.0 136:1.0 4264:1.0 8:1.0 558:1.0 2042:8.0 1116:8.0 155:3.0 1113:1.0 1114:2.0 25:2.0 652:1.0 1252:3.0 309:1.0 38:1.0 3669:1.0 46:1.0 794:2.0 289:2.0 1993:1.0 11434:4.0 2843:1.0 2840:1.0 2487:3.0 343:1.0 8743:1.0 2129:1.0 12802:1.0 1309:1.0 737:1.0 7217:1.0 347:1.0 1012:1.0 73:1.0 346:3.0 1166:3.0 2253:1.0 762:1.0 4929:1.0 1714:1.0 334:1.0 454:1.0 208:1.0 90:4.0 1820:1.0 3850:1.0 234:2.0 8097:3.0 5795:1.0 581:2.0 5404:1.0 978:2.0 2170:2.0 730:1.0 2283:2.0 1084:1.0 722:1.0 481:2.0 121:1.0 726:2.0 13771:1.0 14030:-1.0 
1.0 1.0 1.0 0.4545891000758438 1.0 1.0 1.0 1.0 548:2.0 2506:1.0 200:1.0 612:1.0 545:1.0 1711:1.0 1010:1.0 349:3.0 2922:5.0 2438:1.0 895:2.0 135:14.0 14:16.0 15:2.0 10447:5.0 84:1.0 19:2.0 396:2.0 753:3.0 1287:2.0 4459:1.0 389:1.0 1480:2.0 4574:1.0 13508:2.0 581:3.0 2819:1.0 172:2.0 1601:1.0 47:1.0 590:1.0 51:8.0 729:2.0 730:2.0 2223:1.0 292:3.0 665:2.0 2901:1.0 1084:1.0 127:2.0 121:1.0 120:3.0 422:1.0 14030:-1.0 
0.9428732218581023 0.897668993389107 0.7444407108442297 0.21679145519444964 0.388964430835221 0.7578310968325174 0.8504425937455672 0.15828377227673557 5:44.0 8:59.0 556:1.0 14:8.0 15:2.0 566:5.0 1116:2.0 19:15.0 1119:1.0 2728:2.0 812:1.0 24:2.0 810:2.0 517:1.0 304:2.0 38:6.0 312:28.0 317:1.0 47:23.0 1389:2.0 49:1.0 48:3.0 534:1.0 292:7.0 54:14.0 541:1.0 1143:4.0 537:1.0 60:2.0 1582:1.0 70:1.0 71:6.0 349:2.0 79:4.0 617:1.0 347:1.0 346:2.0 85:13.0 87:4.0 86:1.0 8084:1.0 93:1.0 3057:1.0 91:5.0 328:1.0 372:4.0 849:2.0 99:32.0 97:76.0 584:1.0 110:1.0 589:1.0 104:2.0 3233:1.0 359:2.0 1802:3.0 353:1.0 837:1.0 1795:1.0 121:12.0 120:55.0 687:1.0 410:1.0 1762:1.0 1766:11.0 5018:1.0 412:6.0 951:1.0 135:4.0 404:4.0 155:2.0 151:1.0 1252:2.0 925:1.0 444:2.0 3919:3.0 172:1.0 2011:1.0 166:1.0 439:1.0 164:1.0 11307:1.0 4606:1.0 2678:8.0 737:5.0 1012:1.0 1166:9.0 214:3.0 753:1.0 449:14.0 510:11.0 235:1.0 234:8.0 978:5.0 501:1.0 3122:1.0 707:1.0 729:2.0 969:7.0 495:1.0 253:12.0 3390:1.0 1694:1.0 243:2.0 3587:1.0 241:3.0 14030:-1.0 
1.0 1.0 1.0 0.5947924298755074 1.0 1.0 1.0 1.0 1641:1.0 5:2.0 412:3.0 8:1.0 559:2.0 1639:1.0 14:1.0 135:3.0 284:1.0 1116:9.0 1238:1.0 21:1.0 24:2.0 264:1.0 389:1.0 12765:2.0 4233:1.0 304:1.0 1135:1.0 38:3.0 164:2.0 51:1.0 48:2.0 54:3.0 666:1.0 3177:1.0 298:1.0 737:1.0 349:1.0 616:1.0 78:2.0 1012:4.0 84:1.0 325:1.0 7820:1.0 2395:2.0 209:1.0 91:5.0 878:1.0 90:2.0 2777:1.0 577:1.0 99:9.0 1666:1.0 1188:2.0 9724:9.0 378:3.0 356:1.0 358:1.0 3713:2.0 734:1.0 112:1.0 1073:1.0 121:1.0 241:2.0 14030:-1.0 
1.0 1.0 1.0 0.5138323792492976 1.0 1.0 1.0 1.0 137:2.0 412:1.0 7:1.0 197:1.0 616:1.0 400:1.0 1012:2.0 135:5.0 14:10.0 1704:6.0 84:1.0 19:3.0 563:2.0 699:1.0 25:6.0 214:4.0 652:1.0 372:1.0 38:2.0 1613:2.0 99:1.0 581:1.0 853:1.0 707:1.0 1678:2.0 1125:1.0 2228:1.0 164:2.0 356:13.0 293:1.0 1211:1.0 243:1.0 241:2.0 14030:-1.0 
1.0 1.0 1.0 0.3474136422110593 1.0 1.0 1.0 1.0 3218:2.0 11105:1.0 414:1.0 4069:7.0 1309:1.0 1572:2.0 78:2.0 349:2.0 79:1.0 1012:12.0 73:17.0 14:5.0 135:2.0 284:6.0 15:1.0 1979:5.0 84:1.0 7814:1.0 1289:1.0 335:1.0 4091:1.0 3411:2.0 88:6.0 688:2.0 652:5.0 372:1.0 38:12.0 2577:1.0 99:1.0 42:1.0 312:2.0 47:1.0 3908:1.0 1120:1.0 49:1.0 594:1.0 534:1.0 2149:1.0 2428:2.0 183:1.0 14030:-1.0 
1.0 1.0 1.0 0.20121985392073913 1.0 1.0 1.0 1.0 3521:4.0 545:5.0 135:14.0 14:10.0 15:4.0 284:6.0 4867:2.0 24:4.0 12415:1.0 268:5.0 151:6.0 304:1.0 38:1.0 444:1.0 39:1.0 172:1.0 312:2.0 434:6.0 47:21.0 51:3.0 1389:1.0 289:2.0 1148:1.0 188:1.0 2268:1.0 3218:3.0 71:1.0 201:5.0 65:1.0 200:6.0 351:1.0 1010:1.0 349:1.0 7940:1.0 79:13.0 5431:1.0 1166:20.0 1569:1.0 85:1.0 87:2.0 765:1.0 214:1.0 12828:5.0 878:1.0 510:19.0 99:1.0 581:1.0 4435:5.0 978:1.0 110:1.0 380:3.0 104:18.0 1202:1.0 495:1.0 253:1.0 1085:3.0 837:1.0 1316:1.0 243:1.0 120:1.0 727:9.0 14030:-1.0 
1.0 1.0 1.0 0.6206135961807645 1.0 1.0 1.0 1.0 682:1.0 282:1.0 1906:3.0 14:3.0 15:11.0 284:2.0 560:1.0 690:1.0 149:1.0 652:1.0 1731:4.0 4781:1.0 175:7.0 38:6.0 444:1.0 3679:1.0 42:1.0 1127:1.0 312:1.0 1260:1.0 46:2.0 47:1.0 289:1.0 1387:2.0 1618:1.0 11045:1.0 5915:1.0 1156:1.0 612:2.0 349:1.0 1012:1.0 73:6.0 85:1.0 221:1.0 2798:1.0 214:1.0 753:1.0 449:4.0 1720:1.0 3370:12.0 715:3.0 1817:12.0 12844:3.0 1676:1.0 3982:1.0 6620:1.0 491:1.0 112:1.0 837:1.0 246:5.0 241:3.0 14030:-1.0 
1.0 1.0 1.0 0.8061398548080183 1.0 1.0 1.0 1.0 70:6.0 2035:2.0 884:1.0 196:1.0 559:3.0 1027:3.0 1639:4.0 404:7.0 9555:2.0 621:1.0 1117:1.0 1000:1.0 4525:2.0 869:1.0 697:1.0 4019:5.0 996:1.0 1654:9.0 2031:1.0 448:1.0 1942:1.0 790:1.0 788:2.0 579:2.0 512:2.0 1546:2.0 1188:1.0 12844:1.0 8505:2.0 706:2.0 670:1.0 8623:3.0 1802:4.0 1869:1.0 364:1.0 963:2.0 2637:1.0 13333:3.0 14030:-1.0 
1.0 1.0 1.0 1.0 1.0 1.0 1.0 1.0 137:1.0 883:3.0 38:3.0 581:1.0 412:1.0 1008:2.0 558:1.0 135:1.0 14:6.0 2047:1.0 164:3.0 395:1.0 87:1.0 7814:1.0 535:5.0 48:1.0 334:1.0 1486:1.0 24:3.0 1211:1.0 452:1.0 1648:1.0 1182:1.0 6025:1.0 14030:-1.0 
0.6089060145723206 0.9812391878018255 0.4178214251309061 0.20050851420124524 0.0 0.8235974223813431 0.8235101726907613 0.0 1641:1.0 5:2.0 8:18.0 831:23.0 1639:8.0 285:2.0 5485:6.0 1116:2.0 1359:1.0 563:1.0 790:6.0 512:5.0 1131:2.0 311:9.0 47:13.0 289:2.0 292:11.0 54:24.0 3767:2.0 70:2.0 5915:4.0 612:3.0 889:2.0 351:6.0 349:1.0 2501:104.0 78:1.0 347:1.0 73:7.0 85:12.0 372:5.0 849:1.0 1551:1.0 579:3.0 99:4.0 1817:14.0 5404:4.0 1547:1.0 12844:2.0 1332:2.0 104:2.0 2530:2.0 1564:4.0 358:1.0 1802:1.0 596:2.0 364:2.0 1314:1.0 1073:1.0 121:5.0 2759:1.0 410:1.0 2314:1.0 1231:1.0 2620:44.0 8657:12.0 1238:4.0 155:1.0 697:1.0 1486:37.0 1788:1.0 926:3.0 652:5.0 925:23.0 922:2.0 2101:4.0 4224:14.0 9389:1.0 2110:1.0 164:5.0 186:138.0 424:8.0 1984:2.0 5029:1.0 2092:2.0 896:2.0 1968:1.0 748:1.0 737:1.0 1000:1.0 208:1.0 2670:6.0 996:8.0 449:5.0 210:2.0 3370:15.0 715:2.0 501:1.0 706:8.0 8623:8.0 491:1.0 734:1.0 13222:1.0 13773:3.0 1694:1.0 961:1.0 1452:25.0 240:1.0 3857:1.0 241:1.0 14030:-1.0 
1.0 1.0 1.0 0.29350581206718823 1.0 1.0 1.0 1.0 881:3.0 70:3.0 5915:4.0 5:1.0 351:1.0 2262:2.0 78:2.0 2620:6.0 79:1.0 73:1.0 5485:14.0 85:1.0 154:3.0 13853:13.0 2670:1.0 449:1.0 389:1.0 926:2.0 790:1.0 38:1.0 581:1.0 4224:2.0 376:1.0 164:1.0 1564:1.0 358:1.0 54:4.0 11095:1.0 3932:1.0 364:22.0 1795:1.0 2092:6.0 362:2.0 14030:-1.0 
0.7251785781930838 0.9738920206136009 0.5444291066588426 0.19808067994357523 0.11248023338444509 0.8281220098227218 0.8258332332133256 0.0 5:4.0 8256:12.0 4137:2.0 2432:6.0 1095:2.0 11232:8.0 14:20.0 1116:16.0 3810:6.0 19:16.0 560:4.0 25:18.0 24:48.0 789:18.0 519:2.0 38:78.0 2239:8.0 514:4.0 311:6.0 42:2.0 12636:2.0 6000:2.0 798:16.0 1127:2.0 46:2.0 47:6.0 1389:4.0 289:8.0 7905:4.0 48:30.0 1387:2.0 777:2.0 1622:6.0 1582:2.0 2270:2.0 351:4.0 78:4.0 79:112.0 617:2.0 346:2.0 73:42.0 85:2.0 84:6.0 87:4.0 2245:2.0 88:26.0 877:2.0 91:4.0 90:6.0 372:8.0 1821:2.0 849:6.0 580:2.0 581:2.0 1546:2.0 5940:8.0 1536:2.0 104:4.0 118:2.0 3232:4.0 353:2.0 837:10.0 601:4.0 127:2.0 4731:2.0 9815:2.0 121:4.0 3029:2.0 687:2.0 140:2.0 412:2.0 2860:32.0 1231:2.0 400:1.0 151:2.0 652:4.0 1731:2.0 2006:2.0 175:2.0 444:6.0 1263:8.0 1533:6.0 3908:4.0 670:6.0 11307:6.0 189:2.0 4791:2.0 10126:2.0 183:2.0 200:4.0 3637:4.0 1012:4.0 1965:2.0 2665:6.0 2670:2.0 449:2.0 210:2.0 1669:4.0 7738:2.0 2170:6.0 6075:2.0 495:2.0 969:2.0 2149:2.0 734:2.0 1920:2.0 962:2.0 1211:2.0 1688:2.0 241:2.0 14030:-1.0 
1.0 1.0 1.0 1.0 1.0 1.0 1.0 1.0 927:1.0 581:1.0 490:1.0 1965:1.0 14030:-1.0 
1.0 1.0 1.0 0.7989855687372484 1.0 1.0 1.0 1.0 1035:2.0 235:1.0 3643:1.0 798:5.0 617:1.0 47:1.0 589:8.0 73:5.0 284:1.0 357:1.0 1169:9.0 12063:2.0 8345:1.0 541:5.0 1140:3.0 121:5.0 14030:-1.0 
1.0 1.0 1.0 1.0 1.0 1.0 1.0 1.0 71:1.0 1546:1.0 3605:1.0 2125:1.0 2688:1.0 1287:1.0 135:1.0 14:1.0 1284:1.0 14030:-1.0 
1.0 1.0 1.0 0.2076862748325546 1.0 1.0 1.0 1.0 410:3.0 682:1.0 5:4.0 412:2.0 829:1.0 135:5.0 14:19.0 827:1.0 1238:1.0 699:6.0 25:1.0 934:1.0 149:1.0 652:1.0 1731:1.0 38:1.0 445:1.0 311:9.0 798:6.0 312:2.0 1125:5.0 527:1.0 164:5.0 51:2.0 535:1.0 48:13.0 292:17.0 5569:2.0 4120:21.0 2568:12.0 1972:1.0 2270:1.0 71:9.0 349:1.0 895:4.0 13547:1.0 84:2.0 87:6.0 1005:1.0 214:12.0 5057:1.0 330:7.0 210:1.0 1047:2.0 1284:4.0 372:1.0 849:7.0 715:1.0 581:1.0 1546:8.0 380:1.0 979:1.0 12844:1.0 502:1.0 12572:5.0 496:1.0 104:1.0 353:7.0 490:8.0 2429:1.0 722:2.0 243:2.0 14030:-1.0 
1.0 1.0 1.0 0.22613157469362005 1.0 1.0 1.0 1.0 9768:1.0 5:1.0 8256:3.0 4137:1.0 824:1.0 285:2.0 14:2.0 284:4.0 566:3.0 1116:4.0 2734:1.0 3810:2.0 19:36.0 560:25.0 1353:1.0 25:18.0 266:1.0 24:2.0 29:1.0 28:1.0 810:1.0 30:1.0 516:1.0 512:1.0 312:1.0 1601:3.0 2946:2.0 47:1.0 51:1.0 289:1.0 48:1.0 4658:2.0 292:12.0 54:2.0 1387:1.0 297:1.0 8793:3.0 299:1.0 537:5.0 2961:1.0 12594:1.0 883:1.0 71:2.0 884:1.0 612:2.0 351:5.0 349:2.0 890:1.0 79:14.0 347:1.0 85:6.0 1596:1.0 1833:4.0 1295:1.0 2798:1.0 3070:1.0 4019:2.0 88:1.0 2512:1.0 91:3.0 372:11.0 1064:1.0 97:4.0 110:1.0 381:2.0 12844:5.0 587:1.0 2293:1.0 9587:1.0 105:4.0 1802:1.0 353:2.0 2276:3.0 2757:1.0 1221:1.0 2032:1.0 7535:1.0 682:1.0 412:1.0 5629:3.0 135:1.0 2616:1.0 395:1.0 1238:1.0 2324:1.0 697:2.0 2029:1.0 149:8.0 1480:1.0 444:2.0 645:1.0 1737:3.0 2345:1.0 188:25.0 666:1.0 3932:2.0 183:1.0 2092:1.0 2841:1.0 200:1.0 203:1.0 1163:1.0 737:3.0 1166:4.0 218:1.0 3620:1.0 214:5.0 994:1.0 215:1.0 452:1.0 753:2.0 2120:1.0 1723:1.0 210:4.0 449:4.0 1183:1.0 2642:2.0 230:1.0 502:2.0 5535:1.0 968:1.0 253:1.0 2145:1.0 5509:1.0 483:10.0 13771:2.0 14030:-1.0 
1.0 1.0 1.0 0.4275110753312784 1.0 1.0 1.0 1.0 410:1.0 2135:1.0 5:1.0 5915:8.0 8256:3.0 8:1.0 1435:13.0 2501:3.0 78:2.0 73:4.0 1772:1.0 1116:1.0 19:6.0 1113:1.0 4208:2.0 22:1.0 24:1.0 1486:5.0 2670:1.0 790:2.0 789:2.0 849:1.0 3370:6.0 715:3.0 581:2.0 1817:7.0 312:1.0 47:1.0 4229:13.0 1802:9.0 661:4.0 1618:1.0 1215:3.0 241:1.0 14030:-1.0 
1.0 1.0 1.0 0.4221524695847353 1.0 1.0 1.0 1.0 414:1.0 5:14.0 412:2.0 402:8.0 831:1.0 14:4.0 284:1.0 1116:7.0 1359:2.0 697:1.0 24:1.0 38:1.0 167:1.0 166:1.0 164:5.0 51:1.0 669:1.0 48:2.0 292:4.0 299:5.0 183:1.0 4125:1.0 2688:1.0 70:1.0 71:1.0 612:1.0 737:1.0 1010:1.0 1012:3.0 347:1.0 1049:4.0 85:1.0 1291:1.0 84:1.0 87:3.0 457:1.0 93:1.0 334:1.0 214:1.0 753:1.0 999:2.0 372:1.0 99:4.0 111:1.0 106:2.0 357:2.0 730:1.0 1452:1.0 121:2.0 120:7.0 241:1.0 14030:-1.0 
1.0 1.0 1.0 1.0 1.0 1.0 1.0 1.0 85:1.0 593:3.0 304:1.0 1731:1.0 38:1.0 73:1.0 14030:-1.0 
1.0 1.0 1.0 1.0 1.0 1.0 1.0 1.0 410:3.0 1990:1.0 24:1.0 2501:4.0 14030:-1.0 
1.0 1.0 1.0 0.43896885844573263 1.0 1.0 1.0 1.0 687:1.0 304:1.0 715:1.0 292:3.0 3119:24.0 612:1.0 380:1.0 14:3.0 895:2.0 389:1.0 241:1.0 14030:-1.0 
1.0 1.0 1.0 1.0 1.0 1.0 1.0 1.0 102:1.0 790:1.0 71:5.0 38:7.0 581:1.0 12844:1.0 526:2.0 11112:2.0 3635:3.0 73:1.0 535:1.0 87:1.0 9277:2.0 4019:1.0 560:5.0 127:2.0 214:4.0 120:1.0 14030:-1.0 
1.0 1.0 1.0 1.0 1.0 1.0 1.0 1.0 1699:3.0 14030:-1.0 
1.0 1.0 1.0 0.88414529853435 1.0 1.0 1.0 1.0 1582:1.0 137:1.0 2033:1.0 5:2.0 5619:2.0 616:1.0 4325:2.0 1639:8.0 14:1.0 895:2.0 259:1.0 84:2.0 19:3.0 87:2.0 3748:3.0 457:1.0 93:1.0 934:1.0 996:1.0 1047:4.0 926:1.0 5950:1.0 3605:3.0 42:1.0 230:1.0 164:1.0 48:1.0 292:9.0 1211:4.0 14030:-1.0 
1.0 1.0 1.0 0.49576659982782745 1.0 1.0 1.0 1.0 71:1.0 682:1.0 7:6.0 197:2.0 1435:1.0 199:1.0 616:1.0 895:1.0 14:8.0 135:3.0 395:1.0 87:4.0 2730:2.0 80:1.0 93:1.0 810:1.0 91:1.0 440:3.0 1135:1.0 510:11.0 175:1.0 38:1.0 5527:1.0 991:1.0 1732:1.0 581:1.0 39:1.0 368:1.0 2783:1.0 718:2.0 97:1.0 2649:1.0 162:3.0 587:1.0 1675:1.0 164:1.0 3656:1.0 51:4.0 730:1.0 358:1.0 253:11.0 359:1.0 1802:1.0 2901:1.0 2361:1.0 241:1.0 422:1.0 14030:-1.0 
1.0 1.0 1.0 0.22226749426961362 1.0 1.0 1.0 1.0 1582:4.0 3218:2.0 71:12.0 200:1.0 2444:12.0 559:3.0 46:1.0 743:20.0 1012:7.0 166:1.0 104:1.0 14:6.0 284:1.0 1979:10.0 51:1.0 292:3.0 1316:3.0 29:2.0 14030:-1.0 
1.0 1.0 1.0 1.0 1.0 1.0 1.0 1.0 71:2.0 581:1.0 78:1.0 1303:2.0 14:1.0 395:2.0 3656:1.0 19:1.0 87:7.0 292:2.0 1802:2.0 754:1.0 24:2.0 11918:2.0 2029:4.0 1720:1.0 120:1.0 2093:3.0 14030:-1.0 
1.0 1.0 1.0 0.22962752695542568 1.0 1.0 1.0 1.0 4536:1.0 548:2.0 952:1.0 1647:2.0 5:2.0 412:1.0 681:1.0 14:9.0 135:5.0 15:3.0 395:3.0 2734:2.0 19:1.0 2731:1.0 396:1.0 25:1.0 693:26.0 2029:5.0 149:6.0 810:1.0 151:1.0 689:5.0 304:1.0 1135:1.0 312:1.0 1125:1.0 1260:1.0 9389:2.0 3561:2.0 521:1.0 47:1.0 2228:2.0 164:3.0 535:1.0 534:1.0 292:20.0 656:6.0 1275:1.0 1582:1.0 71:2.0 5915:1.0 349:1.0 5153:2.0 1846:1.0 79:4.0 347:2.0 895:4.0 2253:1.0 84:5.0 87:4.0 218:2.0 214:15.0 8459:1.0 1047:1.0 91:3.0 90:1.0 1187:1.0 9117:1.0 510:1.0 578:3.0 1820:1.0 581:5.0 99:1.0 97:1.0 370:1.0 110:1.0 8505:2.0 253:1.0 112:1.0 2429:5.0 246:6.0 1211:1.0 365:2.0 1316:6.0 240:1.0 121:1.0 241:2.0 120:5.0 14030:-1.0 
1.0 1.0 1.0 0.16146976358550247 1.0 0.9031891963583376 0.8800175999320026 1.0 137:1.0 10046:1.0 201:1.0 3523:4.0 5:1.0 2984:1.0 412:1.0 1711:17.0 2922:10.0 349:1.0 79:1.0 135:20.0 14:62.0 19:5.0 3000:1.0 2728:1.0 13375:2.0 25:1.0 214:1.0 934:5.0 328:2.0 91:1.0 689:7.0 38:3.0 581:1.0 2819:1.0 312:4.0 356:3.0 51:3.0 1508:1.0 289:3.0 1567:1.0 3868:1.0 534:1.0 292:10.0 112:1.0 1380:2.0 422:50.0 14030:-1.0 
1.0 1.0 1.0 0.26608594643348454 1.0 1.0 1.0 1.0 410:5.0 70:6.0 3218:2.0 414:2.0 201:1.0 200:19.0 412:1.0 2070:1.0 2444:1.0 559:14.0 1012:2.0 135:2.0 14:10.0 1979:9.0 84:1.0 21:1.0 2728:1.0 261:1.0 24:1.0 752:1.0 690:1.0 1287:10.0 1047:1.0 849:1.0 3195:1.0 38:1.0 798:9.0 312:1.0 43:1.0 4719:4.0 1675:1.0 2149:1.0 4795:1.0 292:3.0 770:2.0 4241:1.0 1618:2.0 121:1.0 14030:-1.0 
1.0 1.0 1.0 0.6901757584385205 1.0 1.0 1.0 1.0 926:2.0 3370:1.0 70:4.0 311:3.0 351:1.0 78:1.0 2501:6.0 2620:1.0 79:4.0 73:1.0 47:2.0 404:1.0 1116:8.0 3597:3.0 566:1.0 1238:1.0 3932:1.0 1412:1.0 13222:7.0 1486:2.0 28:1.0 1287:2.0 13771:1.0 1827:4.0 14030:-1.0 
1.0 1.0 1.0 0.16318011100807267 1.0 1.0 1.0 1.0 2991:1.0 682:2.0 2984:2.0 5:3.0 3055:2.0 2382:1.0 8200:1.0 895:2.0 14:45.0 19:7.0 2384:11.0 214:2.0 3211:1.0 208:2.0 877:1.0 996:1.0 1047:1.0 151:1.0 4458:2.0 1407:2.0 715:2.0 1544:1.0 1131:7.0 3433:2.0 311:8.0 1546:7.0 1547:1.0 2783:1.0 3737:3.0 51:22.0 535:2.0 1567:1.0 534:2.0 292:40.0 488:1.0 768:1.0 2901:2.0 1316:20.0 300:3.0 243:6.0 121:1.0 1622:1.0 11777:1.0 120:1.0 14030:-1.0 
1.0 1.0 1.0 1.0 1.0 1.0 1.0 1.0 410:1.0 2217:1.0 444:1.0 4134:1.0 2239:1.0 43:1.0 335:1.0 5630:1.0 1012:1.0 210:1.0 284:1.0 14030:-1.0 
1.0 1.0 1.0 1.0 1.0 1.0 1.0 1.0 410:1.0 1582:3.0 501:1.0 798:2.0 312:3.0 1572:1.0 1012:3.0 743:2.0 73:1.0 895:1.0 14:2.0 1979:3.0 1166:2.0 8358:1.0 284:4.0 13886:2.0 48:1.0 292:3.0 734:1.0 24:4.0 214:1.0 389:2.0 241:1.0 14030:-1.0 
0.8596009557426418 0.9403548711773747 0.6890182248541119 0.18969549782831072 0.2894818029445683 0.8017609051251079 0.8063351741491798 0.009384387356968431 5:8.0 2432:1.0 14:9.0 566:1.0 1116:1.0 19:1.0 8519:24.0 560:28.0 25:1.0 266:1.0 24:5.0 4370:2.0 304:2.0 789:5.0 38:35.0 309:1.0 2239:1.0 42:1.0 798:11.0 312:19.0 4652:1.0 51:4.0 1389:1.0 289:1.0 4663:1.0 48:2.0 292:3.0 1387:4.0 541:2.0 2482:3.0 1622:1.0 70:2.0 78:8.0 2501:6.0 79:1.0 617:4.0 73:32.0 346:4.0 1302:1.0 85:1.0 84:1.0 82:3.0 12006:1.0 5170:114.0 334:1.0 1042:1.0 102:6.0 372:7.0 849:4.0 100:2.0 580:1.0 99:3.0 1546:6.0 1817:7.0 105:6.0 837:1.0 127:1.0 121:22.0 410:13.0 414:2.0 697:1.0 1486:9.0 146:1.0 2329:1.0 690:1.0 2030:1.0 151:2.0 926:2.0 652:21.0 1731:1.0 2577:2.0 645:3.0 4768:1.0 12508:1.0 8447:3.0 178:1.0 13045:15.0 183:2.0 3171:1.0 2674:8.0 737:2.0 1011:1.0 1000:2.0 767:1.0 219:8.0 1965:1.0 754:2.0 5056:1.0 214:1.0 449:6.0 8639:47.0 230:1.0 10202:1.0 6476:2.0 496:5.0 3597:1.0 8623:6.0 490:1.0 246:1.0 962:1.0 1688:1.0 241:3.0 14030:-1.0 
1.0 1.0 1.0 0.4980009185519647 1.0 1.0 1.0 1.0 10046:2.0 71:8.0 1341:1.0 445:1.0 162:2.0 4622:1.0 14:12.0 135:14.0 284:4.0 15:1.0 2561:1.0 11095:1.0 1143:2.0 214:4.0 4025:4.0 389:1.0 151:5.0 120:1.0 14030:-1.0 
1.0 1.0 1.0 0.3477361341353951 1.0 1.0 1.0 1.0 410:3.0 2444:2.0 559:4.0 1639:2.0 14:18.0 135:7.0 284:4.0 1116:7.0 689:1.0 926:1.0 13871:1.0 3195:1.0 38:1.0 512:1.0 2819:1.0 42:1.0 798:2.0 47:1.0 164:1.0 534:7.0 4658:1.0 2568:1.0 422:1.0 2268:1.0 206:1.0 3055:2.0 612:1.0 3088:1.0 78:1.0 2922:4.0 349:2.0 73:7.0 221:1.0 869:2.0 4208:1.0 4019:1.0 214:1.0 449:2.0 715:2.0 581:3.0 382:1.0 1675:1.0 969:1.0 1802:2.0 8623:1.0 2901:2.0 1211:1.0 1316:1.0 1452:4.0 13771:1.0 14030:-1.0 
1.0 1.0 1.0 0.28399697492842724 1.0 1.0 1.0 1.0 12599:1.0 1971:1.0 2382:1.0 78:1.0 10:1.0 951:10.0 14:11.0 15:1.0 85:2.0 2052:1.0 4019:8.0 208:1.0 1790:1.0 4517:2.0 877:4.0 810:1.0 715:2.0 581:1.0 99:2.0 311:2.0 42:1.0 798:1.0 382:1.0 3737:2.0 1675:1.0 104:6.0 493:3.0 51:11.0 289:1.0 670:2.0 534:5.0 770:1.0 292:10.0 3712:1.0 189:2.0 300:2.0 243:4.0 61:1.0 121:1.0 120:23.0 14030:-1.0 
1.0 1.0 1.0 0.4738314156005976 1.0 1.0 1.0 1.0 512:1.0 581:2.0 5:3.0 3055:1.0 612:1.0 412:4.0 748:1.0 37:1.0 381:5.0 5153:1.0 2620:5.0 11451:2.0 14:3.0 135:1.0 51:4.0 730:1.0 292:2.0 455:1.0 299:19.0 1316:1.0 14030:-1.0 
1.0 1.0 1.0 0.4783968271410435 1.0 1.0 1.0 1.0 5:2.0 682:2.0 412:4.0 1219:1.0 9200:1.0 14:5.0 135:11.0 13728:2.0 699:2.0 560:1.0 4274:1.0 1485:1.0 444:1.0 4224:1.0 1601:2.0 1127:1.0 1125:5.0 47:1.0 164:3.0 51:1.0 535:1.0 292:6.0 4054:1.0 896:2.0 1622:1.0 2270:2.0 71:9.0 612:1.0 8200:1.0 469:1.0 736:2.0 87:12.0 4019:1.0 214:2.0 753:2.0 10522:1.0 234:1.0 99:2.0 2783:1.0 4983:2.0 1547:2.0 381:1.0 591:9.0 2149:1.0 359:2.0 8623:1.0 246:2.0 1077:1.0 241:2.0 14030:-1.0 
1.0 1.0 1.0 1.0 1.0 1.0 1.0 1.0 71:2.0 5:8.0 1309:1.0 889:2.0 895:1.0 4200:1.0 2458:3.0 87:3.0 19:2.0 1114:1.0 25:1.0 24:1.0 454:2.0 753:1.0 693:1.0 2029:2.0 926:3.0 1610:1.0 38:2.0 581:1.0 798:1.0 4379:1.0 1389:1.0 252:2.0 292:2.0 490:1.0 1211:1.0 3025:1.0 656:1.0 121:1.0 14030:-1.0 
1.0 1.0 1.0 1.0 1.0 1.0 1.0 1.0 3855:2.0 38:1.0 581:1.0 1010:1.0 3008:1.0 79:1.0 892:1.0 14:5.0 4594:1.0 48:1.0 191:1.0 188:1.0 2901:1.0 690:1.0 389:2.0 1047:1.0 151:2.0 14030:-1.0 
1.0 1.0 1.0 0.3665483693847546 1.0 1.0 1.0 1.0 137:5.0 1582:2.0 681:1.0 545:1.0 197:4.0 678:1.0 895:1.0 14:11.0 135:8.0 85:1.0 2928:1.0 869:3.0 214:1.0 2029:1.0 1287:6.0 389:1.0 652:3.0 581:8.0 1613:1.0 311:1.0 97:1.0 42:1.0 312:2.0 914:1.0 292:8.0 112:1.0 1618:1.0 121:3.0 14030:-1.0 
1.0 1.0 1.0 1.0 1.0 1.0 1.0 1.0 1582:2.0 1309:1.0 678:1.0 949:3.0 4072:1.0 78:1.0 221:1.0 563:1.0 1651:1.0 9371:2.0 2029:1.0 149:2.0 389:1.0 1284:2.0 90:2.0 652:1.0 38:1.0 581:2.0 39:1.0 1666:2.0 1056:1.0 46:2.0 1389:1.0 289:1.0 292:1.0 14030:-1.0 
1.0 1.0 1.0 1.0 1.0 1.0 1.0 1.0 2614:1.0 70:1.0 559:1.0 616:1.0 12788:2.0 557:1.0 1012:2.0 743:2.0 1639:1.0 14:1.0 135:1.0 1979:1.0 621:7.0 284:1.0 84:1.0 325:1.0 563:1.0 25:2.0 4028:1.0 3894:1.0 12765:3.0 927:1.0 175:2.0 501:2.0 164:1.0 1211:1.0 14030:-1.0 
1.0 1.0 1.0 0.5765704024318223 1.0 1.0 1.0 1.0 3370:9.0 70:1.0 715:8.0 849:1.0 2612:1.0 1341:6.0 1817:6.0 42:2.0 617:2.0 1433:1.0 79:1.0 73:1.0 48:1.0 29:8.0 14030:-1.0 
1.0 1.0 1.0 1.0 1.0 1.0 1.0 1.0 790:2.0 535:1.0 2149:1.0 38:1.0 1817:8.0 560:1.0 351:2.0 2670:2.0 73:1.0 14030:-1.0 
1.0 1.0 1.0 0.13149995709886053 1.0 1.0 1.0 1.0 71:4.0 5:1.0 1309:2.0 197:1.0 1435:2.0 616:1.0 1030:2.0 135:3.0 14:1.0 87:1.0 1412:2.0 389:4.0 440:22.0 2582:2.0 519:4.0 368:1.0 2101:2.0 311:1.0 718:1.0 2403:2.0 434:1.0 2829:1.0 1125:4.0 3656:24.0 253:15.0 292:8.0 1085:4.0 2901:1.0 126:1.0 14030:-1.0 
1.0 1.0 1.0 1.0 1.0 1.0 1.0 1.0 85:1.0 1389:1.0 510:1.0 3218:2.0 172:1.0 312:1.0 135:1.0 14:7.0 284:6.0 14030:-1.0 
1.0 1.0 1.0 1.0 1.0 1.0 1.0 1.0 881:1.0 1035:7.0 5:1.0 889:4.0 4532:2.0 14:2.0 135:3.0 87:2.0 4212:1.0 699:3.0 3967:1.0 214:2.0 693:1.0 1720:1.0 2788:1.0 926:1.0 1733:1.0 311:3.0 4983:1.0 312:1.0 798:1.0 8505:1.0 1260:2.0 4445:1.0 47:2.0 164:2.0 2229:1.0 246:2.0 1316:2.0 656:1.0 240:4.0 14030:-1.0 
1.0 1.0 1.0 0.2995311018165159 1.0 1.0 1.0 1.0 1372:1.0 278:1.0 737:5.0 349:2.0 616:3.0 1012:4.0 13:1.0 2259:3.0 395:1.0 84:2.0 566:1.0 8084:1.0 325:1.0 334:1.0 1651:1.0 9371:1.0 24:1.0 146:1.0 264:1.0 214:2.0 149:7.0 91:30.0 2473:1.0 372:1.0 304:1.0 38:3.0 309:1.0 234:1.0 99:5.0 42:1.0 312:1.0 501:2.0 43:1.0 704:2.0 1399:1.0 3008:3.0 2104:2.0 46:1.0 3262:1.0 166:1.0 164:2.0 50:3.0 255:1.0 495:2.0 178:1.0 365:1.0 14030:-1.0 
1.0 0.9613839280718703 1.0 0.1082418072918251 1.0 0.8292473693859335 0.8032651430896345 1.0 137:1.0 70:3.0 414:2.0 201:2.0 559:1.0 2922:42.0 347:1.0 135:1.0 14:46.0 85:1.0 25:1.0 214:1.0 690:1.0 1182:1.0 689:11.0 90:1.0 372:2.0 652:8.0 235:1.0 38:19.0 581:5.0 1263:3.0 312:5.0 166:1.0 356:5.0 289:2.0 1389:1.0 292:18.0 541:1.0 1143:2.0 121:1.0 422:39.0 14030:-1.0 
1.0 1.0 1.0 0.08143957561744276 1.0 1.0 1.0 1.0 137:3.0 414:1.0 5915:2.0 1309:1.0 1572:3.0 78:1.0 79:1.0 73:5.0 1636:2.0 85:2.0 6383:1.0 87:1.0 1782:1.0 563:1.0 9667:1.0 560:6.0 1047:6.0 926:1.0 652:5.0 3370:4.0 715:1.0 38:2.0 581:5.0 311:1.0 1546:1.0 1817:6.0 162:1.0 312:5.0 502:12.0 2228:2.0 535:1.0 770:1.0 292:2.0 9277:9.0 12177:13.0 127:3.0 1211:4.0 14030:-1.0 
1.0 1.0 1.0 0.2634092418426926 1.0 0.8272124059893073 0.9601839005822544 1.0 818:8.0 9492:1.0 14:6.0 2199:2.0 2734:6.0 1116:3.0 566:2.0 1119:2.0 19:36.0 565:2.0 560:40.0 2461:1.0 25:4.0 29:2.0 810:10.0 311:1.0 2952:1.0 312:2.0 1601:1.0 46:2.0 47:5.0 289:1.0 49:1.0 48:2.0 9277:1.0 292:22.0 293:3.0 54:9.0 768:1.0 541:2.0 11918:1.0 298:12.0 537:3.0 1582:1.0 71:21.0 884:1.0 3055:1.0 351:15.0 78:2.0 2262:13.0 349:3.0 79:33.0 347:1.0 73:1.0 895:4.0 84:3.0 87:3.0 5170:1.0 372:1.0 1064:1.0 1341:4.0 97:4.0 110:7.0 12844:14.0 3008:1.0 2293:1.0 105:4.0 4716:1.0 3261:2.0 353:10.0 7572:1.0 2757:1.0 361:1.0 121:8.0 120:1.0 1762:2.0 13272:1.0 682:1.0 954:1.0 412:2.0 2622:1.0 11112:1.0 6105:2.0 135:1.0 673:5.0 1238:1.0 697:2.0 934:2.0 149:4.0 1480:1.0 3679:1.0 4508:1.0 1737:1.0 644:1.0 1533:1.0 162:1.0 2345:1.0 3669:1.0 424:8.0 11307:1.0 2568:1.0 3655:2.0 3338:1.0 201:1.0 1699:1.0 203:4.0 199:1.0 1716:1.0 4587:1.0 219:1.0 214:4.0 3620:1.0 5057:1.0 13184:3.0 5549:1.0 510:8.0 234:1.0 10200:1.0 978:5.0 707:3.0 502:4.0 1675:1.0 2899:1.0 3597:2.0 969:1.0 253:2.0 3390:4.0 13222:1.0 961:1.0 2424:1.0 9951:2.0 240:3.0 483:2.0 13771:1.0 14030:-1.0 
1.0 1.0 1.0 0.1517119631887607 1.0 1.0 1.0 1.0 410:4.0 5:1.0 412:2.0 3521:1.0 558:1.0 282:1.0 15:1.0 1116:13.0 2019:2.0 563:1.0 1782:1.0 936:1.0 560:16.0 5715:1.0 29:1.0 2453:1.0 304:4.0 38:6.0 312:1.0 1533:4.0 2108:8.0 1984:2.0 292:2.0 666:2.0 2482:4.0 5915:1.0 2501:3.0 78:2.0 79:1.0 1011:1.0 1012:2.0 347:1.0 73:12.0 895:1.0 1716:1.0 219:37.0 214:12.0 3076:3.0 1045:1.0 978:2.0 3261:1.0 2530:1.0 1674:19.0 11767:2.0 3233:1.0 1924:16.0 596:2.0 837:1.0 13222:1.0 121:1.0 13771:4.0 3029:5.0 14030:-1.0 
1.0 1.0 1.0 1.0 1.0 1.0 1.0 1.0 1640:1.0 70:1.0 578:2.0 5:1.0 1309:1.0 110:1.0 1435:1.0 79:1.0 395:1.0 19:1.0 48:2.0 1802:2.0 24:1.0 3057:1.0 752:1.0 690:2.0 14030:-1.0 
1.0 1.0 1.0 0.35967858388369095 1.0 1.0 1.0 1.0 8634:9.0 1582:1.0 715:12.0 312:3.0 14:12.0 51:1.0 19:5.0 670:2.0 534:8.0 292:1.0 752:13.0 934:2.0 1690:12.0 91:1.0 14030:-1.0 
1.0 1.0 1.0 0.16815748617248513 1.0 0.9746324139749657 0.7966223104718755 1.0 410:40.0 5:2.0 8:2.0 2620:1.0 14:62.0 135:3.0 2199:1.0 1116:11.0 1782:1.0 3000:6.0 560:1.0 3413:1.0 4395:1.0 5718:1.0 652:1.0 304:1.0 175:1.0 2006:2.0 38:2.0 1886:1.0 311:2.0 798:2.0 312:6.0 2829:1.0 2348:1.0 47:1.0 164:1.0 289:1.0 1627:1.0 48:1.0 1990:1.0 10744:1.0 1869:2.0 298:2.0 781:1.0 537:4.0 2092:1.0 883:1.0 5640:1.0 5075:1.0 2501:4.0 2262:4.0 737:1.0 79:3.0 73:21.0 895:2.0 1166:2.0 85:1.0 7482:1.0 1595:1.0 3626:1.0 219:4.0 2245:1.0 5170:1.0 214:2.0 753:2.0 1045:1.0 3350:1.0 4456:1.0 996:1.0 88:1.0 449:1.0 6249:1.0 715:1.0 99:1.0 581:1.0 5404:1.0 97:3.0 3494:1.0 978:6.0 12844:2.0 380:5.0 2170:1.0 1675:1.0 358:1.0 594:5.0 2149:1.0 8623:1.0 353:2.0 596:2.0 1084:4.0 1798:1.0 4731:1.0 6341:1.0 9951:1.0 121:8.0 13771:4.0 14030:-1.0 
1.0 1.0 1.0 0.4680669747445265 1.0 1.0 1.0 1.0 1915:4.0 548:1.0 5:7.0 2438:1.0 285:1.0 135:13.0 14:5.0 1116:3.0 19:2.0 4145:1.0 560:1.0 149:1.0 268:1.0 38:1.0 311:3.0 37:1.0 312:1.0 527:1.0 1125:3.0 2704:1.0 164:2.0 289:1.0 48:1.0 4796:1.0 292:2.0 54:1.0 5443:1.0 71:1.0 612:1.0 1711:1.0 349:1.0 79:1.0 73:3.0 895:1.0 1166:1.0 85:1.0 221:1.0 87:7.0 9667:1.0 2245:1.0 214:6.0 91:1.0 99:1.0 581:2.0 1462:1.0 2649:1.0 501:1.0 229:1.0 104:9.0 1802:2.0 1690:1.0 14030:-1.0 
1.0 1.0 1.0 0.33469551744911513 1.0 1.0 1.0 1.0 410:4.0 5018:1.0 8:12.0 831:2.0 6105:15.0 7763:1.0 2620:5.0 14:4.0 1116:8.0 1486:3.0 5237:1.0 926:1.0 652:2.0 789:1.0 512:4.0 2239:2.0 514:1.0 311:11.0 43:1.0 312:3.0 46:1.0 1389:1.0 1984:4.0 54:2.0 5640:1.0 5915:2.0 2501:8.0 79:5.0 347:1.0 743:21.0 73:13.0 1166:1.0 85:2.0 221:1.0 222:1.0 215:2.0 2670:2.0 88:1.0 6249:1.0 3370:1.0 849:1.0 581:1.0 1817:3.0 5404:9.0 12844:6.0 228:1.0 4719:1.0 1332:4.0 1675:3.0 104:1.0 4723:2.0 358:2.0 3232:2.0 596:1.0 734:1.0 837:1.0 13222:4.0 3376:1.0 722:1.0 121:2.0 241:1.0 13771:1.0 14030:-1.0 
1.0 1.0 1.0 0.1704926546578943 1.0 1.0 1.0 1.0 14:8.0 15:1.0 567:2.0 19:1.0 266:3.0 25:2.0 2181:5.0 2473:1.0 311:2.0 5194:2.0 42:1.0 2226:2.0 43:1.0 2464:8.0 47:13.0 2946:3.0 2228:6.0 8781:1.0 51:8.0 1148:28.0 292:2.0 1856:1.0 1622:2.0 1582:1.0 883:4.0 70:2.0 1035:2.0 1574:2.0 8200:1.0 79:1.0 85:4.0 84:2.0 87:2.0 4448:4.0 372:1.0 849:1.0 99:4.0 5946:1.0 104:1.0 105:2.0 834:1.0 356:3.0 4964:1.0 1085:3.0 112:7.0 13951:2.0 5138:3.0 361:1.0 3166:1.0 1219:1.0 2309:4.0 135:5.0 673:11.0 2859:2.0 2049:11.0 1486:2.0 690:2.0 1790:1.0 149:46.0 389:1.0 689:1.0 3674:2.0 444:3.0 922:1.0 1522:1.0 4228:3.0 6415:3.0 2110:1.0 164:4.0 670:19.0 5334:1.0 2560:1.0 666:8.0 189:8.0 1754:7.0 3920:3.0 13281:2.0 10126:3.0 1275:2.0 3655:1.0 422:1.0 1427:2.0 201:2.0 1008:12.0 12129:2.0 1000:1.0 2115:2.0 214:5.0 2397:1.0 996:1.0 449:3.0 1183:3.0 1676:1.0 5803:1.0 969:6.0 734:3.0 491:1.0 490:1.0 1920:1.0 14030:-1.0 
1.0 1.0 1.0 1.0 1.0 1.0 1.0 1.0 71:3.0 235:1.0 5915:2.0 8:1.0 616:1.0 5153:3.0 46:1.0 895:1.0 87:1.0 358:1.0 292:3.0 699:2.0 23:2.0 82:1.0 2115:1.0 633:1.0 1215:8.0 1623:2.0 14030:-1.0 
1.0 1.0 1.0 1.0 1.0 1.0 1.0 1.0 476:1.0 581:2.0 679:1.0 1063:1.0 862:1.0 104:2.0 14:1.0 395:2.0 8084:1.0 563:2.0 292:1.0 488:1.0 5301:1.0 6119:2.0 24:3.0 58:1.0 14030:-1.0 
1.0 1.0 1.0 1.0 1.0 1.0 1.0 1.0 1374:1.0 359:1.0 968:1.0 292:1.0 1386:2.0 1734:1.0 2952:1.0 91:6.0 14030:-1.0 
1.0 1.0 1.0 1.0 1.0 1.0 1.0 1.0 85:1.0 359:1.0 3592:2.0 5:1.0 581:1.0 3163:6.0 412:1.0 381:1.0 1601:6.0 469:1.0 753:3.0 12572:3.0 14030:-1.0 
1.0 0.9413528205817835 1.0 0.21861891855037785 1.0 0.7227159602219617 0.796068025799149 1.0 5:6.0 545:5.0 2622:44.0 2262:2.0 2501:14.0 78:1.0 5630:1.0 1011:2.0 73:3.0 14:2.0 1116:1.0 4086:3.0 219:2.0 560:3.0 2125:1.0 1281:1.0 2670:5.0 652:14.0 372:1.0 444:4.0 581:1.0 1817:6.0 978:2.0 312:5.0 589:31.0 51:5.0 535:1.0 11307:2.0 292:3.0 596:2.0 2966:2.0 1215:3.0 2092:2.0 121:5.0 13771:2.0 241:4.0 14030:-1.0 
1.0 1.0 1.0 0.0659033938742203 1.0 0.974792200167777 0.8636523530880555 1.0 410:3.0 5:1.0 413:1.0 2070:1.0 678:1.0 2622:39.0 1231:1.0 14:1.0 284:1.0 12065:1.0 1116:4.0 19:5.0 1113:1.0 1782:4.0 4086:2.0 261:1.0 560:7.0 149:3.0 151:3.0 652:4.0 38:2.0 312:4.0 47:1.0 3908:1.0 51:4.0 1389:1.0 48:3.0 1984:7.0 1148:1.0 5452:1.0 664:1.0 292:2.0 2966:1.0 2360:1.0 1618:7.0 299:1.0 183:1.0 200:4.0 2262:4.0 2501:11.0 349:1.0 78:1.0 1011:1.0 79:1.0 73:2.0 1166:1.0 221:2.0 6383:2.0 1953:1.0 9667:2.0 218:2.0 219:1.0 5170:2.0 753:1.0 2670:4.0 210:2.0 91:1.0 372:1.0 715:1.0 581:1.0 1817:4.0 230:1.0 589:30.0 104:3.0 105:2.0 3597:4.0 596:1.0 491:1.0 734:1.0 1215:2.0 361:1.0 121:2.0 241:4.0 13771:1.0 14030:-1.0 
1.0 1.0 1.0 1.0 1.0 1.0 1.0 1.0 4507:1.0 926:1.0 372:1.0 1374:1.0 2582:1.0 5287:1.0 278:1.0 1666:5.0 616:1.0 7138:1.0 437:1.0 12170:1.0 553:1.0 220:1.0 3599:1.0 1802:1.0 95:2.0 56:1.0 2724:1.0 91:1.0 2093:1.0 14030:-1.0 
1.0 1.0 1.0 0.39200060143737997 1.0 1.0 1.0 1.0 70:1.0 5915:2.0 1219:2.0 5636:1.0 2501:8.0 73:1.0 285:3.0 14:1.0 4200:2.0 2798:3.0 1109:1.0 1784:1.0 2670:4.0 448:1.0 3370:2.0 13508:1.0 925:1.0 1733:3.0 175:1.0 1817:2.0 381:1.0 1127:27.0 47:3.0 730:1.0 48:1.0 5099:1.0 14030:-1.0 
1.0 1.0 1.0 0.3656673859903799 1.0 1.0 1.0 1.0 410:2.0 2065:1.0 5:4.0 412:2.0 413:1.0 829:1.0 1503:1.0 1639:2.0 14:10.0 135:8.0 19:2.0 1782:2.0 699:3.0 560:4.0 261:3.0 24:1.0 690:2.0 151:1.0 35:2.0 789:1.0 3195:2.0 4224:1.0 798:5.0 312:6.0 162:1.0 51:5.0 48:1.0 292:16.0 1140:1.0 2568:5.0 3171:1.0 3055:1.0 78:1.0 2922:2.0 617:1.0 73:1.0 895:6.0 869:2.0 3211:1.0 330:1.0 877:3.0 1287:1.0 210:1.0 328:2.0 1047:1.0 99:1.0 1547:5.0 1950:5.0 3605:1.0 590:1.0 490:1.0 598:1.0 11979:1.0 243:1.0 121:6.0 4733:1.0 14030:-1.0 
1.0 0.96407325626882 1.0 0.15984655100149323 1.0 0.8345577722537875 0.8162423719690934 0.8798934310391482 1374:5.0 1372:1.0 5:1.0 818:2.0 1634:6.0 559:27.0 14:35.0 284:2.0 1116:70.0 19:2.0 563:1.0 3000:1.0 25:2.0 24:2.0 304:9.0 38:2.0 39:1.0 42:1.0 312:2.0 1125:3.0 13317:2.0 51:1.0 49:7.0 535:1.0 48:4.0 292:15.0 54:2.0 1143:1.0 2694:2.0 3218:1.0 71:11.0 3055:2.0 7116:1.0 349:2.0 78:1.0 79:2.0 347:1.0 895:1.0 85:1.0 2253:1.0 84:3.0 87:12.0 869:1.0 91:15.0 4941:1.0 878:1.0 90:1.0 1827:2.0 578:4.0 581:2.0 99:4.0 368:2.0 1547:1.0 97:1.0 2533:1.0 380:1.0 1802:5.0 1796:1.0 121:1.0 362:1.0 120:1.0 687:3.0 410:1.0 412:5.0 135:14.0 12064:1.0 395:6.0 394:3.0 5612:1.0 391:1.0 2029:1.0 149:1.0 5609:1.0 389:1.0 689:9.0 440:7.0 652:1.0 444:1.0 2101:1.0 162:1.0 166:1.0 164:13.0 3656:7.0 422:10.0 12462:4.0 197:1.0 1711:5.0 2922:1.0 1012:33.0 1166:10.0 1979:6.0 1953:1.0 9667:1.0 754:1.0 455:1.0 454:1.0 510:2.0 501:1.0 253:4.0 241:4.0 14030:-1.0 
1.0 1.0 1.0 0.9601694315137992 1.0 1.0 1.0 1.0 70:1.0 4676:1.0 5:3.0 412:1.0 78:3.0 79:5.0 1012:3.0 73:4.0 14:1.0 135:1.0 1979:2.0 19:1.0 261:1.0 560:2.0 25:1.0 1651:1.0 24:3.0 996:1.0 1287:8.0 210:1.0 12824:1.0 151:1.0 652:2.0 3370:1.0 849:1.0 789:1.0 4504:1.0 8295:3.0 38:4.0 444:1.0 581:1.0 1817:1.0 798:1.0 3008:1.0 47:1.0 3908:3.0 104:1.0 48:3.0 292:1.0 112:1.0 837:2.0 1077:1.0 362:1.0 3029:1.0 14030:-1.0 
1.0 1.0 1.0 0.17244159213397536 1.0 1.0 1.0 1.0 410:2.0 5:2.0 2984:1.0 954:1.0 2861:2.0 135:2.0 14:52.0 15:3.0 1782:1.0 261:1.0 560:2.0 3003:2.0 24:4.0 151:30.0 926:9.0 512:1.0 175:1.0 38:2.0 172:1.0 312:15.0 436:1.0 2348:1.0 47:2.0 794:1.0 1389:1.0 535:1.0 48:3.0 54:1.0 1143:1.0 1994:1.0 1572:1.0 1010:1.0 78:1.0 1012:1.0 73:6.0 895:3.0 1166:2.0 12716:1.0 214:9.0 3370:5.0 715:1.0 581:1.0 99:1.0 1817:5.0 380:3.0 104:1.0 252:2.0 3232:1.0 837:1.0 246:1.0 727:1.0 241:1.0 14030:-1.0 
1.0 1.0 1.0 1.0 1.0 1.0 1.0 1.0 2984:1.0 312:1.0 2568:1.0 73:3.0 14:4.0 104:1.0 13771:1.0 241:1.0 14030:-1.0 
1.0 1.0 1.0 1.0 1.0 1.0 1.0 1.0 410:1.0 1984:2.0 374:12.0 38:1.0 175:1.0 312:2.0 78:2.0 2501:4.0 5057:2.0 7520:1.0 73:2.0 104:1.0 14030:-1.0 
1.0 1.0 1.0 0.9874707182511874 1.0 1.0 1.0 1.0 926:1.0 410:1.0 3855:1.0 652:1.0 512:1.0 5018:1.0 3950:1.0 312:5.0 78:1.0 73:4.0 104:1.0 14:13.0 48:2.0 11307:1.0 1782:1.0 241:1.0 14030:-1.0 
1.0 1.0 1.0 1.0 1.0 1.0 1.0 1.0 1782:1.0 175:1.0 612:3.0 1547:1.0 8426:6.0 380:1.0 73:3.0 14:1.0 90:1.0 14030:-1.0 
0.7307720167200726 0.9733111281841264 0.5503451046162672 0.19706773165961378 0.11597419453780188 0.8271300413627213 0.8216161180375804 0.0 8132:1.0 1367:5.0 4072:2.0 6804:1.0 4137:1.0 10997:1.0 3810:1.0 8519:7.0 261:6.0 560:13.0 803:1.0 1651:1.0 24:5.0 2999:22.0 29:5.0 304:2.0 38:5.0 39:1.0 311:1.0 3312:1.0 42:2.0 2464:2.0 798:5.0 1392:6.0 47:2.0 1389:5.0 48:3.0 1387:145.0 1143:1.0 2966:1.0 2482:1.0 537:1.0 4125:1.0 70:8.0 1581:2.0 12262:3.0 78:5.0 349:3.0 2262:4.0 346:1.0 73:11.0 7598:1.0 2259:1.0 85:3.0 84:2.0 87:2.0 5170:27.0 88:1.0 91:1.0 372:8.0 100:2.0 1065:1.0 12844:1.0 5666:1.0 589:1.0 2288:1.0 1060:1.0 105:5.0 118:3.0 353:7.0 121:58.0 120:1.0 410:7.0 414:4.0 412:1.0 2047:28.0 8406:3.0 4274:1.0 652:15.0 6406:4.0 2578:2.0 172:21.0 3917:1.0 645:2.0 1263:2.0 3191:2.0 1533:2.0 5596:1.0 2110:1.0 11305:2.0 13045:1.0 183:3.0 1953:1.0 6242:1.0 767:2.0 754:1.0 5056:1.0 214:7.0 3350:1.0 449:1.0 8639:4.0 12688:1.0 502:1.0 729:1.0 252:7.0 13762:1.0 13222:1.0 962:1.0 4549:3.0 242:1.0 1688:1.0 240:1.0 13771:1.0 2426:1.0 14030:-1.0 
1.0 1.0 1.0 0.2163739150541986 1.0 1.0 1.0 1.0 206:1.0 751:1.0 5641:1.0 412:2.0 197:2.0 10:1.0 1095:2.0 286:1.0 14:5.0 2259:1.0 3961:22.0 1651:2.0 335:2.0 24:3.0 26:6.0 690:1.0 90:2.0 102:2.0 304:5.0 2301:1.0 444:1.0 175:1.0 99:2.0 232:2.0 1463:14.0 42:5.0 1812:4.0 46:1.0 2111:2.0 47:1.0 439:1.0 730:2.0 48:1.0 112:5.0 896:34.0 14030:-1.0 
1.0 1.0 1.0 0.4435363882624012 1.0 1.0 1.0 1.0 70:7.0 925:18.0 2239:1.0 5:2.0 5915:6.0 1547:1.0 78:1.0 706:5.0 73:2.0 1332:3.0 14:1.0 135:2.0 84:2.0 4870:3.0 3000:1.0 1782:1.0 24:2.0 1485:1.0 1287:5.0 3171:1.0 91:1.0 14030:-1.0 
1.0 1.0 1.0 1.0 1.0 1.0 1.0 1.0 1306:2.0 71:2.0 38:1.0 837:10.0 6203:1.0 4731:1.0 798:2.0 14030:-1.0 
1.0 1.0 1.0 0.4665570265772944 1.0 1.0 1.0 1.0 548:6.0 71:3.0 5:7.0 682:1.0 412:5.0 197:2.0 616:1.0 892:1.0 14:5.0 135:7.0 15:5.0 19:1.0 218:2.0 396:5.0 2728:2.0 2726:1.0 214:22.0 753:3.0 1346:1.0 996:6.0 4025:1.0 268:1.0 1047:1.0 151:4.0 13508:2.0 925:1.0 311:5.0 381:1.0 978:1.0 2649:1.0 3982:1.0 12844:1.0 312:4.0 1125:1.0 9389:1.0 47:3.0 164:2.0 3183:1.0 5213:4.0 535:4.0 2563:1.0 14030:-1.0 
1.0 1.0 1.0 0.23597705410936484 1.0 1.0 1.0 1.0 137:1.0 136:1.0 3523:1.0 2984:1.0 412:4.0 8:2.0 556:2.0 135:14.0 14:30.0 1636:2.0 15:2.0 1116:5.0 19:2.0 6177:2.0 699:4.0 2029:1.0 151:1.0 689:5.0 440:2.0 304:4.0 168:1.0 444:1.0 38:2.0 1613:1.0 42:2.0 312:2.0 1125:2.0 2590:1.0 1257:1.0 289:2.0 535:2.0 534:1.0 292:10.0 10746:1.0 422:4.0 71:2.0 1309:2.0 197:2.0 737:4.0 2922:5.0 85:4.0 87:4.0 869:2.0 1176:1.0 334:2.0 9840:1.0 3211:1.0 214:1.0 91:1.0 849:1.0 581:7.0 97:2.0 380:1.0 1948:1.0 356:2.0 253:1.0 488:1.0 353:1.0 2901:3.0 127:1.0 247:2.0 1211:1.0 1316:3.0 1215:1.0 121:2.0 14030:-1.0 
1.0 1.0 1.0 1.0 1.0 1.0 1.0 1.0 410:1.0 1582:1.0 13627:1.0 3218:2.0 38:4.0 3882:2.0 1547:2.0 798:1.0 501:1.0 312:1.0 349:1.0 1010:1.0 3008:3.0 1536:3.0 1012:7.0 73:2.0 14:2.0 284:3.0 1979:8.0 51:1.0 594:5.0 292:1.0 389:1.0 14030:-1.0 
1.0 1.0 1.0 0.47590485554031753 1.0 1.0 1.0 1.0 1582:1.0 206:1.0 412:2.0 1099:1.0 8200:1.0 135:2.0 14:8.0 1359:1.0 87:3.0 19:1.0 2384:1.0 208:1.0 715:1.0 311:1.0 162:1.0 493:1.0 51:5.0 1389:1.0 534:6.0 292:9.0 8623:1.0 2494:1.0 112:1.0 1316:4.0 300:1.0 120:17.0 14030:-1.0 
1.0 1.0 1.0 0.16306458838691382 1.0 0.893750232316004 0.9859152251213665 1.0 10046:1.0 545:1.0 6105:6.0 281:1.0 2620:35.0 404:1.0 14:4.0 405:1.0 5485:6.0 1359:2.0 13728:2.0 155:2.0 697:15.0 560:1.0 24:1.0 4274:1.0 1486:21.0 1485:2.0 151:1.0 926:13.0 4370:1.0 790:2.0 652:1.0 925:9.0 1252:1.0 922:7.0 512:11.0 38:2.0 309:1.0 1131:1.0 2239:1.0 5860:1.0 311:22.0 4224:1.0 798:2.0 2348:1.0 47:10.0 48:1.0 1984:3.0 54:6.0 1990:1.0 3932:1.0 661:8.0 2482:2.0 13045:3.0 2092:16.0 881:2.0 2511:1.0 70:6.0 5915:6.0 351:6.0 1297:1.0 2262:2.0 2501:53.0 3091:19.0 78:1.0 79:3.0 617:2.0 73:3.0 1288:1.0 629:1.0 5170:4.0 334:1.0 3076:1.0 2670:7.0 88:1.0 1458:2.0 3370:2.0 3128:1.0 580:1.0 8639:18.0 99:4.0 1817:15.0 5404:4.0 12844:6.0 1332:11.0 105:1.0 3034:1.0 1564:1.0 495:1.0 3116:1.0 354:1.0 734:2.0 5823:1.0 364:2.0 13222:1.0 1215:4.0 1452:1.0 121:3.0 241:2.0 2426:2.0 14030:-1.0 
1.0 0.9635479049994736 1.0 0.16612952476843204 1.0 0.8336143310803217 0.8170553386267356 0.7953868251836426 2200:1.0 410:3.0 1643:1.0 5:2.0 8:6.0 556:1.0 831:17.0 10:4.0 1231:5.0 2432:1.0 14:2.0 4140:1.0 16:17.0 1116:1.0 155:3.0 261:1.0 1486:21.0 5479:1.0 5715:1.0 5473:1.0 1105:1.0 1480:1.0 790:3.0 652:12.0 789:1.0 1252:2.0 38:4.0 512:8.0 922:1.0 2239:2.0 798:3.0 312:1.0 6174:1.0 670:1.0 1984:17.0 54:1.0 9995:1.0 3580:1.0 661:37.0 1623:1.0 881:2.0 70:2.0 1579:3.0 5153:1.0 737:1.0 78:4.0 2501:37.0 79:3.0 347:2.0 1012:1.0 73:17.0 1166:1.0 221:1.0 1408:2.0 629:1.0 1412:74.0 214:3.0 2670:2.0 996:12.0 449:1.0 372:2.0 3370:3.0 581:1.0 99:2.0 1817:4.0 1332:7.0 2530:2.0 118:2.0 358:1.0 3232:1.0 3989:1.0 1802:1.0 8623:3.0 837:2.0 1215:2.0 121:11.0 14030:-1.0 
1.0 1.0 1.0 0.22409062888614223 1.0 1.0 1.0 1.0 1582:3.0 410:1.0 6637:1.0 70:2.0 71:22.0 4069:3.0 2444:1.0 616:2.0 617:1.0 1012:12.0 73:6.0 14:19.0 284:2.0 1979:17.0 19:1.0 624:1.0 1289:6.0 1234:1.0 1551:1.0 38:1.0 4710:1.0 581:1.0 311:1.0 312:4.0 3982:1.0 798:2.0 706:1.0 2528:1.0 1530:1.0 356:1.0 535:1.0 3868:1.0 594:2.0 2149:1.0 48:1.0 292:8.0 1143:1.0 963:1.0 1618:1.0 121:1.0 241:1.0 14030:-1.0 
1.0 1.0 1.0 1.0 1.0 1.0 1.0 1.0 5:5.0 748:2.0 197:1.0 1435:3.0 1981:6.0 1769:1.0 616:6.0 1012:2.0 135:1.0 14:2.0 15:5.0 395:1.0 17:1.0 84:1.0 461:2.0 19:1.0 87:4.0 23:3.0 1486:1.0 2397:1.0 449:1.0 372:1.0 13508:1.0 578:1.0 4296:1.0 38:1.0 581:1.0 110:2.0 644:2.0 106:1.0 164:4.0 4231:1.0 241:2.0 14030:-1.0 
1.0 1.0 1.0 1.0 1.0 1.0 1.0 1.0 201:1.0 5:1.0 7:1.0 197:1.0 616:3.0 1010:1.0 135:2.0 87:4.0 937:1.0 93:1.0 25:2.0 91:1.0 851:3.0 510:4.0 99:1.0 1547:1.0 718:1.0 97:4.0 434:2.0 47:2.0 359:1.0 253:4.0 115:1.0 602:3.0 61:2.0 121:1.0 422:2.0 241:2.0 14030:-1.0 
1.0 1.0 1.0 1.0 1.0 1.0 1.0 1.0 1017:1.0 581:1.0 545:1.0 2444:1.0 1879:1.0 1012:5.0 2350:1.0 135:1.0 14:2.0 1000:2.0 535:1.0 13886:1.0 3599:1.0 563:1.0 8623:4.0 3205:1.0 699:3.0 112:1.0 2125:1.0 1211:2.0 722:1.0 5091:1.0 120:1.0 14030:-1.0 
1.0 1.0 1.0 0.15700849349684037 1.0 1.0 1.0 1.0 2200:1.0 410:1.0 1096:2.0 412:4.0 818:6.0 1905:1.0 14:4.0 15:1.0 3810:1.0 1116:6.0 566:4.0 560:24.0 812:1.0 268:1.0 304:3.0 652:12.0 38:1.0 514:1.0 6302:1.0 1263:3.0 1533:5.0 47:4.0 1389:1.0 424:4.0 534:1.0 48:2.0 292:3.0 188:3.0 1387:1.0 3932:2.0 1143:2.0 351:5.0 1010:1.0 78:5.0 349:1.0 79:36.0 73:4.0 762:1.0 87:5.0 767:2.0 1004:1.0 6526:5.0 214:1.0 88:1.0 328:1.0 372:1.0 510:4.0 849:1.0 978:11.0 110:5.0 1948:1.0 3597:1.0 10274:2.0 3989:6.0 3232:5.0 1923:2.0 491:1.0 837:5.0 127:6.0 4731:7.0 121:2.0 13771:4.0 14030:-1.0 
1.0 1.0 1.0 1.0 1.0 1.0 1.0 1.0 2033:1.0 3101:1.0 1309:1.0 3461:1.0 78:2.0 1572:1.0 1012:2.0 135:1.0 1166:1.0 1979:1.0 2253:2.0 563:2.0 264:1.0 214:2.0 4937:1.0 5169:1.0 390:1.0 2183:1.0 1047:3.0 4165:1.0 1252:1.0 175:1.0 38:1.0 581:9.0 1666:1.0 3908:1.0 590:1.0 13944:1.0 493:1.0 289:3.0 2081:1.0 10059:1.0 292:2.0 127:2.0 1856:4.0 2634:2.0 1316:1.0 2568:1.0 121:1.0 4126:1.0 14030:-1.0 
1.0 1.0 1.0 0.5283420336241804 1.0 1.0 1.0 1.0 137:2.0 1427:13.0 70:1.0 1610:6.0 715:1.0 99:3.0 581:3.0 1817:1.0 43:1.0 73:2.0 135:3.0 535:1.0 252:2.0 4125:1.0 4246:1.0 14030:-1.0 
0.5456405395278509 1.0 0.342820630545391 0.21805948214405477 0.0 0.8808466268741374 0.8767395054061384 0.0 2984:1.0 5:15.0 2432:1.0 1088:1.0 285:12.0 14:238.0 15:12.0 17:1.0 560:49.0 24:6.0 1346:1.0 789:5.0 1407:2.0 512:7.0 38:3.0 1131:3.0 2239:1.0 311:4.0 1875:3.0 1127:72.0 312:235.0 798:5.0 47:43.0 3321:1.0 51:4.0 535:9.0 2490:3.0 48:87.0 534:4.0 9277:14.0 54:5.0 12177:46.0 1869:1.0 2482:5.0 299:1.0 1860:24.0 343:1.0 71:2.0 4676:2.0 612:16.0 11714:1.0 889:1.0 351:5.0 78:60.0 2501:19.0 349:12.0 79:29.0 347:17.0 73:156.0 5157:1.0 895:4.0 4200:4.0 4957:1.0 6383:1.0 5899:2.0 334:1.0 4456:1.0 328:1.0 372:5.0 100:2.0 580:1.0 99:2.0 1817:34.0 1546:2.0 380:5.0 12573:1.0 590:10.0 105:2.0 11767:2.0 3232:20.0 596:4.0 837:40.0 361:1.0 121:21.0 120:3.0 3029:1.0 410:80.0 1762:1.0 412:1.0 1219:2.0 954:22.0 2861:2.0 10875:7.0 135:14.0 155:1.0 1782:66.0 2024:1.0 1784:6.0 7751:1.0 151:43.0 926:9.0 652:20.0 925:5.0 1733:7.0 172:2.0 8421:1.0 2348:1.0 164:12.0 2108:7.0 1994:1.0 2092:1.0 201:1.0 196:2.0 1010:1.0 736:1.0 6042:1.0 1166:6.0 1414:1.0 219:65.0 2125:4.0 7201:3.0 214:10.0 210:2.0 449:2.0 13508:1.0 510:1.0 715:31.0 3370:41.0 988:5.0 5531:1.0 978:18.0 1675:1.0 1674:15.0 2149:10.0 1924:10.0 8623:15.0 1211:25.0 1215:4.0 1690:1.0 241:44.0 13771:7.0 14030:-1.0 
1.0 1.0 1.0 1.0 1.0 1.0 1.0 1.0 652:2.0 38:1.0 581:2.0 1817:4.0 502:1.0 707:1.0 73:5.0 14:2.0 590:2.0 15:1.0 85:1.0 292:9.0 12177:3.0 837:2.0 3003:4.0 2670:1.0 1215:3.0 90:2.0 14030:-1.0 
0.8917493008340331 0.9446462013188084 0.7102079628829095 0.18417774147831037 0.30124901855041863 0.811545217401766 0.7990439610288042 0.01146920008843199 1647:4.0 5:10.0 4405:1.0 545:1.0 559:8.0 13:4.0 14:10.0 15:1.0 567:4.0 566:2.0 1116:9.0 19:14.0 21:1.0 1112:3.0 560:1.0 22:3.0 25:10.0 1651:10.0 24:18.0 573:1.0 34:1.0 1135:1.0 512:2.0 38:110.0 39:1.0 514:1.0 3312:1.0 524:1.0 42:2.0 1127:1.0 43:1.0 40:1.0 527:8.0 1125:5.0 46:1.0 520:1.0 47:5.0 51:2.0 49:4.0 48:4.0 2223:1.0 10958:1.0 54:4.0 541:6.0 1143:15.0 56:13.0 537:2.0 60:5.0 1582:8.0 608:6.0 64:2.0 615:2.0 66:13.0 612:2.0 78:4.0 1572:4.0 79:1.0 74:1.0 2259:2.0 75:1.0 4957:2.0 85:9.0 84:2.0 87:3.0 8084:10.0 3206:5.0 82:1.0 93:19.0 1590:2.0 633:1.0 639:1.0 1047:1.0 91:2.0 3215:1.0 90:3.0 102:1.0 100:1.0 99:4.0 97:16.0 8234:1.0 109:1.0 1536:1.0 590:3.0 593:3.0 595:4.0 594:3.0 596:1.0 112:13.0 127:1.0 125:2.0 602:2.0 2757:1.0 121:14.0 120:3.0 2065:1.0 682:1.0 1219:1.0 674:1.0 135:3.0 673:1.0 155:4.0 699:2.0 159:1.0 146:4.0 690:2.0 149:2.0 688:1.0 2601:1.0 151:1.0 1728:1.0 170:3.0 652:6.0 1252:2.0 168:3.0 3195:1.0 175:2.0 1732:1.0 1734:2.0 172:1.0 163:1.0 2589:1.0 645:3.0 1263:3.0 162:1.0 647:3.0 164:9.0 11307:2.0 185:2.0 12745:1.0 3179:1.0 665:1.0 178:2.0 3170:3.0 204:1.0 207:9.0 200:2.0 750:1.0 1166:3.0 762:1.0 221:3.0 1173:2.0 5543:1.0 1177:1.0 214:30.0 3612:2.0 234:8.0 3605:5.0 704:3.0 229:1.0 4565:4.0 228:2.0 1196:1.0 729:5.0 253:6.0 1682:1.0 722:11.0 4549:1.0 243:4.0 241:1.0 13771:2.0 275:1.0 10046:2.0 1372:1.0 278:1.0 1905:2.0 282:1.0 2438:3.0 285:3.0 804:2.0 3543:1.0 261:1.0 264:4.0 305:1.0 4096:1.0 304:9.0 1875:1.0 312:5.0 798:3.0 1399:7.0 794:3.0 1389:6.0 4658:1.0 292:2.0 293:1.0 294:4.0 303:1.0 343:2.0 883:1.0 1311:1.0 3055:1.0 1850:2.0 349:7.0 346:7.0 864:1.0 327:1.0 322:2.0 869:1.0 1292:1.0 334:3.0 2517:1.0 331:2.0 328:2.0 372:10.0 13931:1.0 381:1.0 380:3.0 383:2.0 862:1.0 356:1.0 357:1.0 1799:2.0 840:1.0 1316:7.0 361:1.0 410:3.0 955:4.0 403:1.0 2858:3.0 395:3.0 394:27.0 2026:1.0 934:4.0 2029:7.0 1481:2.0 2346:1.0 2348:1.0 3908:4.0 439:49.0 1985:2.0 11095:1.0 416:3.0 420:1.0 422:1.0 14023:4.0 1010:5.0 468:1.0 2922:2.0 1012:4.0 2377:1.0 1979:3.0 1408:3.0 1005:1.0 1953:1.0 457:4.0 12156:2.0 454:4.0 2397:2.0 450:1.0 999:3.0 8634:3.0 508:1.0 13508:1.0 510:1.0 7738:1.0 991:5.0 1462:1.0 988:2.0 507:1.0 1950:1.0 501:1.0 2415:1.0 1468:1.0 1470:1.0 1945:1.0 493:10.0 2898:1.0 495:2.0 968:1.0 491:1.0 14030:-1.0 
1.0 1.0 1.0 1.0 1.0 1.0 1.0 1.0 2674:1.0 12629:2.0 71:3.0 952:1.0 4435:2.0 1845:2.0 4224:1.0 559:1.0 1435:8.0 434:1.0 2501:6.0 502:1.0 1166:1.0 1979:1.0 1000:3.0 2286:2.0 4589:3.0 564:2.0 1984:2.0 1085:1.0 661:6.0 1316:2.0 14030:-1.0 
1.0 1.0 1.0 1.0 1.0 1.0 1.0 1.0 8996:2.0 3439:1.0 504:1.0 13701:1.0 412:1.0 43:2.0 559:2.0 135:1.0 164:2.0 14030:-1.0 
1.0 1.0 1.0 0.29209518083841124 1.0 1.0 1.0 1.0 100:1.0 5:3.0 612:1.0 37:4.0 2501:1.0 349:1.0 47:31.0 2110:2.0 407:1.0 285:6.0 4200:2.0 5962:3.0 730:2.0 48:1.0 560:1.0 212:1.0 299:1.0 91:2.0 14030:-1.0 
1.0 1.0 1.0 0.16295083144033973 1.0 1.0 0.9688658196813799 1.0 137:1.0 10046:1.0 3218:3.0 3055:1.0 197:7.0 2922:1.0 1163:2.0 1433:2.0 135:24.0 14:58.0 284:6.0 7814:1.0 19:16.0 3000:1.0 869:1.0 214:1.0 2329:2.0 934:1.0 690:1.0 877:3.0 689:3.0 715:2.0 578:1.0 444:1.0 581:1.0 5404:1.0 312:28.0 2348:1.0 590:1.0 356:3.0 51:9.0 4422:1.0 1508:2.0 49:2.0 358:2.0 535:3.0 1567:5.0 534:12.0 292:9.0 11095:1.0 2901:1.0 4189:1.0 121:2.0 422:8.0 14030:-1.0 
1.0 1.0 1.0 0.0 1.0 1.0 1.0 1.0 5915:2.0 5:3.0 349:4.0 78:3.0 1010:1.0 1012:1.0 346:1.0 73:2.0 135:1.0 14:1.0 15:1.0 762:1.0 1116:1.0 563:1.0 1782:3.0 219:4.0 560:10.0 1486:1.0 214:1.0 372:2.0 652:4.0 849:1.0 38:2.0 99:1.0 312:7.0 979:4.0 166:1.0 438:6.0 48:3.0 9277:4.0 12177:24.0 837:1.0 364:1.0 1143:1.0 1994:1.0 241:1.0 13771:2.0 14030:-1.0 
1.0 1.0 1.0 0.5735926918558387 1.0 1.0 1.0 1.0 70:2.0 1035:1.0 5915:5.0 5:5.0 2311:1.0 351:3.0 1231:10.0 2501:6.0 8200:3.0 617:1.0 1438:1.0 73:1.0 895:2.0 1979:1.0 84:1.0 19:7.0 219:1.0 214:1.0 2670:4.0 208:2.0 2788:9.0 790:3.0 849:1.0 175:1.0 978:1.0 3845:1.0 496:2.0 47:1.0 51:4.0 670:6.0 292:3.0 8623:6.0 1990:1.0 2482:2.0 243:1.0 121:1.0 1622:7.0 120:1.0 14030:-1.0 
1.0 0.9479481276089388 1.0 0.1755174816974171 1.0 0.7796503992864366 0.7854483166283402 1.0 410:1.0 545:3.0 8:3.0 400:2.0 6105:14.0 2619:1.0 14:13.0 135:19.0 4140:2.0 1116:11.0 16:6.0 155:28.0 6318:1.0 2730:6.0 697:2.0 1486:9.0 1485:10.0 926:5.0 790:3.0 652:15.0 1135:1.0 789:8.0 1252:16.0 444:1.0 512:1.0 38:17.0 174:1.0 311:6.0 312:1.0 794:1.0 47:3.0 51:12.0 670:1.0 535:1.0 292:2.0 54:56.0 11095:39.0 1143:2.0 661:5.0 2092:1.0 1427:1.0 70:3.0 66:1.0 78:1.0 2501:11.0 349:2.0 347:1.0 73:18.0 5431:1.0 1166:15.0 2253:1.0 85:1.0 221:9.0 87:1.0 5305:1.0 996:4.0 88:3.0 91:1.0 9675:1.0 449:10.0 372:3.0 3370:6.0 510:2.0 849:1.0 9446:2.0 99:3.0 581:5.0 5404:5.0 1817:7.0 12844:4.0 6238:1.0 1332:2.0 104:2.0 729:1.0 10408:1.0 358:4.0 253:3.0 596:2.0 127:2.0 840:1.0 121:1.0 13771:2.0 14030:-1.0 
1.0 1.0 1.0 0.41893063598221497 1.0 1.0 1.0 1.0 410:1.0 4266:3.0 1582:3.0 4536:1.0 4:1.0 1309:1.0 79:2.0 14:2.0 15:1.0 395:2.0 394:2.0 1116:8.0 221:1.0 1359:1.0 1238:2.0 699:3.0 560:1.0 1175:1.0 1054:1.0 214:6.0 26:1.0 1047:17.0 652:1.0 304:3.0 2475:1.0 2583:1.0 38:2.0 99:1.0 581:2.0 1261:1.0 383:1.0 46:2.0 184:2.0 2149:2.0 292:12.0 353:5.0 2634:2.0 5519:1.0 121:2.0 362:2.0 14030:-1.0 
1.0 1.0 1.0 1.0 1.0 1.0 1.0 1.0 1374:1.0 969:1.0 4978:1.0 358:2.0 581:1.0 3055:2.0 412:1.0 1734:4.0 2952:9.0 135:1.0 164:1.0 14030:-1.0 
1.0 1.0 1.0 0.1595721681490577 1.0 0.9313571482843326 0.9076476572380379 1.0 410:2.0 5:3.0 412:2.0 2444:3.0 8:1.0 559:4.0 5630:1.0 1639:1.0 135:3.0 14:46.0 15:8.0 1116:22.0 3000:3.0 261:1.0 266:1.0 4274:2.0 934:3.0 652:1.0 2338:1.0 2819:1.0 311:1.0 42:1.0 312:1.0 798:7.0 46:3.0 164:2.0 3931:1.0 535:3.0 292:5.0 665:1.0 1869:3.0 2840:2.0 3218:1.0 70:3.0 200:2.0 5915:2.0 748:1.0 197:16.0 1435:1.0 1572:2.0 1010:2.0 349:3.0 78:1.0 1012:33.0 73:1.0 85:2.0 2928:1.0 5418:3.0 1415:9.0 2666:1.0 335:2.0 2125:1.0 633:1.0 996:1.0 1047:1.0 91:1.0 849:2.0 510:1.0 988:1.0 1188:36.0 501:5.0 1332:5.0 594:1.0 1802:1.0 491:11.0 1085:9.0 1211:1.0 960:1.0 14030:-1.0 
1.0 1.0 1.0 0.17502504492696508 1.0 1.0 1.0 1.0 410:1.0 2855:1.0 547:6.0 5:5.0 8256:1.0 8:3.0 1231:8.0 2432:1.0 2620:6.0 401:1.0 285:32.0 15:1.0 1116:5.0 155:1.0 6795:1.0 560:1.0 261:4.0 266:1.0 8824:1.0 4754:3.0 652:5.0 790:1.0 1252:5.0 925:15.0 444:3.0 38:1.0 514:2.0 1875:1.0 312:1.0 1601:4.0 1533:1.0 798:20.0 1127:4.0 6409:1.0 11451:1.0 317:1.0 46:1.0 47:19.0 2110:1.0 51:1.0 289:1.0 1389:1.0 534:1.0 1984:2.0 54:9.0 299:1.0 2092:1.0 1273:1.0 201:1.0 5915:1.0 748:5.0 889:1.0 2501:9.0 78:9.0 2262:1.0 79:1.0 73:21.0 4200:2.0 85:2.0 3084:1.0 11609:2.0 335:2.0 4821:4.0 2670:2.0 2512:4.0 372:1.0 100:2.0 849:1.0 381:2.0 12297:1.0 382:1.0 729:1.0 11767:3.0 495:1.0 730:2.0 2765:1.0 8623:2.0 596:6.0 837:20.0 13222:1.0 1073:1.0 121:2.0 2153:1.0 5681:2.0 14030:-1.0 
1.0 1.0 1.0 0.3866934268793055 1.0 1.0 1.0 1.0 4672:2.0 5:1.0 1159:1.0 412:1.0 3829:1.0 197:1.0 14:22.0 85:1.0 214:1.0 449:1.0 91:9.0 210:1.0 90:1.0 151:1.0 652:2.0 38:1.0 444:1.0 581:1.0 2102:1.0 1547:2.0 42:1.0 501:3.0 1813:4.0 51:1.0 292:11.0 2901:1.0 14030:-1.0 
1.0 1.0 1.0 0.15420061646304703 1.0 1.0 0.985267074999551 1.0 137:1.0 414:1.0 5:4.0 682:2.0 412:2.0 818:1.0 545:1.0 829:2.0 824:6.0 9492:1.0 14:2.0 673:10.0 395:1.0 1116:6.0 1238:3.0 19:17.0 2052:2.0 2728:1.0 560:38.0 697:2.0 25:1.0 11536:1.0 149:2.0 810:7.0 33:11.0 2955:2.0 38:2.0 1737:1.0 43:3.0 312:3.0 3669:1.0 3804:2.0 47:2.0 166:1.0 51:1.0 289:1.0 424:3.0 292:30.0 541:1.0 537:1.0 1582:3.0 71:34.0 1854:1.0 201:3.0 4600:2.0 203:1.0 1309:1.0 351:8.0 2262:1.0 79:22.0 617:1.0 85:1.0 87:1.0 9667:1.0 214:3.0 5057:1.0 2790:1.0 328:3.0 372:1.0 1064:1.0 581:1.0 978:1.0 110:4.0 105:1.0 3261:1.0 3597:1.0 969:1.0 253:2.0 353:5.0 355:1.0 13222:2.0 483:5.0 240:8.0 1077:1.0 120:5.0 14030:-1.0 
1.0 1.0 1.0 0.13806469016675676 1.0 1.0 1.0 1.0 410:3.0 1582:2.0 70:1.0 5:6.0 3163:5.0 412:7.0 197:1.0 616:5.0 349:2.0 736:11.0 469:1.0 2438:1.0 14:6.0 285:1.0 85:2.0 395:1.0 84:1.0 1116:2.0 19:2.0 87:2.0 4212:1.0 25:2.0 214:2.0 934:1.0 753:18.0 389:1.0 91:1.0 268:1.0 926:1.0 372:2.0 1731:1.0 2957:9.0 99:1.0 381:2.0 1601:3.0 312:1.0 2293:2.0 12572:3.0 47:1.0 164:1.0 51:4.0 292:4.0 490:1.0 600:1.0 121:3.0 1622:6.0 14030:-1.0 
1.0 1.0 1.0 0.23972201883494448 1.0 1.0 1.0 1.0 687:1.0 137:1.0 4069:3.0 5:13.0 14:10.0 135:10.0 937:2.0 261:1.0 25:1.0 24:1.0 5609:2.0 151:1.0 2473:1.0 652:1.0 3197:1.0 33:1.0 38:1.0 6406:1.0 2239:1.0 1522:2.0 798:4.0 312:2.0 1125:2.0 9389:2.0 164:4.0 1389:1.0 535:25.0 670:1.0 48:2.0 292:5.0 2494:2.0 1582:2.0 71:4.0 884:1.0 11714:1.0 5153:1.0 1572:2.0 349:2.0 895:2.0 8084:1.0 334:1.0 93:1.0 2125:1.0 214:9.0 4941:2.0 1047:7.0 91:1.0 328:1.0 90:2.0 9117:1.0 581:4.0 1188:1.0 1547:1.0 380:1.0 3868:1.0 2149:5.0 8623:3.0 1211:21.0 5682:1.0 1316:1.0 121:2.0 14030:-1.0 
1.0 1.0 1.0 1.0 1.0 1.0 1.0 1.0 927:1.0 1135:1.0 38:2.0 175:1.0 99:4.0 1666:1.0 707:1.0 9724:1.0 46:1.0 395:1.0 834:1.0 4629:1.0 5575:1.0 84:1.0 13886:1.0 734:1.0 905:1.0 735:1.0 490:3.0 972:1.0 2397:1.0 4242:1.0 1183:1.0 14030:-1.0 
1.0 1.0 1.0 0.49169171373298 1.0 1.0 1.0 1.0 1641:2.0 4069:1.0 2444:2.0 559:2.0 556:1.0 135:12.0 14:6.0 2047:1.0 395:1.0 1116:3.0 154:3.0 19:1.0 13853:2.0 563:6.0 25:3.0 2725:1.0 1784:1.0 26:1.0 149:3.0 689:4.0 926:2.0 3915:1.0 3197:1.0 311:3.0 794:8.0 164:2.0 292:2.0 5161:2.0 200:1.0 884:1.0 612:2.0 1309:1.0 1981:2.0 1010:1.0 616:1.0 78:1.0 1012:3.0 73:1.0 1166:6.0 1979:1.0 85:5.0 84:2.0 4019:1.0 2670:3.0 448:2.0 99:1.0 858:1.0 590:3.0 252:1.0 2149:1.0 364:1.0 1073:3.0 2759:1.0 14030:-1.0 
1.0 1.0 1.0 1.0 1.0 1.0 1.0 1.0 3810:1.0 715:2.0 3370:2.0 1817:4.0 12844:2.0 196:2.0 434:1.0 496:2.0 996:2.0 73:2.0 14030:-1.0 
1.0 0.930580132412847 0.9222829351284544 0.19619495288158856 0.5828214325581575 0.7843462017410316 0.8063182289806275 0.31372276074104916 10046:1.0 1096:3.0 279:1.0 5:1.0 818:1.0 545:12.0 557:2.0 1639:14.0 14:48.0 15:2.0 5485:4.0 10447:2.0 19:63.0 3000:3.0 2728:1.0 560:5.0 1346:2.0 810:1.0 268:1.0 304:1.0 4918:4.0 38:5.0 39:2.0 311:32.0 312:26.0 1127:1.0 798:6.0 47:9.0 1392:1.0 51:13.0 1389:2.0 289:3.0 535:7.0 534:3.0 292:32.0 1385:1.0 54:4.0 1143:3.0 300:4.0 5443:1.0 1860:3.0 71:36.0 1309:1.0 3055:3.0 351:1.0 349:5.0 8200:1.0 79:2.0 895:1.0 85:4.0 627:2.0 84:2.0 87:10.0 869:3.0 12828:1.0 1287:2.0 88:2.0 1047:9.0 91:4.0 90:1.0 372:1.0 2543:1.0 849:6.0 368:2.0 99:1.0 581:1.0 1546:1.0 97:2.0 110:1.0 12844:8.0 380:1.0 591:3.0 834:1.0 356:1.0 358:3.0 359:3.0 3712:1.0 596:1.0 126:2.0 843:1.0 1316:2.0 121:7.0 120:7.0 410:1.0 687:1.0 141:2.0 1770:1.0 2620:2.0 135:41.0 673:5.0 394:1.0 392:1.0 699:2.0 934:1.0 149:3.0 688:1.0 389:20.0 151:26.0 689:1.0 652:4.0 925:1.0 444:1.0 175:2.0 2819:3.0 445:4.0 6134:1.0 162:4.0 1256:3.0 669:1.0 428:2.0 188:3.0 4791:2.0 178:1.0 661:2.0 422:7.0 1972:1.0 206:1.0 201:8.0 1699:4.0 200:2.0 197:1.0 1711:1.0 1010:1.0 2922:10.0 1433:2.0 743:2.0 2379:1.0 1166:7.0 461:2.0 214:11.0 3076:2.0 996:1.0 210:1.0 448:5.0 715:6.0 5255:1.0 3605:4.0 978:1.0 3122:2.0 502:1.0 229:3.0 496:2.0 252:2.0 8623:1.0 3119:3.0 490:1.0 246:9.0 1211:3.0 1933:1.0 722:1.0 3105:1.0 243:1.0 727:10.0 14030:-1.0 
1.0 1.0 1.0 1.0 1.0 1.0 1.0 1.0 85:3.0 170:1.0 652:1.0 1035:1.0 292:1.0 5:1.0 581:2.0 693:1.0 1316:1.0 656:1.0 14030:-1.0 
1.0 1.0 1.0 1.0 1.0 1.0 1.0 1.0 1582:2.0 38:3.0 6132:1.0 3055:1.0 921:1.0 1770:1.0 527:1.0 167:1.0 292:1.0 191:1.0 735:1.0 560:2.0 25:1.0 753:4.0 3170:1.0 389:1.0 14030:-1.0 
1.0 1.0 1.0 0.09660419556181161 1.0 1.0 1.0 1.0 410:1.0 137:1.0 823:2.0 5:3.0 10:1.0 676:4.0 14:1.0 135:1.0 5841:1.0 566:3.0 2052:1.0 24:1.0 4877:1.0 690:1.0 652:1.0 3195:1.0 38:1.0 1131:24.0 4224:1.0 798:19.0 2946:1.0 51:7.0 534:2.0 292:3.0 297:2.0 3170:6.0 70:2.0 1699:3.0 5915:1.0 196:1.0 3637:1.0 5153:7.0 743:1.0 73:1.0 87:1.0 2384:2.0 877:14.0 4456:1.0 1287:11.0 1047:6.0 328:1.0 210:2.0 8634:7.0 715:31.0 849:1.0 101:2.0 1817:1.0 3605:1.0 1950:3.0 12844:2.0 380:2.0 496:2.0 1675:9.0 1920:2.0 485:5.0 121:7.0 14030:-1.0 
1.0 1.0 1.0 0.47447774942407706 1.0 1.0 1.0 1.0 70:2.0 5:1.0 5915:1.0 545:1.0 8:4.0 1981:3.0 1010:1.0 349:1.0 2042:3.0 78:3.0 4685:1.0 1012:5.0 14:2.0 85:2.0 155:1.0 2397:2.0 2670:4.0 2029:1.0 1790:2.0 90:2.0 926:3.0 38:11.0 581:1.0 1817:5.0 42:1.0 438:1.0 535:1.0 665:2.0 1084:1.0 364:1.0 4189:1.0 13042:1.0 367:16.0 240:1.0 14030:-1.0 
1.0 1.0 1.0 1.0 1.0 1.0 1.0 1.0 4722:3.0 48:1.0 54:8.0 9577:1.0 349:1.0 361:1.0 47:8.0 14030:-1.0 
1.0 1.0 1.0 0.28179764292719234 1.0 1.0 1.0 1.0 1762:2.0 1491:1.0 545:1.0 15:4.0 284:2.0 1116:7.0 3810:1.0 19:1.0 563:1.0 4391:1.0 24:5.0 692:4.0 2473:1.0 652:2.0 304:1.0 1731:1.0 649:1.0 38:13.0 6706:2.0 311:5.0 1263:1.0 46:2.0 47:1.0 4249:1.0 48:1.0 292:4.0 183:5.0 2092:2.0 60:1.0 204:2.0 70:2.0 201:2.0 4000:3.0 1309:2.0 78:6.0 1572:1.0 79:4.0 347:3.0 1012:12.0 1979:13.0 85:1.0 1000:7.0 1415:1.0 335:1.0 1287:2.0 88:2.0 328:1.0 372:1.0 849:1.0 5251:1.0 234:1.0 99:4.0 1817:1.0 706:1.0 862:1.0 107:2.0 2149:2.0 3232:1.0 594:1.0 4863:1.0 491:2.0 127:1.0 13771:3.0 14030:-1.0 
1.0 1.0 1.0 0.35510015341753487 1.0 1.0 1.0 1.0 9224:2.0 952:1.0 1219:3.0 559:1.0 1639:1.0 404:19.0 394:1.0 1359:1.0 13728:1.0 937:2.0 697:2.0 25:1.0 1650:2.0 3551:1.0 1346:1.0 1655:1.0 2721:3.0 790:2.0 2338:2.0 788:1.0 1733:4.0 311:1.0 917:1.0 1528:2.0 3183:1.0 1386:1.0 2699:1.0 1750:1.0 3097:5.0 70:14.0 884:4.0 1027:1.0 3748:1.0 4019:1.0 2115:1.0 1590:1.0 11742:1.0 633:2.0 752:1.0 994:9.0 1720:4.0 3611:1.0 1546:5.0 12844:1.0 502:1.0 1057:5.0 10898:1.0 496:1.0 376:1.0 1060:1.0 8623:1.0 1085:1.0 598:1.0 961:1.0 14030:-1.0 
1.0 1.0 1.0 0.5697993320829629 1.0 1.0 1.0 1.0 2614:1.0 823:1.0 3167:1.0 1219:1.0 559:1.0 825:3.0 2977:4.0 2438:5.0 404:4.0 1117:2.0 13728:7.0 2321:1.0 697:4.0 1787:1.0 2721:2.0 2720:1.0 926:1.0 790:2.0 788:1.0 512:1.0 922:1.0 311:5.0 4379:3.0 9389:1.0 2231:2.0 1607:2.0 191:1.0 1386:2.0 539:1.0 13333:2.0 70:11.0 884:2.0 351:1.0 1571:2.0 621:4.0 869:1.0 3356:3.0 633:2.0 752:2.0 994:4.0 996:2.0 1939:1.0 1546:3.0 12844:6.0 1057:1.0 1470:12.0 252:1.0 1085:4.0 1077:1.0 727:1.0 14030:-1.0 
1.0 1.0 1.0 0.25035708139757 1.0 1.0 1.0 1.0 823:3.0 1641:4.0 5:8.0 1919:1.0 558:1.0 4410:1.0 2438:2.0 3290:3.0 14:17.0 15:3.0 804:1.0 10447:1.0 566:1.0 2734:1.0 19:3.0 3000:1.0 4086:1.0 24:8.0 2181:12.0 268:1.0 790:3.0 38:3.0 309:1.0 2239:1.0 311:7.0 2226:1.0 798:1.0 312:4.0 8303:1.0 2946:2.0 47:5.0 51:10.0 1389:2.0 535:5.0 48:7.0 292:5.0 768:1.0 1856:2.0 539:1.0 777:1.0 1582:1.0 881:1.0 3767:2.0 70:6.0 883:1.0 884:1.0 66:1.0 349:2.0 78:1.0 1297:1.0 79:6.0 84:2.0 87:1.0 4448:2.0 334:2.0 91:4.0 329:2.0 372:1.0 579:1.0 97:2.0 381:8.0 859:1.0 12572:1.0 1060:1.0 3738:1.0 104:2.0 356:1.0 359:2.0 364:2.0 1073:4.0 1316:2.0 1077:1.0 121:1.0 684:1.0 412:6.0 1488:6.0 673:2.0 135:6.0 404:1.0 395:2.0 2049:1.0 13728:1.0 697:2.0 1485:2.0 5853:1.0 149:3.0 1480:2.0 927:1.0 652:8.0 444:2.0 1522:2.0 172:1.0 434:3.0 9389:1.0 164:4.0 670:10.0 11307:1.0 2560:2.0 665:1.0 666:1.0 4483:3.0 661:1.0 1279:1.0 5030:1.0 9883:2.0 3655:1.0 1427:1.0 1008:2.0 2922:1.0 6040:1.0 1166:2.0 4589:11.0 1000:1.0 4826:1.0 1412:3.0 754:3.0 455:1.0 2125:1.0 752:1.0 753:1.0 3350:1.0 1720:1.0 448:1.0 235:3.0 3363:2.0 729:3.0 3119:3.0 734:1.0 2630:1.0 485:2.0 4309:2.0 963:1.0 2431:1.0 3104:1.0 961:1.0 483:2.0 1454:2.0 14030:-1.0 
1.0 1.0 1.0 0.30014103632656347 1.0 1.0 1.0 1.0 137:2.0 687:1.0 682:1.0 5:5.0 412:3.0 818:1.0 558:1.0 135:6.0 14:11.0 1116:4.0 19:1.0 1119:1.0 699:1.0 697:1.0 560:1.0 934:1.0 3959:1.0 810:1.0 268:1.0 151:3.0 440:6.0 304:2.0 1407:1.0 444:1.0 38:2.0 2239:1.0 311:2.0 1125:1.0 520:1.0 47:3.0 1120:1.0 164:1.0 51:2.0 3656:2.0 292:2.0 1871:1.0 666:1.0 11918:1.0 2843:1.0 539:1.0 4126:3.0 70:2.0 10105:1.0 71:6.0 12020:2.0 1699:1.0 1309:1.0 197:1.0 349:1.0 5563:1.0 737:3.0 79:3.0 195:1.0 1166:1.0 7814:1.0 87:7.0 3070:2.0 93:1.0 1176:1.0 454:1.0 633:1.0 752:3.0 214:12.0 91:6.0 4165:1.0 102:2.0 577:1.0 579:1.0 581:13.0 97:4.0 5940:1.0 2649:1.0 12844:1.0 502:1.0 1060:1.0 2150:1.0 253:8.0 1087:3.0 8623:3.0 1802:5.0 2901:1.0 598:1.0 126:1.0 1315:1.0 602:2.0 121:1.0 120:2.0 14030:-1.0 
1.0 1.0 1.0 1.0 1.0 1.0 1.0 1.0 1582:1.0 652:1.0 715:1.0 476:1.0 3947:1.0 201:3.0 38:2.0 921:1.0 1734:1.0 381:2.0 110:1.0 559:2.0 2922:1.0 400:1.0 1260:2.0 347:1.0 14:1.0 85:1.0 729:1.0 19:2.0 292:8.0 1143:1.0 246:1.0 2568:1.0 14030:-1.0 
1.0 1.0 1.0 1.0 1.0 1.0 1.0 1.0 205:4.0 410:2.0 175:1.0 38:3.0 5915:2.0 2819:4.0 2432:2.0 617:1.0 167:4.0 347:1.0 2137:7.0 73:6.0 1675:2.0 8254:1.0 448:1.0 14030:-1.0 
1.0 0.9821504508220962 1.0 0.1645893328109804 1.0 0.8529105331165517 0.8349868078151601 0.9778735205932494 2033:3.0 1641:3.0 681:3.0 559:6.0 135:9.0 14:54.0 19:6.0 563:3.0 25:18.0 24:6.0 2329:3.0 934:15.0 151:9.0 304:3.0 3674:9.0 38:21.0 39:3.0 311:6.0 1885:3.0 2952:18.0 312:10.0 1125:3.0 46:4.0 3185:3.0 51:15.0 289:9.0 535:3.0 49:21.0 534:9.0 292:31.0 770:1.0 293:3.0 1385:6.0 5998:3.0 1143:6.0 2688:3.0 71:33.0 614:3.0 201:6.0 3055:9.0 1163:3.0 1012:9.0 347:9.0 2259:3.0 85:6.0 221:3.0 325:6.0 457:9.0 455:3.0 334:3.0 93:3.0 633:3.0 214:9.0 996:9.0 91:18.0 102:3.0 372:9.0 849:3.0 511:3.0 99:3.0 2781:3.0 501:18.0 590:3.0 356:3.0 2149:3.0 10180:3.0 246:9.0 127:3.0 365:6.0 121:3.0 240:3.0 14030:-1.0 
1.0 1.0 1.0 1.0 1.0 1.0 1.0 1.0 5630:3.0 1237:1.0 21:2.0 25:4.0 2176:1.0 264:1.0 690:1.0 3822:1.0 1653:2.0 1135:1.0 790:1.0 33:1.0 38:2.0 5049:1.0 12636:1.0 43:1.0 2590:1.0 167:1.0 46:1.0 166:1.0 184:1.0 665:2.0 189:2.0 1859:1.0 1993:2.0 897:1.0 64:1.0 614:1.0 14023:1.0 200:1.0 748:1.0 78:1.0 349:1.0 7217:1.0 469:1.0 346:1.0 3634:1.0 85:4.0 221:1.0 1295:2.0 214:4.0 2397:3.0 90:7.0 1183:2.0 1187:1.0 372:2.0 99:1.0 234:1.0 1666:2.0 2160:1.0 501:1.0 1812:1.0 493:1.0 729:2.0 592:1.0 734:1.0 246:1.0 243:1.0 14030:-1.0 
1.0 1.0 1.0 0.2929738767314084 1.0 1.0 1.0 1.0 548:1.0 1364:1.0 14:15.0 1116:4.0 4145:5.0 560:1.0 25:2.0 1346:3.0 268:22.0 35:1.0 38:11.0 2952:1.0 527:2.0 1125:7.0 46:1.0 11694:1.0 535:3.0 48:1.0 292:5.0 1385:1.0 54:6.0 4120:7.0 1618:1.0 70:2.0 71:3.0 612:2.0 78:1.0 349:4.0 347:2.0 9555:1.0 85:3.0 84:1.0 87:1.0 3070:1.0 1054:1.0 1040:1.0 877:1.0 1287:4.0 91:13.0 1047:2.0 372:2.0 100:1.0 849:1.0 1065:3.0 1545:2.0 1547:1.0 12844:3.0 3008:1.0 589:21.0 104:10.0 590:1.0 834:4.0 1801:2.0 112:2.0 1316:1.0 1077:2.0 121:1.0 410:1.0 1767:1.0 414:2.0 11832:1.0 412:6.0 135:4.0 3961:1.0 394:1.0 699:7.0 934:2.0 151:2.0 1731:1.0 168:1.0 2006:1.0 6406:1.0 1257:1.0 164:3.0 1531:1.0 664:4.0 905:2.0 178:1.0 661:5.0 183:1.0 422:2.0 206:1.0 197:1.0 1010:1.0 1166:1.0 457:1.0 219:1.0 214:7.0 752:2.0 3894:1.0 4576:2.0 1720:3.0 210:1.0 13508:3.0 510:1.0 233:1.0 2649:13.0 493:1.0 9951:1.0 243:1.0 241:1.0 14030:-1.0 
1.0 1.0 1.0 1.0 1.0 1.0 1.0 1.0 2783:1.0 541:1.0 1211:1.0 616:1.0 1316:1.0 1639:1.0 14:1.0 164:1.0 689:1.0 5474:4.0 14030:-1.0 
1.0 1.0 1.0 1.0 1.0 1.0 1.0 1.0 410:5.0 551:1.0 70:2.0 2855:2.0 991:1.0 1817:1.0 312:1.0 617:1.0 73:4.0 14:6.0 1675:4.0 48:2.0 261:2.0 364:2.0 24:1.0 14030:-1.0 
1.0 1.0 1.0 0.2550661578310695 1.0 1.0 1.0 1.0 687:1.0 3827:1.0 70:24.0 412:1.0 1218:1.0 559:19.0 616:1.0 1012:6.0 135:3.0 14:5.0 1979:19.0 1289:1.0 1415:2.0 4028:4.0 1486:2.0 1650:1.0 633:1.0 2788:1.0 1480:3.0 448:1.0 579:2.0 1546:1.0 1188:4.0 1666:3.0 4568:1.0 502:4.0 1392:2.0 164:1.0 535:4.0 292:1.0 10180:1.0 836:1.0 1386:1.0 8608:2.0 5139:5.0 241:1.0 727:2.0 14030:-1.0 
1.0 1.0 1.0 0.26343862953920455 1.0 1.0 1.0 1.0 410:2.0 70:2.0 5:1.0 5915:2.0 818:7.0 1008:1.0 351:4.0 2501:1.0 1231:15.0 1163:1.0 737:1.0 617:3.0 79:8.0 73:6.0 3810:2.0 565:1.0 560:8.0 261:8.0 212:1.0 24:2.0 1105:2.0 2670:1.0 996:4.0 810:1.0 1788:1.0 8634:1.0 5798:1.0 304:6.0 372:1.0 849:1.0 510:2.0 925:10.0 444:2.0 99:2.0 3797:2.0 110:9.0 1949:3.0 46:3.0 2110:1.0 51:1.0 1389:1.0 495:3.0 3989:3.0 1386:1.0 541:5.0 298:19.0 183:1.0 121:2.0 14030:-1.0 
1.0 1.0 1.0 0.20363429562978225 1.0 1.0 1.0 1.0 1581:2.0 545:1.0 10813:1.0 8:1.0 79:1.0 85:2.0 560:3.0 266:2.0 93:1.0 214:5.0 810:2.0 449:3.0 304:1.0 372:3.0 2583:1.0 38:1.0 5404:2.0 47:3.0 164:1.0 8480:1.0 292:1.0 54:48.0 353:3.0 183:3.0 121:3.0 5681:1.0 14030:-1.0 
1.0 1.0 1.0 0.1679029996537019 1.0 1.0 1.0 1.0 1096:6.0 5:1.0 1919:3.0 544:1.0 558:1.0 1367:3.0 286:1.0 3543:1.0 1116:1.0 19:4.0 803:1.0 22:1.0 1651:1.0 266:1.0 25:2.0 1108:1.0 24:11.0 1650:1.0 2999:5.0 810:1.0 789:6.0 38:15.0 1130:2.0 309:3.0 311:1.0 798:4.0 312:3.0 47:3.0 1120:1.0 1389:1.0 4663:1.0 289:2.0 534:1.0 7905:1.0 48:43.0 292:1.0 1387:12.0 298:1.0 2482:6.0 60:4.0 881:7.0 70:1.0 3055:1.0 78:2.0 616:1.0 79:12.0 73:5.0 346:2.0 86:1.0 633:2.0 1586:1.0 1287:2.0 88:1.0 12824:1.0 90:2.0 1337:2.0 849:10.0 13389:1.0 581:2.0 1817:9.0 4440:1.0 1060:2.0 595:1.0 3232:2.0 837:5.0 364:1.0 10672:1.0 1315:1.0 2759:1.0 4733:1.0 410:5.0 412:3.0 951:1.0 404:2.0 135:1.0 2047:1.0 389:2.0 645:2.0 4224:1.0 162:1.0 3908:17.0 424:2.0 1508:1.0 1746:1.0 1012:5.0 1979:4.0 1953:1.0 219:1.0 996:2.0 210:5.0 448:1.0 1458:2.0 715:7.0 501:2.0 1949:1.0 6075:1.0 1675:1.0 729:1.0 252:3.0 481:3.0 241:2.0 13771:1.0 14030:-1.0 
1.0 1.0 1.0 0.26253401645182933 1.0 1.0 1.0 1.0 207:1.0 79:1.0 85:1.0 3810:3.0 221:3.0 560:25.0 6650:2.0 9847:3.0 304:2.0 372:1.0 38:7.0 42:5.0 12688:1.0 1533:1.0 46:2.0 2110:2.0 105:8.0 1389:1.0 3597:1.0 729:1.0 1387:19.0 3862:1.0 537:1.0 1688:2.0 183:3.0 14030:-1.0 
1.0 1.0 1.0 1.0 1.0 1.0 1.0 1.0 578:1.0 49:1.0 38:1.0 1802:2.0 2952:2.0 349:1.0 1879:2.0 135:1.0 1979:2.0 2093:1.0 14030:-1.0 
1.0 1.0 1.0 1.0 1.0 1.0 1.0 1.0 87:1.0 253:1.0 1085:2.0 97:7.0 434:1.0 149:1.0 14030:-1.0 
1.0 1.0 1.0 1.0 1.0 1.0 1.0 1.0 1135:1.0 70:1.0 87:3.0 71:4.0 48:1.0 292:3.0 24:1.0 214:2.0 3170:1.0 13045:2.0 268:1.0 1284:6.0 14030:-1.0 
1.0 1.0 1.0 1.0 1.0 1.0 1.0 1.0 169:1.0 925:2.0 412:1.0 1711:1.0 3363:2.0 135:2.0 14:4.0 1166:4.0 356:3.0 2223:2.0 55:1.0 292:3.0 334:1.0 722:1.0 2329:4.0 2756:2.0 996:4.0 539:1.0 241:1.0 689:7.0 422:2.0 14030:-1.0 
1.0 1.0 1.0 1.0 1.0 1.0 1.0 1.0 884:1.0 4194:1.0 197:1.0 12872:1.0 706:2.0 1012:3.0 794:1.0 135:1.0 14:2.0 5110:1.0 51:2.0 534:1.0 364:2.0 24:3.0 1073:2.0 4125:1.0 14030:-1.0 
1.0 1.0 1.0 1.0 1.0 1.0 1.0 1.0 5179:1.0 201:1.0 39:2.0 905:3.0 112:1.0 197:1.0 161:1.0 722:3.0 286:1.0 14030:-1.0 
0.5458490750828808 1.0 0.3425849472445193 0.21831922090884018 0.0 0.8806476444743259 0.8771326821615466 0.0 2200:9.0 8258:1.0 5:82.0 545:13.0 558:21.0 8:28.0 10:2.0 556:26.0 1088:3.0 14:116.0 8141:1.0 15:4.0 1116:38.0 3810:4.0 19:22.0 565:3.0 1119:5.0 563:4.0 560:79.0 2728:1.0 4393:9.0 1651:1.0 24:4.0 1655:118.0 29:20.0 516:2.0 4370:10.0 12629:2.0 35:2.0 3795:1.0 519:1.0 2712:1.0 512:37.0 38:171.0 1131:1.0 11447:1.0 6000:1.0 42:1.0 43:8.0 3804:11.0 46:1.0 47:120.0 51:5.0 1627:2.0 535:1.0 534:2.0 48:14.0 1148:1.0 9277:2.0 54:64.0 13582:9.0 1143:19.0 11918:1.0 3787:3.0 537:31.0 1623:3.0 539:3.0 3304:1.0 1582:3.0 3218:8.0 70:9.0 7113:5.0 1035:9.0 71:13.0 1581:14.0 612:2.0 8076:5.0 1572:2.0 8200:1.0 78:46.0 2262:9.0 79:127.0 617:10.0 1028:34.0 73:205.0 621:6.0 85:23.0 84:8.0 87:18.0 86:1.0 3202:2.0 1595:5.0 628:2.0 2245:3.0 93:1.0 633:4.0 1045:3.0 88:1.0 91:5.0 4458:3.0 102:2.0 4439:6.0 100:2.0 1065:2.0 579:7.0 580:2.0 4980:1.0 8707:1.0 2781:3.0 581:6.0 99:2.0 5404:3.0 1547:2.0 97:82.0 110:17.0 12572:1.0 1060:10.0 590:15.0 105:1.0 2286:5.0 5386:1.0 118:2.0 3233:15.0 3232:4.0 594:7.0 596:2.0 1084:4.0 112:1.0 602:2.0 13635:1.0 121:58.0 120:25.0 137:1.0 1762:2.0 2612:1.0 5018:7.0 2071:4.0 1231:3.0 6105:21.0 2620:55.0 135:47.0 155:2.0 1782:12.0 697:2.0 695:1.0 690:3.0 151:9.0 1728:1.0 652:150.0 175:2.0 174:1.0 6406:1.0 172:7.0 9382:2.0 1737:3.0 644:1.0 9389:4.0 166:1.0 2108:3.0 670:7.0 11307:17.0 1265:3.0 660:1.0 1279:1.0 1276:1.0 183:16.0 2092:25.0 1273:3.0 2134:13.0 4606:2.0 201:5.0 200:2.0 5075:1.0 196:2.0 3637:4.0 737:2.0 3091:6.0 1163:7.0 1166:24.0 1717:1.0 3626:5.0 12716:2.0 219:73.0 752:2.0 6526:1.0 214:28.0 5057:1.0 753:24.0 208:3.0 3076:5.0 2670:3.0 210:3.0 2122:1.0 715:18.0 234:1.0 1188:1.0 230:5.0 707:1.0 6476:1.0 706:2.0 2170:3.0 1675:1.0 6075:4.0 1674:3.0 3597:1.0 252:1.0 4556:16.0 2149:1.0 253:7.0 2630:3.0 1211:5.0 1215:6.0 243:1.0 727:3.0 241:27.0 13771:48.0 3587:2.0 10046:2.0 7892:3.0 2984:3.0 282:2.0 4137:12.0 4077:4.0 261:6.0 4153:2.0 1346:2.0 270:2.0 810:3.0 790:16.0 304:2.0 307:1.0 789:19.0 4103:2.0 311:10.0 798:5.0 312:155.0 4652:1.0 3566:4.0 1389:3.0 289:1.0 7905:11.0 292:32.0 12177:15.0 2967:2.0 2482:16.0 298:56.0 1383:1.0 4126:1.0 343:3.0 881:1.0 1854:1.0 9012:1.0 884:3.0 7349:2.0 337:6.0 11714:14.0 351:18.0 5636:1.0 349:6.0 2501:82.0 3465:8.0 346:13.0 895:7.0 1288:1.0 869:10.0 3070:1.0 5170:5.0 334:1.0 5653:1.0 335:1.0 877:2.0 1287:8.0 328:1.0 878:1.0 372:2.0 4706:2.0 1821:3.0 1817:86.0 12844:1.0 382:4.0 376:1.0 379:1.0 4716:11.0 11767:12.0 358:1.0 1802:3.0 353:62.0 1801:5.0 837:77.0 364:47.0 1798:2.0 6341:17.0 6336:2.0 3029:41.0 3406:1.0 410:12.0 412:3.0 5831:7.0 2314:3.0 6203:2.0 1503:2.0 11112:2.0 5356:1.0 7763:2.0 8657:1.0 404:6.0 10168:8.0 394:1.0 1486:74.0 1485:7.0 934:1.0 389:3.0 926:10.0 440:26.0 11074:2.0 925:7.0 444:6.0 445:2.0 4224:1.0 1533:31.0 434:2.0 2357:2.0 1990:2.0 428:4.0 11095:5.0 3338:8.0 1972:2.0 4335:15.0 3882:1.0 2368:1.0 2382:59.0 1435:3.0 4324:2.0 1010:3.0 1011:72.0 1012:6.0 2379:4.0 9690:22.0 1979:1.0 1000:38.0 1412:3.0 455:4.0 9126:1.0 3346:4.0 996:1.0 3350:20.0 449:2.0 3370:31.0 510:22.0 991:2.0 978:180.0 501:1.0 5258:1.0 502:36.0 496:1.0 6232:3.0 1947:1.0 3841:3.0 969:1.0 1924:5.0 8623:13.0 491:3.0 1920:1.0 963:2.0 1452:10.0 7172:1.0 1454:1.0 2426:6.0 3382:1.0 14030:-1.0 
1.0 1.0 1.0 0.21828264656101992 1.0 1.0 1.0 1.0 5:1.0 412:1.0 3223:2.0 349:2.0 73:17.0 285:18.0 15:2.0 2798:13.0 560:6.0 219:4.0 335:1.0 389:1.0 652:3.0 3370:1.0 512:1.0 978:1.0 312:2.0 1127:3.0 589:1.0 47:35.0 534:1.0 48:4.0 770:1.0 299:1.0 121:1.0 241:3.0 14030:-1.0 
1.0 1.0 1.0 1.0 1.0 1.0 1.0 1.0 8634:1.0 3055:1.0 188:1.0 560:4.0 3170:1.0 3076:2.0 14030:-1.0 
1.0 1.0 1.0 1.0 1.0 1.0 1.0 1.0 4605:1.0 3461:1.0 2308:1.0 349:2.0 737:1.0 2924:1.0 13:1.0 346:1.0 552:9.0 3230:1.0 762:1.0 2253:1.0 1599:1.0 84:1.0 394:1.0 1113:2.0 21:2.0 218:1.0 1174:1.0 159:7.0 1114:1.0 22:1.0 24:1.0 4515:1.0 876:1.0 149:1.0 6948:1.0 237:1.0 654:2.0 581:4.0 161:1.0 707:1.0 228:2.0 2014:1.0 589:1.0 1389:1.0 289:2.0 4248:1.0 13157:1.0 1084:1.0 3236:1.0 1796:2.0 3514:1.0 1993:1.0 481:2.0 14030:-1.0 
1.0 1.0 1.0 0.22856271366289738 1.0 1.0 1.0 1.0 410:1.0 823:14.0 1915:2.0 952:1.0 5:1.0 412:3.0 8:1.0 831:1.0 14:4.0 15:1.0 1116:7.0 3006:1.0 564:1.0 3420:2.0 699:1.0 697:1.0 25:9.0 690:3.0 12529:1.0 149:1.0 444:10.0 38:1.0 3919:1.0 1732:1.0 42:1.0 645:3.0 312:3.0 2829:1.0 47:1.0 164:3.0 51:8.0 9273:34.0 1389:1.0 292:19.0 770:1.0 54:3.0 5448:3.0 2361:1.0 71:2.0 3055:2.0 1845:3.0 349:3.0 5153:1.0 79:1.0 347:2.0 1012:2.0 1166:23.0 85:1.0 84:1.0 87:5.0 1295:1.0 1004:1.0 1712:1.0 334:1.0 754:1.0 214:1.0 1042:2.0 88:1.0 91:1.0 999:2.0 5249:2.0 372:4.0 510:14.0 1065:1.0 1939:14.0 99:4.0 97:10.0 110:30.0 1202:9.0 358:3.0 968:1.0 253:25.0 359:1.0 1085:7.0 365:1.0 1314:1.0 121:1.0 14030:-1.0 
1.0 1.0 1.0 0.20011747565705612 1.0 1.0 1.0 1.0 200:1.0 1981:2.0 196:10.0 616:1.0 1012:2.0 135:4.0 14:3.0 1166:1.0 2253:1.0 1116:6.0 87:1.0 563:3.0 214:1.0 878:1.0 652:1.0 235:2.0 581:1.0 1817:1.0 2783:1.0 645:1.0 5506:1.0 730:1.0 2149:1.0 1084:1.0 1993:1.0 13771:10.0 241:1.0 14030:-1.0 
1.0 1.0 1.0 0.5679020031952743 1.0 1.0 1.0 1.0 11956:1.0 137:1.0 410:1.0 686:1.0 136:1.0 1223:2.0 2749:1.0 277:1.0 8:2.0 556:2.0 702:2.0 21:2.0 939:2.0 1114:1.0 159:3.0 2056:1.0 1651:1.0 24:1.0 932:1.0 264:1.0 148:1.0 389:1.0 304:1.0 175:4.0 1886:1.0 11327:1.0 43:7.0 1124:4.0 46:1.0 167:1.0 166:2.0 533:1.0 532:1.0 3449:4.0 1871:1.0 9886:1.0 176:1.0 537:1.0 207:1.0 64:2.0 1020:1.0 201:1.0 200:1.0 1434:1.0 1981:1.0 1160:1.0 349:4.0 737:1.0 78:1.0 1164:3.0 346:1.0 895:1.0 1599:1.0 864:1.0 84:1.0 2389:1.0 2793:1.0 2113:1.0 218:1.0 1174:1.0 334:1.0 92:1.0 13669:1.0 208:2.0 90:12.0 372:1.0 6367:1.0 581:2.0 707:1.0 227:1.0 862:2.0 1675:1.0 1197:3.0 594:2.0 2283:2.0 1084:6.0 112:2.0 837:2.0 127:2.0 247:2.0 603:1.0 1796:2.0 121:1.0 14030:-1.0 
1.0 1.0 1.0 0.6637913376742103 1.0 1.0 1.0 1.0 3523:1.0 5018:1.0 818:1.0 1163:1.0 79:4.0 73:4.0 14:14.0 19:1.0 1782:1.0 1412:1.0 560:1.0 994:2.0 389:1.0 926:3.0 372:1.0 3855:1.0 925:1.0 581:1.0 311:2.0 312:1.0 4562:1.0 47:1.0 1060:1.0 6075:2.0 1675:1.0 289:1.0 2901:1.0 837:1.0 3932:5.0 5823:1.0 841:1.0 183:1.0 121:2.0 241:1.0 13771:2.0 14030:-1.0 
1.0 1.0 1.0 0.2644098954910041 1.0 1.0 1.0 1.0 10046:2.0 1219:1.0 5164:24.0 3829:1.0 2622:20.0 2501:3.0 12666:4.0 73:4.0 135:3.0 14:4.0 1979:2.0 87:1.0 1782:1.0 1287:7.0 9675:1.0 151:2.0 926:10.0 372:1.0 13508:1.0 3370:3.0 925:11.0 99:1.0 1817:9.0 312:8.0 589:9.0 670:3.0 535:1.0 11307:1.0 837:1.0 2966:1.0 121:3.0 241:1.0 14030:-1.0 
1.0 1.0 1.0 1.0 1.0 1.0 1.0 1.0 51:2.0 292:1.0 869:1.0 2819:1.0 1614:1.0 1771:1.0 135:1.0 14:3.0 14030:-1.0 
1.0 1.0 1.0 0.33282486556963325 1.0 1.0 1.0 1.0 687:2.0 548:1.0 71:13.0 3523:1.0 5:2.0 471:1.0 78:1.0 349:1.0 1088:3.0 895:1.0 14:8.0 2804:1.0 15:1.0 85:2.0 19:4.0 4019:1.0 335:1.0 877:2.0 91:1.0 1047:1.0 210:2.0 8634:1.0 715:9.0 1731:2.0 445:2.0 311:2.0 1263:1.0 380:1.0 51:10.0 2083:1.0 909:1.0 535:4.0 292:9.0 10958:1.0 353:1.0 2568:1.0 121:2.0 422:1.0 14030:-1.0 
1.0 1.0 1.0 0.16368630549997118 1.0 0.9867569062870444 0.9387777114426574 1.0 70:1.0 3:18.0 414:1.0 3523:2.0 5:1.0 4608:19.0 544:3.0 66:1.0 1851:1.0 412:4.0 11902:10.0 1229:20.0 471:7.0 1010:1.0 1088:1.0 14:9.0 673:44.0 767:1.0 699:3.0 1245:1.0 24:3.0 145:1.0 934:4.0 4159:1.0 210:3.0 389:2.0 1135:1.0 372:1.0 715:2.0 849:5.0 9921:1.0 38:2.0 99:1.0 1263:1.0 380:2.0 862:1.0 1810:1.0 2946:53.0 51:6.0 289:2.0 6054:2.0 770:2.0 292:5.0 127:1.0 2568:3.0 60:1.0 241:1.0 14030:-1.0 
1.0 1.0 1.0 0.2127059007621438 1.0 1.0 1.0 1.0 10046:1.0 1915:1.0 5:3.0 412:3.0 8:4.0 3696:1.0 2438:1.0 14:24.0 135:9.0 284:1.0 25:2.0 24:1.0 1105:1.0 151:1.0 170:1.0 1728:1.0 38:4.0 512:1.0 445:2.0 311:4.0 312:1.0 46:1.0 47:1.0 51:1.0 1389:1.0 289:2.0 292:31.0 54:7.0 905:1.0 11095:1.0 541:2.0 422:6.0 343:1.0 3218:1.0 70:1.0 201:1.0 197:1.0 1010:2.0 2922:15.0 347:1.0 1166:11.0 5431:2.0 85:5.0 84:2.0 1288:1.0 869:1.0 1041:1.0 214:3.0 877:1.0 91:3.0 372:1.0 510:1.0 100:2.0 99:3.0 97:1.0 380:1.0 12844:1.0 1063:3.0 104:2.0 356:2.0 832:8.0 253:2.0 359:17.0 1566:1.0 121:2.0 120:1.0 14030:-1.0 
1.0 1.0 1.0 0.536373797228894 1.0 1.0 1.0 1.0 410:2.0 5:1.0 412:4.0 559:8.0 949:1.0 135:4.0 14:7.0 395:1.0 19:2.0 560:3.0 26:2.0 4753:1.0 688:3.0 38:1.0 1263:1.0 1125:4.0 917:1.0 1260:1.0 47:2.0 164:4.0 6412:1.0 51:5.0 535:7.0 2081:1.0 48:1.0 12745:1.0 189:1.0 1143:1.0 2090:1.0 298:2.0 1035:1.0 71:1.0 2814:1.0 3055:2.0 2261:1.0 2922:1.0 349:1.0 1010:1.0 1012:1.0 85:1.0 87:6.0 8084:1.0 457:1.0 2244:1.0 214:2.0 753:4.0 3213:1.0 88:2.0 91:1.0 1547:2.0 1950:3.0 2648:2.0 107:2.0 591:3.0 730:1.0 359:2.0 2149:1.0 246:1.0 241:1.0 14030:-1.0 
1.0 1.0 1.0 1.0 1.0 1.0 1.0 1.0 652:1.0 292:1.0 38:1.0 559:2.0 383:1.0 4937:1.0 781:1.0 1012:2.0 104:1.0 14:1.0 1979:1.0 14030:-1.0 
1.0 1.0 1.0 1.0 1.0 1.0 1.0 1.0 1564:1.0 3370:3.0 325:2.0 5915:1.0 3119:1.0 547:1.0 1817:5.0 4224:2.0 859:5.0 381:1.0 73:2.0 389:1.0 14030:-1.0 
1.0 1.0 1.0 0.7777281364969069 1.0 1.0 1.0 1.0 137:3.0 1699:1.0 2922:1.0 135:9.0 14:1.0 84:1.0 394:1.0 87:6.0 2732:1.0 870:1.0 992:1.0 2029:3.0 1790:10.0 1047:2.0 689:3.0 151:1.0 1135:1.0 13508:1.0 42:1.0 2533:1.0 167:1.0 46:1.0 164:2.0 2149:1.0 115:2.0 292:1.0 121:2.0 241:1.0 14030:-1.0 
1.0 1.0 1.0 0.17061083728512685 1.0 1.0 1.0 1.0 410:5.0 8671:1.0 414:1.0 5:1.0 412:3.0 1770:1.0 407:1.0 285:5.0 1237:1.0 1113:1.0 396:1.0 22:1.0 25:2.0 24:4.0 149:6.0 810:1.0 304:3.0 1728:1.0 925:4.0 37:3.0 645:4.0 312:4.0 521:1.0 166:1.0 2110:2.0 47:9.0 1389:1.0 535:10.0 48:1.0 292:15.0 3299:4.0 54:2.0 541:2.0 299:5.0 70:4.0 615:1.0 1010:1.0 349:1.0 617:3.0 2512:1.0 1668:1.0 100:1.0 849:1.0 381:4.0 496:13.0 862:1.0 1675:1.0 730:3.0 127:1.0 4191:1.0 121:1.0 1454:57.0 14030:-1.0 
